svm_type c_svc
kernel_type rbf
gamma 0.083333333333333329
nr_class 2
total_sv 166
rho 0.46352695416585571
label 1 -1
probA -2.3335680835363366
probB 0.8975915469689173
nr_sv 58 108
SV
0.23673252971871186 1:10.672605 2:41.270147 3:0.1561665 4:0.097884497 5:0.090216477 6:0.093402825 7:0.095416701 8:0.09568893 9:0.09490243 10:0.092180568 11:0.088799013 12:0.086546763 
3.9473014796253292 1:1.7670901 2:18.318379 3:0.56457024 4:0.32454553 5:0.059568613 6:0.023283051 7:0.018622567 8:0.0037760356 9:0.00068096487 10:0.0020653182 11:0.0021209636 12:0.00074274618 
1.4785001613207993 1:31.868198 2:183.79018 3:0.12590624 4:0.091593468 5:0.098510574 6:0.096505048 7:0.097860473 8:0.09531871 9:0.094506077 10:0.09626233 11:0.098951807 12:0.10033998 
4 1:6.5827596 2:16.553745 3:0.12640167 4:0.12362155 5:0.10810377 6:0.095957031 7:0.082641712 8:0.095324735 9:0.094452277 10:0.090112692 11:0.08520066 12:0.096438107 
1.4634870349749274 1:18.93132 2:125.63762 3:0.14636427 4:0.10100621 5:0.11916796 6:0.10792725 7:0.092265479 8:0.10142818 9:0.082167479 10:0.085618101 11:0.080877586 12:0.077349519 
2.3829741390195616 1:3.8432651 2:22.189985 3:0.38283304 4:0.26223989 5:0.086689694 6:0.041204173 7:0.038051257 8:0.037630676 9:0.037483904 10:0.037438727 11:0.037310419 12:0.037257184 
0.75856537427765458 1:11.830996 2:10.000311 3:0.12754794 4:0.12184757 5:0.10242007 6:0.092880332 7:0.091315327 8:0.091834819 9:0.091980928 10:0.091828865 11:0.091879449 12:0.092158253 
4 1:5.2559853 2:4.4581801 3:0.18207393 4:0.10408209 5:0.093823991 6:0.090611749 7:0.08788446 8:0.087187799 9:0.087204702 10:0.087110566 11:0.087588588 12:0.088143695 
1.2177333225163036 1:13.225844 2:26.530876 3:0.14756548 4:0.12630111 5:0.10449253 6:0.090792887 7:0.089161094 8:0.086836894 9:0.088100002 10:0.087189868 11:0.087275233 12:0.089032311 
0.25472361290861645 1:7.7748478 2:24.901456 3:0.18552334 4:0.11514415 5:0.094250093 6:0.091331746 7:0.092101464 8:0.090861021 9:0.08769624 10:0.082408837 11:0.077214905 12:0.073557508 
1.4637180928994129 1:32.106674 2:308.96625 3:0.059575414 4:0.081631293 5:0.073329275 6:0.085763976 7:0.10415266 8:0.10030936 9:0.11239913 10:0.12749928 11:0.11946012 12:0.12609779 
2.3526053170631562 1:14.811527 2:91.673938 3:0.23034184 4:0.13243493 5:0.11394814 6:0.097954967 7:0.084113755 8:0.073187248 9:0.073320155 10:0.065843645 11:0.058362423 12:0.063480563 
1.5054687357217573 1:33.924895 2:606.45672 3:0.15509751 4:0.14350609 5:0.11545144 6:0.15501637 7:0.13398008 8:0.1113698 9:0.087846236 10:0.044137833 11:0.032968467 12:0.019403798 
1.3140286228384721 1:1.6028481 2:12.795414 3:0.55353234 4:0.33366296 5:0.066663533 6:0.020880873 7:0.013664051 8:0.006083498 9:0.00078735163 10:0.0014496086 11:0.0021975887 12:0.0010653943 
2.4886304463115865 1:1.5083928 2:10.73125 3:0.55332908 4:0.34624533 5:0.067626243 6:0.014428022 7:0.0097735534 8:0.0051523598 9:0.00085498337 10:0.00068675611 11:0.0012430212 12:0.00065973878 
0.32485647895669673 1:11.294396 2:16.152035 3:0.12905043 4:0.098452893 5:0.099249916 6:0.0944683 7:0.096763388 8:0.09468911 9:0.094830176 10:0.096508338 11:0.095085253 12:0.094434054 
1.4635269541660807 1:35.577734 2:262.27929 3:0.12307561 4:0.11147194 5:0.11382913 6:0.10952827 7:0.10467488 8:0.097157722 9:0.090162665 10:0.083615919 11:0.081091993 12:0.080505995 
0.54679724351269554 1:8.8467682 2:61.063126 3:0.27689324 4:0.11263574 5:0.08481392 6:0.076184827 7:0.075223665 8:0.074046821 9:0.073973885 10:0.073647546 11:0.075007336 12:0.074985584 
4 1:30.010021 2:163.95772 3:0.04266578 4:0.045986303 5:0.059326873 6:0.074331313 7:0.092856425 8:0.11186956 9:0.1265725 10:0.13981083 11:0.14731001 12:0.15035376 
4 1:0.79234866 2:2.3681548 3:0.53427005 4:0.33557577 5:0.08448427 6:0.017782505 7:0.0055276362 8:0.00482961 9:0.0054301103 10:0.0046911363 11:0.0038505743 12:0.0033859884 
1.523671713086489 1:6.334677 2:20.829179 3:0.17235411 4:0.13240698 5:0.096980249 6:0.086252572 7:0.089294619 8:0.081555178 9:0.086175413 10:0.083487865 11:0.082008974 12:0.088539116 
4 1:13.60723 2:68.929003 3:0.17743451 4:0.16469119 5:0.1339551 6:0.11625855 7:0.10419857 8:0.084053532 9:0.068083235 10:0.059261747 11:0.04727093 12:0.041910515 
1.4635270760710997 1:39.894107 2:1050.7427 3:0.14150269 4:0.15409698 5:0.119112 6:0.16239985 7:0.13465971 8:0.11040147 9:0.087897588 10:0.04179021 11:0.031158732 12:0.016351962 
2.1815411947243226 1:6.7193952 2:17.196031 3:0.16899725 4:0.095186634 5:0.085679737 6:0.10027974 7:0.090444346 8:0.092236886 9:0.093513836 10:0.084044428 11:0.092177926 12:0.089876879 
1.7264515038405734 1:21.089291 2:306.11495 3:0.21981655 4:0.20089456 5:0.1860683 6:0.14858486 7:0.081113941 8:0.045862074 9:0.018354045 10:0.018937603 11:0.034200551 12:0.043778892 
1.4630562921643593 1:34.913189 2:133.36998 3:0.070287841 4:0.085751317 5:0.094900111 6:0.10810644 7:0.12763931 8:0.11187732 9:0.11772669 10:0.099025478 11:0.093938245 12:0.085701636 
4 1:6.1650284 2:3.4524739 3:0.13591416 4:0.13509748 5:0.096574712 6:0.090292157 7:0.091580822 8:0.089451926 9:0.089119758 10:0.088975556 11:0.089447337 12:0.089128012 
1.5865458943619501 1:17.641346 2:191.38488 3:0.20503887 4:0.17208669 5:0.17593571 6:0.13624753 7:0.08561482 8:0.059367197 9:0.035200216 10:0.037924487 11:0.041513246 12:0.0506438 
4 1:1.3163444 2:1.2998243 3:0.29447582 4:0.14437022 5:0.080192744 6:0.073043844 7:0.072336329 8:0.067398439 9:0.066433092 10:0.065582846 11:0.06501301 12:0.064911274 
1.4628555937150656 1:27.462684 2:97.788363 3:0.06758601 4:0.088075729 5:0.09601094 6:0.1082344 7:0.12893203 8:0.11056047 9:0.11825122 10:0.098236049 11:0.093727586 12:0.085238938 
1.0721240385568331 1:8.8910459 2:27.603522 3:0.1486324 4:0.093878529 5:0.091867028 6:0.09635786 7:0.10767929 8:0.097370718 9:0.10115805 10:0.090067425 11:0.085656629 12:0.079165838 
1.4659009886726448 1:20.36792 2:62.715511 3:0.072645791 4:0.05686073 5:0.07676586 6:0.079891325 7:0.095594655 8:0.10752107 9:0.1142154 10:0.12618276 11:0.12922544 12:0.13540028 
4 1:7.3050219 2:101.57127 3:0.39167459 4:0.16306432 5:0.098549918 6:0.075920693 7:0.06487381 8:0.054652106 9:0.044744293 10:0.039549122 11:0.03473429 12:0.029555477 
4 1:0.3875517 2:0.44492781 3:0.46956864 4:0.23980917 5:0.090298843 6:0.040025296 7:0.031036703 8:0.027720153 9:0.026113715 10:0.026037273 11:0.024691191 12:0.024522496 
4 1:3.3197224 2:8.1045524 3:0.25279053 4:0.20981799 5:0.11143993 6:0.067459733 7:0.059045205 8:0.059134148 9:0.05977117 10:0.059547691 11:0.059105086 12:0.058985494 
0.50363541871540529 1:2.45338 2:23.227348 3:0.55862491 4:0.32569397 5:0.06523021 6:0.022758849 7:0.015081353 8:0.0063494571 9:0.00072667667 10:0.0017513973 11:0.002548378 12:0.0012121099 
0.73104383721083777 1:9.0789808 2:43.022952 3:0.19978669 4:0.13145203 5:0.1157458 6:0.10172485 7:0.086868256 8:0.074016073 9:0.074241214 10:0.068693722 11:0.067209163 12:0.0768495 
4 1:3.5986922 2:4.9921809 3:0.17476131 4:0.15956738 5:0.10209668 6:0.083030224 7:0.080190132 8:0.079866259 9:0.079787569 10:0.078701739 11:0.078954811 12:0.080186636 
1.4954787329092172 1:25.125973 2:134.21572 3:0.047244032 4:0.060519423 5:0.067817765 6:0.078483637 7:0.10219989 8:0.10314179 9:0.12236656 10:0.13284427 11:0.13360739 12:0.14144326 
0.13272483750781722 1:7.6327674 2:9.707881 3:0.11679028 4:0.11222353 5:0.093461191 6:0.087742667 7:0.092827386 8:0.097687759 9:0.093553331 10:0.098700977 11:0.10458769 12:0.096801568 
1.4635269541658875 1:54.461053 2:821.78479 3:0.045223478 4:0.065473119 5:0.065554657 6:0.083722316 7:0.10304313 8:0.10332709 9:0.11974064 10:0.13574928 11:0.12897896 12:0.13836405 
4 1:2.9212038 2:4.1367565 3:0.18628128 4:0.19289897 5:0.10278235 6:0.076976752 7:0.072582999 8:0.073759322 9:0.072344845 10:0.073688825 11:0.072325621 12:0.072990213 
1.534129060218558 1:18.821094 2:101.1685 3:0.14222595 4:0.095817294 5:0.11209545 6:0.10585599 7:0.092791336 8:0.10018009 9:0.086078858 10:0.090218123 11:0.085419464 12:0.082884715 
1.2498841802076526 1:13.111588 2:19.609406 3:0.14280301 4:0.11599146 5:0.093636461 6:0.093675531 7:0.091819584 8:0.091505831 9:0.091533086 10:0.091672945 11:0.091151084 12:0.091247291 
4 1:13.802763 2:76.518675 3:0.18204765 4:0.17100077 5:0.14102448 6:0.12099029 7:0.1056495 8:0.083614977 9:0.066078313 10:0.053742002 11:0.040406867 12:0.03308537 
4 1:5.9086702 2:13.543887 3:0.17334823 4:0.096523048 5:0.090653544 6:0.088487847 7:0.089591864 8:0.092216454 9:0.091397904 10:0.088720463 11:0.091778055 12:0.093440364 
2.5097544636687195 1:7.8613534 2:8.4803577 3:0.11148525 4:0.097550916 5:0.097579034 6:0.097213137 7:0.097616593 8:0.097787919 9:0.097899591 10:0.098215942 11:0.098344839 12:0.098506359 
2.3056311026547123 1:10.669289 2:52.5712 3:0.13255231 4:0.10569112 5:0.10150244 6:0.087274248 7:0.084330912 8:0.090082564 9:0.10299663 10:0.089697545 11:0.10015265 12:0.10197387 
1.4844422994747148 1:26.280374 2:509.35984 3:0.14531287 4:0.15701549 5:0.11933914 6:0.16018424 7:0.13209297 8:0.10649891 9:0.086700221 10:0.042211121 11:0.032011471 12:0.017471736 
4 1:6.8245408 2:10.84991 3:0.12283927 4:0.12049721 5:0.099468913 6:0.094263927 7:0.095944752 8:0.090673891 9:0.09405573 10:0.09297793 11:0.091536746 12:0.095035199 
3.7232902777513406 1:9.7921664 2:58.384541 3:0.16881766 4:0.085011648 5:0.10741615 6:0.078673429 7:0.10475158 8:0.079767756 9:0.10140314 10:0.082469987 11:0.09672063 12:0.084772026 
4 1:1.4836699 2:3.3125495 3:0.33796438 4:0.26352541 5:0.092548711 6:0.05725821 7:0.044413538 8:0.040328656 9:0.040527083 10:0.040453386 11:0.040515819 12:0.040473837 
3.6326648220523952 1:8.8517657 2:37.390928 3:0.19567458 4:0.096380621 5:0.088268296 6:0.083466064 7:0.085314373 8:0.088407502 9:0.085110713 10:0.091062091 11:0.090954406 12:0.09265783 
2.7315803487732135 1:17.230596 2:53.448362 3:0.085119246 4:0.07426265 5:0.077017693 6:0.096199211 7:0.11199941 8:0.11427166 9:0.11532723 10:0.10780118 11:0.10550152 12:0.10418249 
0.40329812962421679 1:8.1583019 2:42.717483 3:0.17008357 4:0.1162305 5:0.13010666 6:0.10931058 7:0.092448181 8:0.098107295 9:0.072046499 10:0.073922996 11:0.067402957 12:0.063132892 
4 1:0.38898056 2:0.54865825 3:0.58893424 4:0.21385554 5:0.052432182 6:0.032002884 7:0.028128503 8:0.019917744 9:0.018190833 10:0.016201391 11:0.015150042 12:0.014430539 
1.7992667309927179 1:3.8075673 2:54.537794 3:0.5787666 4:0.30889949 5:0.056110025 6:0.025597718 7:0.019942717 8:0.0034368138 9:0.0013179214 10:0.0025342079 11:0.0023941864 12:0.00096423813 
4 1:13.493572 2:96.403132 3:0.25033886 4:0.13214267 5:0.11456059 6:0.098467039 7:0.083738489 8:0.070906435 9:0.067104961 10:0.06250467 11:0.055080975 12:0.057438275 
-0.13670598823611005 1:0.48563816 2:0.12509133 3:0.22808213 4:0.24033226 5:0.12543398 6:0.056760421 7:0.057399873 8:0.071385103 9:0.050137799 10:0.047944538 11:0.063500295 12:0.056044795 
-0.72302111243161515 1:4.7632166 2:12.632308 3:0.22168125 4:0.19432526 5:0.16806245 6:0.13690776 7:0.10553048 8:0.075998019 9:0.04986834 10:0.028450832 11:0.013316791 12:0.0056210072 
-2.4672022483856111 1:0.54066437 2:2.9921846 3:0.90065182 4:0.08220921 5:0.014536253 6:0.0021680041 7:0.00033835681 8:2.9576732e-05 9:3.4844372e-05 10:1.7959365e-05 11:7.1975325e-06 12:6.4442198e-06 
-3.7211877169844714 1:8.2122604 2:57.104375 3:0.32726062 4:0.18811997 5:0.11924892 6:0.094850413 7:0.080432928 8:0.059522077 9:0.038335427 10:0.027617667 11:0.028908594 12:0.033941746 
-2.2231046354647064 1:0.36684569 2:0.23721252 3:0.37608629 4:0.25096433 5:0.14710338 6:0.079580754 7:0.027557409 8:0.0081500578 9:0.0069625291 10:0.018509503 11:0.03574926 12:0.046884797 
-0.5364730458342809 1:37.412002 2:407.80931 3:0.14058703 4:0.13843507 5:0.17015743 6:0.16371964 7:0.11848619 8:0.059509325 9:0.022248312 10:0.026539583 11:0.061480835 12:0.093794854 
-4 1:3.1996243 2:4.572069 3:0.23757548 4:0.13976387 5:0.076306165 6:0.17193086 7:0.11328612 8:0.052643185 9:0.077131088 10:0.052072745 11:0.039692677 12:0.03736964 
-0.53647304583438804 1:66.065649 2:3544.2808 3:0.2257379 4:0.18071419 5:0.13721798 6:0.11216891 7:0.075358611 8:0.073977269 9:0.070711445 10:0.054279127 11:0.042666874 12:0.025303627 
-0.53647304583425925 1:55.708487 2:1817.1008 3:0.23358631 4:0.24865694 5:0.12414928 6:0.052014891 7:0.054643617 8:0.071948978 9:0.047755549 10:0.045086137 11:0.063034016 12:0.056084308 
-0.53647304583437794 1:75.672835 2:3654.3309 3:0.15506623 4:0.15432245 5:0.14823107 6:0.10453804 7:0.069241742 8:0.06839682 9:0.072071729 10:0.076706206 11:0.073822251 12:0.075304166 
-1.4957591019684586 1:16.760915 2:70.180298 3:0.036838876 4:0.0469883 5:0.075038428 6:0.10293417 7:0.13228483 8:0.148397 9:0.14371475 10:0.12796139 11:0.10038827 12:0.080164074 
-2.0834097182875495 1:5.1373759 2:1.8740764 3:0.061564478 4:0.086788988 5:0.11290013 6:0.1298028 7:0.13458277 8:0.12764739 9:0.11182377 10:0.092287451 11:0.07488965 12:0.064577636 
-0.53647304583416444 1:150.3488 2:9924.9378 3:0.11600519 4:0.18462026 5:0.12342519 6:0.20847903 7:0.055217412 8:0.066989759 9:0.053323728 10:0.015294755 11:0.082368638 12:0.092371562 
-0.52838092369085954 1:44.209837 2:1298.3845 3:0.21592925 4:0.19605267 5:0.13967098 6:0.080785246 7:0.045287252 8:0.051037536 9:0.071697548 10:0.079814752 11:0.066404704 12:0.05011574 
-2.1062102285711846 1:1.1186077 2:2.0961687 3:0.44837601 4:0.11446513 5:0.045303269 6:0.054122733 7:0.10437376 8:0.087549522 9:0.032573282 10:0.017567619 11:0.02758048 12:0.064414355 
-0.53647304583429156 1:156.08203 2:11335.169 3:0.12109961 4:0.19473191 5:0.12345894 6:0.21000015 7:0.049451916 8:0.063081101 9:0.051373318 10:0.015310567 11:0.083148239 12:0.086352014 
-3.6643745962608234 1:0.41253814 2:1.8218505 3:0.87652463 4:0.094810615 5:0.017517597 6:0.0063979124 7:0.0028691639 8:0.0012108377 9:0.00035525577 10:0.00016616185 11:8.6348976e-05 12:5.8680791e-05 
-0.5364730458341892 1:12.284672 2:250.02039 3:0.44671541 4:0.114465 5:0.045774979 6:0.054256035 7:0.10428412 8:0.08759327 9:0.032945747 10:0.017853949 11:0.027915057 12:0.064522395 
-0.78507888373434165 1:16.965398 2:186.71872 3:0.2831187 4:0.14198529 5:0.12947062 6:0.10588145 7:0.081862563 8:0.047212861 9:0.063796826 10:0.044526023 11:0.057934824 12:0.041953997 
-0.53269502959230919 1:44.964676 2:1284.9352 3:0.27523437 4:0.13830329 5:0.13558221 6:0.10487255 7:0.07976628 8:0.054129518 9:0.064990123 10:0.04333275 11:0.061902884 12:0.03979193 
-0.53647304583444322 1:53.416499 2:3890.8043 3:0.3164572 4:0.19197071 5:0.12118104 6:0.094861754 7:0.046411946 8:0.07415381 9:0.024672668 10:0.061220843 11:0.024374742 12:0.044193795 
-0.53599519392817552 1:16.847793 2:161.1115 3:0.015806609 4:0.060711892 5:0.15955741 6:0.22245897 7:0.1938954 8:0.098998091 9:0.017943471 10:0.012313759 11:0.073856577 12:0.13691093 
-0.53647304583390354 1:35.11331 2:948.17166 3:0.22476692 4:0.18148112 5:0.14745816 6:0.12372328 7:0.082443397 8:0.07222067 9:0.064039415 10:0.047007069 11:0.035125052 12:0.019962388 
-0.53647304583424704 1:29.219882 2:546.58503 3:0.27642461 4:0.13617471 5:0.13682667 6:0.10420214 7:0.078455601 8:0.056479076 9:0.064967063 10:0.042624552 11:0.062966535 12:0.038836611 
-0.53647304583385824 1:35.634324 2:1440.6362 3:0.34544891 4:0.10481907 5:0.10549391 6:0.20429657 7:0.059419589 8:0.031996979 9:0.073153061 10:0.029108997 11:0.025979278 12:0.018580813 
-0.53647304583413802 1:24.257735 2:868.47985 3:0.43010622 4:0.16869876 5:0.065940834 6:0.061193668 7:0.084814826 8:0.037678298 9:0.029421258 10:0.043434744 11:0.053008397 12:0.024411883 
-3.7666244538871312 1:8.745205 2:101.99828 3:0.35696458 4:0.25528404 5:0.15827229 6:0.07961445 7:0.026973468 8:0.0067443405 9:0.0056638556 10:0.019089682 11:0.038069545 12:0.050668802 
-0.53647304583425948 1:220.86101 2:57257.977 3:0.17213079 4:0.31043165 5:0.065320067 6:0.09099775 7:0.071534812 8:0.11000396 9:0.045399132 10:0.040712643 11:0.027606733 12:0.060262644 
-2.8365472084901762 1:3.2896896 2:9.9933448 3:0.3177048 4:0.23051777 5:0.13563924 6:0.086204359 7:0.041498294 8:0.034225828 9:0.022254095 10:0.032651072 11:0.041908482 12:0.054471304 
-3.4728649340640603 1:5.7984395 2:9.2366513 3:0.13735896 4:0.13670737 5:0.16847908 6:0.16273969 7:0.11875966 8:0.060975931 9:0.024331605 10:0.028438579 11:0.062694691 12:0.094444296 
-0.53647304583420774 1:60.127716 2:2168.0017 3:0.23507914 4:0.25053395 5:0.12437798 6:0.051238411 7:0.053942561 8:0.071602486 9:0.047035957 10:0.044366374 11:0.062629998 12:0.056130908 
-3.7032796199826934 1:12.499384 2:68.085387 3:0.19124372 4:0.15383794 5:0.18689139 6:0.1538527 7:0.0954615 8:0.086211627 9:0.067191056 10:0.029517177 11:0.017701071 12:0.017217699 
-0.54610780252684665 1:22.623936 2:107.97554 3:0.016998241 4:0.036194142 5:0.06836805 6:0.10658108 7:0.13917522 8:0.15585761 9:0.15166228 10:0.13062433 11:0.10422548 12:0.086179921 
-4 1:5.8302312 2:17.157667 3:0.20535639 4:0.15652977 5:0.19788277 6:0.14653337 7:0.083344308 8:0.082492178 9:0.069529326 10:0.027541969 11:0.014700063 12:0.015312188 
-0.53647304583005107 1:58.44054 2:2077.0145 3:0.24028486 4:0.2369592 5:0.098179247 6:0.080028271 7:0.11771491 8:0.069415505 9:0.043140383 10:0.039820368 11:0.030843861 12:0.041211869 
-0.014628100373463692 1:17.813764 2:95.478452 3:0.14256607 4:0.13939576 5:0.17107133 6:0.16422317 7:0.1182958 8:0.058677043 9:0.02110016 10:0.025490321 11:0.060774421 12:0.093383037 
-0.40110690822414058 1:9.0166941 2:135.41294 3:0.44758465 4:0.1143272 5:0.045530017 6:0.054161201 7:0.10435773 8:0.087606729 9:0.03277364 10:0.017724605 11:0.027757436 12:0.064501514 
-0.53647304583412703 1:189.82867 2:28970.343 3:0.16111852 4:0.16955974 5:0.15380803 6:0.09347018 7:0.051632198 8:0.050305253 9:0.036554808 10:0.036894543 11:0.073250257 12:0.16876881 
-0.53647304583434874 1:44.561039 2:879.06091 3:0.24267099 4:0.14022238 5:0.076400856 6:0.16752605 7:0.11008496 8:0.053879741 9:0.074779441 10:0.052149883 11:0.041895226 12:0.038130047 
-0.51884632123940744 1:9.399572 2:129.21097 3:0.32177827 4:0.071252839 5:0.21739096 6:0.14244489 7:0.017572873 8:0.044701545 9:0.084694712 10:0.034436501 11:0.0084631637 12:0.053754952 
-0.61552824648062809 1:25.607545 2:140.13464 3:0.017813669 4:0.036363383 5:0.06901747 6:0.10647314 7:0.13950385 8:0.15624328 9:0.15114682 10:0.13074462 11:0.1034014 12:0.084843101 
-0.53647550428869861 1:23.653083 2:521.66838 3:0.23646032 4:0.26318072 5:0.15074131 6:0.078389369 7:0.080583462 8:0.067445137 9:0.044930287 10:0.029712238 11:0.024173885 12:0.024205851 
-0.53647304583426292 1:98.73947 2:10920.41 3:0.34243452 4:0.10659096 5:0.11026845 6:0.19955329 7:0.055427899 8:0.033956127 9:0.071892177 10:0.029946067 11:0.027889406 12:0.020135591 
-0.35996186445916861 1:12.584848 2:136.46917 3:0.32997298 4:0.18790805 5:0.11848482 6:0.094498313 7:0.080460226 8:0.059438751 9:0.037950508 10:0.027125869 11:0.028583994 12:0.033819515 
-0.53647055660388521 1:35.424284 2:86.270576 3:0.060171964 4:0.085684569 5:0.11178549 6:0.1288554 7:0.13397693 8:0.12754452 9:0.11234602 10:0.093417478 11:0.076509237 12:0.066477957 
-3.1886879672704671 1:1.1498725 2:1.5498662 3:0.30142964 4:0.20240175 5:0.12550215 6:0.089566798 7:0.052023612 8:0.069863364 9:0.02812808 10:0.06053541 11:0.025310488 12:0.044398262 
-0.53647304583452504 1:54.978788 2:1436.2813 3:0.20646351 4:0.15523709 5:0.19010292 6:0.14513764 7:0.094163644 8:0.07975574 9:0.067792043 10:0.028801583 11:0.015848792 12:0.015875932 
-0.5364730458339938 1:28.90789 2:478.70869 3:0.013066862 4:0.059099891 5:0.15806512 6:0.22226066 7:0.19480994 8:0.099962533 9:0.018347107 10:0.012723917 11:0.075075209 12:0.13893918 
-0.53647304583424194 1:82.89628 2:2925.5837 3:0.1135644 4:0.17840392 5:0.12367835 6:0.20681327 7:0.058737383 8:0.069015488 9:0.054365975 10:0.015392317 11:0.081881131 12:0.096333478 
-0.53647304583421984 1:23.323135 2:221.51057 3:0.067672809 4:0.11314379 5:0.18644273 6:0.2110122 7:0.16107786 8:0.080290693 9:0.032759384 10:0.033757879 11:0.051089394 12:0.059713272 
-0.47448420885601605 1:7.7867454 2:87.982099 3:0.42733658 4:0.16773093 5:0.068111546 6:0.061655146 7:0.084518726 8:0.037903272 9:0.0302246 10:0.043420072 11:0.052882433 12:0.024890822 
-4 1:3.5015398 2:20.152797 3:0.44537754 4:0.11482651 5:0.046159545 6:0.054440569 7:0.10413093 8:0.08752513 9:0.033193125 10:0.018030139 11:0.028137751 12:0.064508112 
-0.53647302588532675 1:16.089751 2:387.12358 3:0.43220329 4:0.16970083 5:0.064078394 6:0.060814815 7:0.085055143 8:0.037535901 9:0.028721827 10:0.043487739 11:0.053116856 12:0.024025356 
-0.58913429555989771 1:23.118398 2:503.87851 3:0.24810575 4:0.12087307 5:0.19475268 6:0.14352043 7:0.066228721 8:0.074698959 9:0.075413632 10:0.027311098 11:0.018178693 12:0.030204982 
-3.6661440153811449 1:14.20246 2:95.821399 3:0.10091411 4:0.12642808 5:0.17419358 6:0.19930847 7:0.14441072 8:0.075970202 9:0.036911506 10:0.03104864 11:0.049947035 12:0.05868794 
-2.6224211084708511 1:14.392049 2:53.686907 3:0.12975861 4:0.14246143 5:0.12321265 6:0.11858241 7:0.072884167 8:0.080582276 9:0.069664197 10:0.06312252 11:0.10001081 12:0.093368408 
-0.53647304583434874 1:63.526745 2:2412.3729 3:0.22344715 4:0.23940175 5:0.15768634 6:0.088670598 7:0.081759747 8:0.077778101 9:0.045703876 10:0.032327483 11:0.02956066 12:0.022628514 
-0.53647304583445399 1:28.43225 2:1165.0864 3:0.32181249 4:0.18823732 5:0.11942878 6:0.096852295 7:0.044411351 8:0.075811012 9:0.023394974 10:0.061517172 11:0.024021084 12:0.044136493 
-4 1:13.072725 2:75.992379 3:0.23971389 4:0.13990944 5:0.076101766 6:0.17027858 7:0.11193368 8:0.053058259 9:0.076231731 10:0.052143853 11:0.04067414 12:0.037709291 
-0.76523973026155534 1:2.1893212 2:7.4282206 3:0.32897257 4:0.18305044 5:0.11695644 6:0.099594333 7:0.041824915 8:0.078123901 9:0.021718923 10:0.061903975 11:0.023585069 12:0.044058489 
-0.53651303603068157 1:35.460759 2:515.83115 3:0.067813851 4:0.11386046 5:0.18709355 6:0.21126969 7:0.1607824 8:0.079598211 9:0.032007081 10:0.033302398 11:0.05111163 12:0.060097812 
-0.53027731881223272 1:22.652751 2:38.728519 3:0.077167705 4:0.098816905 5:0.11683716 6:0.13194522 7:0.13472733 8:0.12527721 9:0.10691777 10:0.085079098 11:0.065925391 12:0.054675682 
-0.53600785933929107 1:13.53919 2:169.68303 3:0.31933185 4:0.22949844 5:0.13433238 6:0.086169822 7:0.04168706 8:0.034786977 9:0.022624942 10:0.032832475 11:0.041608224 12:0.054211562 
-0.53647304583406152 1:178.5203 2:32978.567 3:0.33085861 4:0.12117525 5:0.11714801 6:0.17190929 7:0.045485655 8:0.041038569 9:0.066935882 10:0.041286294 11:0.03659638 12:0.025314221 
-0.99367440941519125 1:22.129131 2:309.9687 3:0.23852374 4:0.25484814 5:0.12489778 6:0.049439626 7:0.052321057 8:0.070795108 9:0.045375889 10:0.042709705 11:0.061691662 12:0.056283776 
-0.53647304583442335 1:59.000187 2:2646.329 3:0.17969924 4:0.17857489 5:0.14982997 6:0.084459722 7:0.042092117 8:0.046995285 9:0.04170598 10:0.042548178 11:0.074849976 12:0.15243264 
-1.1872682339588532 1:14.680064 2:94.628877 3:0.24638767 4:0.14085564 5:0.077671368 6:0.16310857 7:0.1077336 8:0.05536366 9:0.072505001 10:0.052086468 11:0.043383142 12:0.038634522 
-1.9197391720119441 1:0.59749234 2:0.33543883 3:0.32669448 4:0.22525334 5:0.12701472 6:0.08586761 7:0.042805506 8:0.03849503 9:0.024455659 10:0.033664284 11:0.040069648 12:0.052815654 
-0.53647304583412703 1:51.766675 2:2436.7504 3:0.24798903 4:0.19177414 5:0.10895199 6:0.08304832 7:0.070002825 8:0.079480421 9:0.060851502 10:0.050854335 11:0.044773485 12:0.061915545 
-2.9668835329126511 1:3.8550899 2:6.5171355 3:0.24832188 4:0.14136192 5:0.078697975 6:0.16053267 7:0.10653346 8:0.056192169 9:0.071192711 10:0.051997455 11:0.044045814 12:0.038854643 
-0.53647487359279955 1:31.464398 2:69.029029 3:0.060647552 4:0.086133972 5:0.11225375 6:0.12926842 7:0.13424826 8:0.12760606 9:0.11214674 10:0.092961178 11:0.075845909 12:0.065697597 
-0.53647337744671542 1:33.365511 2:1038.8733 3:0.32350943 4:0.22699939 5:0.13070642 6:0.086040487 7:0.042168513 8:0.036573406 9:0.023562573 10:0.033248889 11:0.040783058 12:0.053515353 
-4 1:7.9594926 2:4.2701582 3:0.059729845 4:0.085128965 5:0.11115234 6:0.12829369 7:0.13360243 8:0.12743645 9:0.11257892 10:0.093981169 11:0.077347607 12:0.067467466 
-0.53647304583397004 1:18.660529 2:462.86005 3:0.35624722 4:0.25537594 5:0.15851353 6:0.079514719 7:0.026953768 8:0.0070609762 9:0.005865112 10:0.019073565 11:0.038064572 12:0.050675043 
-4 1:4.8083761 2:15.301881 3:0.28811217 4:0.14326016 5:0.12599334 6:0.10644705 7:0.082414327 8:0.044827521 9:0.062991215 10:0.044921014 11:0.055893326 12:0.042799597 
-0.13459237744080091 1:0.059287635 2:0.047131706 3:0.92658419 4:0.061260045 5:0.010457925 6:0.0010378046 7:0.00025228025 8:0.00031033446 9:4.7777752e-05 10:3.3414798e-05 11:1.225215e-05 12:3.8260548e-06 
-0.53647304582983946 1:47.379823 2:2090.6113 3:0.32251561 4:0.2275874 5:0.13159484 6:0.086074801 7:0.042050775 8:0.036114683 9:0.023340267 10:0.033153453 11:0.040984953 12:0.053684852 
-3.7809288187433703 1:28.589437 2:164.62397 3:0.20758921 4:0.12805818 5:0.060205292 6:0.059790905 7:0.10097752 8:0.11658639 9:0.087505702 10:0.059427043 11:0.071854509 12:0.10248427 
-0.53647304583431199 1:62.652937 2:2374.0325 3:0.23907076 4:0.23712738 5:0.098132148 6:0.081439441 7:0.11815469 8:0.069338526 9:0.042893298 10:0.039847291 11:0.030673049 12:0.040941111 
-0.53647304489388181 1:47.414792 2:1032.2006 3:0.19534877 4:0.15011102 5:0.18815344 6:0.1530134 7:0.09226187 8:0.085864143 9:0.0682094 10:0.029025277 11:0.018682517 12:0.018660357 
-0.52448392526146215 1:47.568858 2:1292.1671 3:0.01424412 4:0.059837636 5:0.15880952 6:0.22242189 7:0.1944422 8:0.099510968 9:0.018123369 10:0.012497414 11:0.074496033 12:0.13801466 
-0.5377841341080557 1:36.621721 2:98.329222 3:0.07561096 4:0.097354619 5:0.11606426 6:0.13152095 7:0.13457196 8:0.12546635 9:0.10749068 10:0.08601969 11:0.067146653 12:0.056053722 
-0.53647304583405675 1:163.23285 2:19440.014 3:0.14909047 4:0.15604037 5:0.15760488 6:0.10671995 7:0.065293844 8:0.056361089 9:0.040717784 10:0.040276173 11:0.069388844 12:0.15626587 
-0.6357863448846568 1:35.630755 2:601.00798 3:0.13377905 4:0.19220208 5:0.12460229 6:0.19030344 7:0.046724162 8:0.060169019 9:0.048553177 10:0.02309908 11:0.089514422 12:0.087226027 
-0.63216861258120249 1:15.365188 2:40.266315 3:0.19837563 4:0.126269 5:0.063080018 6:0.06236586 7:0.10089147 8:0.11574941 9:0.088711721 10:0.062418338 11:0.073988594 12:0.10264563 
-0.53647304583429156 1:56.851649 2:1931.859 3:0.22289891 4:0.2390586 5:0.15831181 6:0.089771996 7:0.082358644 8:0.077883818 9:0.045804416 10:0.031860192 11:0.02900592 12:0.022039544 
-0.38200770929230798 1:12.235027 2:106.87458 3:0.25893724 4:0.24382453 5:0.15679964 6:0.061474651 7:0.048808335 8:0.041154083 9:0.055344554 10:0.064529698 11:0.03940141 12:0.028160543 
-0.53647304583422062 1:22.236156 2:277.88928 3:0.22266427 4:0.19445502 5:0.16830736 6:0.13714138 7:0.10553673 8:0.075821016 9:0.049556905 10:0.028049704 11:0.012850176 12:0.0053764016 
-0.53647304351245628 1:38.968701 2:113.35168 3:0.076603575 4:0.098280812 5:0.11650678 6:0.13180061 7:0.1346839 8:0.12535437 9:0.10713458 10:0.085426831 11:0.066373233 12:0.055179337 
-0.30850426074528764 1:9.5205338 2:84.03335 3:0.27905232 4:0.24400918 5:0.15777351 6:0.06980205 7:0.025801742 8:0.031231588 9:0.056167165 10:0.064046899 11:0.046239968 12:0.024135772 
-4 1:6.1903262 2:11.792101 3:0.14409052 4:0.14001766 5:0.17168287 6:0.16454973 7:0.11814383 8:0.058089874 9:0.020304332 10:0.024764649 11:0.060270341 12:0.093077379 
-2.5763501760940386 1:0.080384358 2:0.023823507 3:0.25719973 4:0.530817 5:0.12487613 6:0.050259258 7:0.0089227527 8:0.018387895 9:0.003869751 10:0.0019917542 11:0.0018388573 12:0.0017499968 
-3.18578935018287 1:7.7332813 2:35.77198 3:0.22564276 4:0.24063101 5:0.15511958 6:0.084280289 7:0.079391112 8:0.077343691 9:0.045432309 10:0.034184014 11:0.031793699 12:0.025025332 
-0.53647304583385624 1:68.736487 2:5633.7057 3:0.16389036 4:0.35973985 5:0.058356823 6:0.086260065 7:0.063375896 8:0.11315549 9:0.032350582 10:0.037286976 11:0.0274487 12:0.055628493 
-0.68870494477260713 1:13.416676 2:100.46685 3:0.22193389 4:0.19438127 5:0.1681798 6:0.13698618 7:0.10555381 8:0.07595121 9:0.04977332 10:0.028319318 11:0.013162523 12:0.0055197676 
-0.53647304582388511 1:27.719908 2:1022.6184 3:0.35644606 4:0.25542446 5:0.15852779 6:0.079521534 7:0.026944074 8:0.0068975341 9:0.00575812 10:0.019069976 11:0.038070061 12:0.050684407 
-0.53647304853876832 1:21.951334 2:616.36818 3:0.31045113 4:0.19607982 5:0.12312283 6:0.092625366 7:0.048729093 8:0.072294551 9:0.026151333 10:0.060853179 11:0.024802673 12:0.044245455 
-0.47674801128782263 1:13.456104 2:83.966827 3:0.21088884 4:0.16201959 5:0.17669852 6:0.14491928 7:0.10079588 8:0.07782172 9:0.063893934 10:0.02987449 11:0.01647661 12:0.015781613 
-0.53647304583431255 1:51.342698 2:1239.1936 3:0.20760218 4:0.15658608 5:0.18675101 6:0.14489471 7:0.096308253 8:0.079122191 9:0.066856232 10:0.029098439 11:0.01605937 12:0.015895614 
-4 1:3.1133784 2:5.0965964 3:0.22715144 4:0.24033306 5:0.12314881 6:0.055359611 7:0.057667625 8:0.073458259 9:0.05088249 10:0.04822047 11:0.064786102 12:0.056049869 
-0.50110049510967047 1:15.131874 2:141.1338 3:0.24321769 4:0.23655361 5:0.098580629 6:0.076471913 7:0.11650164 8:0.069642897 9:0.043749347 10:0.039724172 11:0.031256883 12:0.041853745 
-4 1:3.694945 2:2.822038 3:0.017559264 4:0.036573517 5:0.068283138 6:0.106021 7:0.13823715 8:0.15485864 9:0.15105874 10:0.13069351 11:0.10504291 12:0.087470199 
-0.93994648739623143 1:2.6925899 2:4.1539419 3:0.011680763 4:0.05807647 5:0.15678799 6:0.22178254 7:0.19509984 8:0.10062343 9:0.018840042 10:0.013198781 11:0.075965883 12:0.14022498 
-0.53647302588514623 1:29.636935 2:382.46803 3:0.19131593 4:0.15257981 5:0.18748415 6:0.15409316 7:0.094636399 8:0.086224624 9:0.067651303 10:0.029447869 11:0.018005918 12:0.017660045 
-0.53647304583413857 1:269.31818 2:76353.11 3:0.18660154 4:0.25056487 5:0.082392672 6:0.088215383 7:0.080083915 8:0.10025319 9:0.055604195 10:0.041074328 11:0.033622818 12:0.072464487 
-0.57497537534442178 1:32.599427 2:190.36515 3:0.20099962 4:0.12680158 5:0.062250898 6:0.061616318 7:0.1009192 8:0.11600126 9:0.088368117 10:0.061553776 11:0.073374432 12:0.10260546 
-0.53647304583411248 1:106.23044 2:10948.861 3:0.32301936 4:0.12718747 5:0.1183767 6:0.15546373 7:0.043203768 8:0.044097351 9:0.068737544 10:0.047769728 11:0.041346767 12:0.028421234 
-0.53647304583411526 1:221.88423 2:42315.155 3:0.19378791 4:0.23395315 5:0.085274027 6:0.080093909 7:0.084851351 8:0.095657116 9:0.056179452 10:0.041095625 11:0.037895717 12:0.08186268 
