svm_type c_svc
kernel_type rbf
gamma 0.083333333333333329
nr_class 2
total_sv 242
rho 0.99867383598310411
label 1 -1
probA -5.0800961775742923
probB -1.5808469366456448
nr_sv 56 186
SV
4 1:0.087214016 2:0.043107922 3:0.71958475 4:0.13994208 5:0.036828192 6:0.024105575 7:0.01679659 8:0.015001907 9:0.013780756 10:0.011763184 11:0.011044954 12:0.010613359 
4 1:0.0094739394 2:0.0010003191 3:0.83970023 4:0.093485221 5:0.043145571 6:0.013031826 7:0.0058990138 8:0.0015150883 9:0.00099055397 10:0.00080533775 11:0.00071457676 12:0.00067912067 
4 1:0.041006617 2:0.019340068 3:0.88979074 4:0.08580335 5:0.017256145 6:0.0047138571 7:0.00094693134 8:0.00048575614 9:0.000355239 10:0.00025010866 11:0.0001994167 12:0.00018839151 
4 1:0.1609074 2:0.28990735 3:0.89935904 4:0.076686027 5:0.020473966 6:0.0030786219 7:0.00024134837 8:6.0095876e-05 9:4.692685e-05 10:3.6870449e-05 11:1.0857776e-05 12:5.948598e-06 
4 1:0.046175715 2:0.029405418 3:0.92529443 4:0.050005339 5:0.018712457 6:0.003755186 7:0.0010421289 8:0.00041381917 9:0.00032161522 10:0.0001720179 11:0.00014384347 12:0.0001325973 
4 1:0.0065589449 2:0.00068199385 3:0.88828181 4:0.071210364 5:0.029644096 6:0.0072663138 7:0.0016475266 8:0.00078740017 9:0.00041218781 10:0.00028587637 11:0.00023654747 12:0.00021709782 
4 1:0.065522096 2:0.036886369 3:0.81345359 4:0.12618563 5:0.038107577 6:0.0094714568 7:0.0039181603 8:0.0026970224 9:0.0022372871 10:0.0015420123 11:0.0011828619 12:0.0011448853 
4 1:0.016520714 2:0.0037307908 3:0.91908689 4:0.067334464 5:0.0094826208 6:0.0020352491 7:0.001129756 8:0.00033415613 9:0.00021932041 10:0.00014700995 11:0.00011631546 12:0.00010885901 
4 1:0.012042949 2:0.0026312182 3:0.91529264 4:0.057428504 5:0.021906229 6:0.003844638 7:0.00078864875 8:0.00037771465 9:0.00016643006 10:8.2521674e-05 11:5.8933031e-05 12:5.1222479e-05 
4 1:0.10882012 2:0.19808145 3:0.89798239 4:0.075347545 5:0.022874005 6:0.0030691029 7:0.00043821276 8:0.00012543376 9:7.6093082e-05 10:5.5449689e-05 11:1.823711e-05 12:1.2912719e-05 
4 1:0.01378689 2:0.0041484743 3:0.90364557 4:0.057015643 5:0.028459649 6:0.0072144176 7:0.0024780586 8:0.00053558484 9:0.00028936956 10:0.00013890159 11:0.00011694342 12:0.00010090838 
4 1:0.052156689 2:0.041664168 3:0.9120761 4:0.067620377 5:0.014767872 6:0.0039593928 7:0.00089649342 8:0.00027754164 9:0.00013113425 10:0.00010040473 11:8.6091713e-05 12:8.056933e-05 
4 1:0.019168845 2:0.0065489529 3:0.90998388 4:0.071259891 5:0.013651748 6:0.0032665453 7:0.00092146408 8:0.00041211936 9:0.00017274425 10:0.00013703452 11:9.9879364e-05 12:9.0273926e-05 
4 1:0.0085396377 2:0.00095800431 3:0.87795368 4:0.079727392 5:0.026805204 6:0.010269795 7:0.002598767 8:0.00076315824 9:0.00057305894 10:0.0005071035 11:0.00040260847 12:0.00038045503 
4 1:0.0090332689 2:0.001556393 3:0.90124174 4:0.070693435 5:0.021209362 6:0.0042677162 7:0.0012202916 8:0.00058506991 9:0.00029687953 10:0.00018577273 11:0.00015941419 12:0.00013429428 
2.6737380957990653 1:0.47968115 2:2.4710749 3:0.91837664 4:0.06519068 5:0.012630639 6:0.0035092844 7:0.00019089669 8:4.8382102e-05 9:3.3711467e-05 10:1.0974381e-05 11:4.7317652e-06 12:3.8566164e-06 
4 1:0.027055705 2:0.011188737 3:0.86000414 4:0.10848513 5:0.027213989 6:0.0033334611 7:0.00045189817 8:0.00028897452 9:9.184193e-05 10:6.1165628e-05 11:3.9507439e-05 12:2.8578811e-05 
4 1:0.026060302 2:0.0067009974 3:0.88994382 4:0.062055634 5:0.037531884 6:0.0091371321 7:0.00081584629 8:0.00028810956 9:9.2622051e-05 10:6.1540917e-05 11:3.9538234e-05 12:3.2212719e-05 
4 1:0.19529029 2:0.39569447 3:0.89932315 4:0.076080811 5:0.020455858 6:0.0032949155 7:0.00034959409 8:0.00014478406 9:0.0001166682 10:0.00010002427 11:6.9263989e-05 12:6.1862095e-05 
4 1:0.095576203 2:0.12783014 3:0.87154301 4:0.083238277 5:0.033862984 6:0.0084625779 7:0.001599743 8:0.00067036359 9:0.00019160915 10:0.00016874061 11:0.00013182496 12:0.00012470649 
4 1:0.031886265 2:0.011182526 3:0.87803191 4:0.07199592 5:0.038633397 6:0.0092827092 7:0.00096752131 8:0.00042805606 9:0.00021107228 10:0.00016978403 11:0.00014164817 12:0.00013148005 
4 1:0.2619269 2:0.80592878 3:0.90893705 4:0.074189335 5:0.013383756 6:0.0030359426 7:0.00034140317 8:4.7933833e-05 9:4.1909761e-05 10:1.7373004e-05 11:3.9507049e-06 12:1.266756e-06 
4 1:0.038148253 2:0.021090485 3:0.92276959 4:0.05773873 5:0.013326093 6:0.0038489719 7:0.001060286 8:0.000401773 9:0.00025877361 10:0.00021234868 11:0.00019283019 12:0.0001814805 
4 1:0.010433235 2:0.0014178322 3:0.85744412 4:0.10526591 5:0.030264784 6:0.0044656283 7:0.001182902 8:0.00055326547 9:0.00027616278 10:0.00020824825 11:0.00017195062 12:0.00015931299 
4 1:0.13389185 2:0.20440468 3:0.89323268 4:0.07083676 5:0.029059605 6:0.0036839892 7:0.0015076444 8:0.00055321344 9:0.00034387901 10:0.00030341526 11:0.00023921237 12:0.00022831958 
4 1:0.054691749 2:0.027817674 3:0.76964236 4:0.12121317 5:0.034423876 6:0.018113671 7:0.012270262 8:0.010777655 9:0.0097077097 10:0.0082802581 11:0.0077540048 12:0.0074356073 
4 1:0.057538431 2:0.042347041 3:0.88204817 4:0.080510399 5:0.031667499 6:0.0042352248 7:0.0010380954 8:0.00030231994 9:8.1075669e-05 10:7.0568679e-05 11:2.5005506e-05 12:2.0642816e-05 
4 1:0.18098406 2:0.43592901 3:0.90842575 4:0.064989691 5:0.022276052 6:0.0040493533 7:0.00014074909 8:3.8941614e-05 9:3.2187943e-05 10:3.0821608e-05 11:1.1407994e-05 12:4.8142839e-06 
2.4666323786317421 1:0.27784334 2:0.8960386 3:0.90801208 4:0.06373002 5:0.023507159 6:0.0045580637 7:0.00010280903 8:2.5322997e-05 9:2.8817996e-05 10:2.5860157e-05 11:8.813081e-06 12:1.0278348e-06 
4 1:0.044140883 2:0.027807524 3:0.91720375 4:0.067472631 5:0.012642928 6:0.0013739913 7:0.00042955185 8:0.0004629666 9:0.000140866 10:0.00010690074 11:8.6608281e-05 12:7.6083776e-05 
4 1:0.038180719 2:0.022337088 3:0.86629259 4:0.09034828 5:0.037357805 6:0.0052553737 7:0.00037956095 8:0.00018905122 9:8.4818493e-05 10:4.7893661e-05 11:2.442287e-05 12:1.9234846e-05 
4 1:0.016330535 2:0.002746843 3:0.84435373 4:0.10626346 5:0.030979117 6:0.015492689 7:0.0014683279 8:0.00073010752 9:0.00028048338 10:0.00016963183 11:0.0001378675 12:0.00011863318 
4 1:0.0058040377 2:0.0005576632 3:0.8623006 4:0.10330881 5:0.026419022 6:0.0037628783 7:0.0017283873 8:0.001046569 9:0.00051835527 10:0.00032920447 11:0.00029625111 12:0.00027641202 
4 1:0.026005599 2:0.0051105274 3:0.82294826 4:0.12033663 5:0.034275659 6:0.017768845 7:0.001969434 8:0.00094022209 9:0.00055403877 10:0.00043978858 11:0.00038604945 12:0.000363103 
4 1:0.017016778 2:0.0021443502 3:0.7571588 4:0.13505566 5:0.036064294 6:0.018762507 7:0.012478041 8:0.0099342691 9:0.0088824416 10:0.0075118799 11:0.0070523607 12:0.006740638 
4 1:0.033850619 2:0.015401225 3:0.92239611 4:0.052636815 5:0.019395394 6:0.0040649481 7:0.00089853566 8:0.00031825752 9:0.00018763046 10:5.0357852e-05 11:3.0317166e-05 12:2.0649602e-05 
4 1:0.016698354 2:0.0031866091 3:0.86180075 4:0.098339862 5:0.025621398 6:0.011999777 7:0.0014690268 8:0.00042618387 9:0.00015977134 10:7.9846508e-05 11:5.6152238e-05 12:4.4815201e-05 
4 1:0.052911395 2:0.032922792 3:0.89703187 4:0.082874917 5:0.014852623 6:0.0036826588 7:0.00072603624 8:0.00030951857 9:0.00017296201 10:0.00013975399 11:0.00010601202 12:9.8797543e-05 
4 1:0.055700771 2:0.057188728 3:0.878834 4:0.084509549 5:0.027476422 6:0.0069279471 7:0.0013344095 8:0.00055648925 9:0.00011900873 10:0.00010192625 11:7.0789118e-05 12:6.6204957e-05 
4 1:0.014843115 2:0.0039627265 3:0.91528946 4:0.05365779 5:0.02199086 6:0.0046578174 7:0.0013681734 8:0.0008898119 9:0.00064170305 10:0.00052535173 11:0.00048765546 12:0.00046837262 
4 1:0.058280566 2:0.045648969 3:0.92389546 4:0.059063026 5:0.012548101 6:0.0034218973 7:0.00069458247 8:0.00016335714 9:7.286969e-05 10:5.1874023e-05 11:4.5495506e-05 12:4.1250973e-05 
4 1:0.059287635 2:0.047131706 3:0.92658419 4:0.061260045 5:0.010457925 6:0.0010378046 7:0.00025228025 8:0.00031033446 9:4.7777752e-05 10:3.3414798e-05 11:1.225215e-05 12:3.8260548e-06 
4 1:0.046475962 2:0.029961124 3:0.86716812 4:0.086930917 5:0.034845779 6:0.0085440992 7:0.0016059698 8:0.00056088303 9:0.000114915 10:9.7678475e-05 11:6.7174125e-05 12:6.1447893e-05 
4 1:0.032884312 2:0.016854672 3:0.92485471 4:0.050731592 5:0.018854095 6:0.0037695967 7:0.00095611632 8:0.00033322144 9:0.00023872689 10:0.00010719165 11:7.8796892e-05 12:7.2369424e-05 
4 1:0.12516183 2:0.089403951 3:0.71657247 4:0.13931571 5:0.037546173 6:0.024818484 7:0.017115597 8:0.015389488 9:0.014202537 10:0.012142107 11:0.011378916 12:0.010963043 
4 1:0.067173148 2:0.055483911 3:0.88479083 4:0.08507348 5:0.023424556 6:0.0032631796 7:0.0011873488 8:0.00072415629 9:0.00048651519 10:0.00038121985 11:0.00033452051 12:0.00031663412 
4 1:0.12259944 2:0.1823736 3:0.89807813 4:0.069118443 5:0.028037291 6:0.0032227438 7:0.0010602257 8:0.00024619302 9:0.00010131022 10:8.7130573e-05 11:2.5939322e-05 12:2.1542896e-05 
4 1:0.011711218 2:0.0014086065 3:0.8234932 4:0.091065889 5:0.035018142 6:0.017560355 7:0.0087713664 8:0.0060346488 9:0.0050987365 10:0.0045454059 11:0.0041801868 12:0.0040316356 
4 1:0.18302757 2:0.40697196 3:0.86333778 4:0.10460192 5:0.021120252 6:0.0050114487 7:0.0018871737 8:0.0012090209 9:0.0010269093 10:0.00071408088 11:0.00054285414 12:0.00052105032 
4 1:0.039571904 2:0.015941211 3:0.82973524 4:0.11134347 5:0.046169228 6:0.0079786055 7:0.0013089528 8:0.00096117367 9:0.00073815071 10:0.00062899563 11:0.00056797603 12:0.00054158056 
4 1:0.012046943 2:0.0019147168 3:0.87650648 4:0.071365547 5:0.036948709 6:0.010108464 7:0.0034793306 8:0.00063287787 9:0.00036991105 10:0.00021523275 11:0.00019029744 12:0.00017459588 
4 1:0.025998483 2:0.0062824767 3:0.82503359 4:0.13283315 5:0.034476673 6:0.0046968575 7:0.0010386905 8:0.00064701258 9:0.00038414947 10:0.00031945414 11:0.00028642272 12:0.00027066878 
4 1:0.15411816 2:0.18781602 3:0.80792298 4:0.13111271 5:0.038504845 6:0.0094137659 7:0.0040191907 8:0.0027118574 9:0.0022813901 10:0.0015853058 11:0.0012149539 12:0.0011724451 
4 1:0.54066437 2:2.9921846 3:0.90065182 4:0.08220921 5:0.014536253 6:0.0021680041 7:0.00033835681 8:2.9576732e-05 9:3.4844372e-05 10:1.7959365e-05 11:7.1975325e-06 12:6.4442198e-06 
4 1:0.057905251 2:0.047896336 3:0.88978813 4:0.081630337 5:0.024345897 6:0.0029450648 7:0.00063316527 8:0.00035839114 9:0.00015363969 10:7.2115435e-05 11:4.0999073e-05 12:3.0713605e-05 
4 1:0.014984752 2:0.0033218496 3:0.92578739 4:0.062616411 5:0.0079746482 6:0.0016875053 7:0.0010607661 8:0.00034146097 9:0.00019992024 10:0.00013242727 11:0.00010138848 12:9.3597087e-05 
-4 1:0.027664138 2:0.0072226239 3:0.70690774 4:0.16769709 5:0.043726757 6:0.022139314 7:0.013929334 8:0.011328859 9:0.009579233 10:0.0085731856 11:0.0080001941 12:0.0077346848 
-0.00051754093642883447 1:10.672605 2:41.270147 3:0.1561665 4:0.097884497 5:0.090216477 6:0.093402825 7:0.095416701 8:0.09568893 9:0.09490243 10:0.092180568 11:0.088799013 12:0.086546763 
-0.001326164016820619 1:178.5203 2:32978.567 3:0.33085861 4:0.12117525 5:0.11714801 6:0.17190929 7:0.045485655 8:0.041038569 9:0.066935882 10:0.041286294 11:0.03659638 12:0.025314221 
-4 1:0.0088987259 2:0.00060657695 3:0.78304137 4:0.16089508 5:0.021909607 6:0.0090837728 7:0.0070773022 8:0.0045645135 9:0.0037974078 10:0.0033425152 11:0.0031246016 12:0.0030141843 
-0.00132616396782409 1:16.089751 2:387.12358 3:0.43220329 4:0.16970083 5:0.064078394 6:0.060814815 7:0.085055143 8:0.037535901 9:0.028721827 10:0.043487739 11:0.053116856 12:0.024025356 
-4 1:0.016878539 2:0.0017824099 3:0.71803828 4:0.15194326 5:0.058411166 6:0.025770118 7:0.013054279 8:0.0087519899 9:0.0067513262 10:0.0059944713 11:0.0056007916 12:0.0054151491 
-0.00114651013844419 1:17.641346 2:191.38488 3:0.20503887 4:0.17208669 5:0.17593571 6:0.13624753 7:0.08561482 8:0.059367197 9:0.035200216 10:0.037924487 11:0.041513246 12:0.0506438 
-4 1:0.00056984356 2:3.4514231e-06 3:0.75501958 4:0.15117284 5:0.03819556 6:0.028169177 7:0.012300513 8:0.0058784649 9:0.0036468496 10:0.0022496565 11:0.0017926632 12:0.0014974934 
-4 1:0.019585245 2:0.0022047147 3:0.6971151 4:0.13099493 5:0.054114817 6:0.028878447 7:0.020646724 8:0.016874598 9:0.014395305 10:0.012839224 11:0.011978535 12:0.01158476 
-0.00042772386369411712 1:3.8075673 2:54.537794 3:0.5787666 4:0.30889949 5:0.056110025 6:0.025597718 7:0.019942717 8:0.0034368138 9:0.0013179214 10:0.0025342079 11:0.0023941864 12:0.00096423813 
-0.0013261640168107935 1:58.44054 2:2077.0145 3:0.24028486 4:0.2369592 5:0.098179247 6:0.080028271 7:0.11771491 8:0.069415505 9:0.043140383 10:0.039820368 11:0.030843861 12:0.041211869 
-0.0011706661892196824 1:18.821094 2:101.1685 3:0.14222595 4:0.095817294 5:0.11209545 6:0.10585599 7:0.092791336 8:0.10018009 9:0.086078858 10:0.090218123 11:0.085419464 12:0.082884715 
-4 1:0.0022314732 2:3.516633e-05 3:0.69971994 4:0.13990636 5:0.068653109 6:0.027000464 7:0.018606395 8:0.013495466 9:0.0096276089 10:0.008041953 11:0.0074681697 12:0.0071273409 
-0.0013261640171754463 1:35.634324 2:1440.6362 3:0.34544891 4:0.10481907 5:0.10549391 6:0.20429657 7:0.059419589 8:0.031996979 9:0.073153061 10:0.029108997 11:0.025979278 12:0.018580813 
-0.0012965268511748729 1:47.568858 2:1292.1671 3:0.01424412 4:0.059837636 5:0.15880952 6:0.22242189 7:0.1944422 8:0.099510968 9:0.018123369 10:0.012497414 11:0.074496033 12:0.13801466 
-0.0013261609611833203 1:23.653083 2:521.66838 3:0.23646032 4:0.26318072 5:0.15074131 6:0.078389369 7:0.080583462 8:0.067445137 9:0.044930287 10:0.029712238 11:0.024173885 12:0.024205851 
-4 1:0.0010470905 2:1.0113382e-05 3:0.77882272 4:0.1475717 5:0.048200991 6:0.014276019 7:0.0047827434 8:0.0029899006 9:0.0015032398 10:0.00078205961 11:0.00060108176 12:0.00045185612 
-0.00073222322937456128 1:28.589437 2:164.62397 3:0.20758921 4:0.12805818 5:0.060205292 6:0.059790905 7:0.10097752 8:0.11658639 9:0.087505702 10:0.059427043 11:0.071854509 12:0.10248427 
-0.0012712765594436737 1:12.235027 2:106.87458 3:0.25893724 4:0.24382453 5:0.15679964 6:0.061474651 7:0.048808335 8:0.041154083 9:0.055344554 10:0.064529698 11:0.03940141 12:0.028160543 
-4 1:0.0036952196 2:0.00010423405 3:0.6891231 4:0.10808158 5:0.055318344 6:0.034809323 7:0.026250334 8:0.020960414 9:0.018223312 10:0.016400951 11:0.015305228 12:0.014791727 
-0.039961116172647471 1:2.1893212 2:7.4282206 3:0.32897257 4:0.18305044 5:0.11695644 6:0.099594333 7:0.041824915 8:0.078123901 9:0.021718923 10:0.061903975 11:0.023585069 12:0.044058489 
-0.0010141824668014469 1:7.7332813 2:35.77198 3:0.22564276 4:0.24063101 5:0.15511958 6:0.084280289 7:0.079391112 8:0.077343691 9:0.045432309 10:0.034184014 11:0.031793699 12:0.025025332 
-0.0013261640167618882 1:150.3488 2:9924.9378 3:0.11600519 4:0.18462026 5:0.12342519 6:0.20847903 7:0.055217412 8:0.066989759 9:0.053323728 10:0.015294755 11:0.082368638 12:0.092371562 
-4 1:0.79234866 2:2.3681548 3:0.53427005 4:0.33557577 5:0.08448427 6:0.017782505 7:0.0055276362 8:0.00482961 9:0.0054301103 10:0.0046911363 11:0.0038505743 12:0.0033859884 
-0.00026329848476802127 1:8.745205 2:101.99828 3:0.35696458 4:0.25528404 5:0.15827229 6:0.07961445 7:0.026973468 8:0.0067443405 9:0.0056638556 10:0.019089682 11:0.038069545 12:0.050668802 
-0.00050128765134272227 1:7.0712377 2:15.965969 3:0.12102977 4:0.12777613 5:0.089702477 6:0.099790571 7:0.10628709 8:0.091602473 9:0.10229705 10:0.084774727 11:0.090723155 12:0.080489413 
-0.0010192722630987213 1:2.45338 2:23.227348 3:0.55862491 4:0.32569397 5:0.06523021 6:0.022758849 7:0.015081353 8:0.0063494571 9:0.00072667667 10:0.0017513973 11:0.002548378 12:0.0012121099 
-0.0013261640170225686 1:51.766675 2:2436.7504 3:0.24798903 4:0.19177414 5:0.10895199 6:0.08304832 7:0.070002825 8:0.079480421 9:0.060851502 10:0.050854335 11:0.044773485 12:0.061915545 
-4 1:0.00079677807 2:6.3799083e-06 3:0.73470561 4:0.13567481 5:0.045500338 6:0.032938371 7:0.014989512 8:0.010503161 9:0.007807975 10:0.0064184379 11:0.0057416207 12:0.0054505173 
-4 1:0.02115851 2:0.0050441285 3:0.85175303 4:0.11121568 5:0.023642522 6:0.0073514216 7:0.0031158618 8:0.0015019397 9:0.00051370591 10:0.00032905616 11:0.00028883591 12:0.00027437442 
-4 1:0.0010812473 2:7.2693458e-06 3:0.69954992 4:0.14629427 5:0.055426117 6:0.031309894 7:0.018851608 8:0.013084875 9:0.010624866 10:0.0089093094 11:0.007923773 12:0.0076429053 
-0.001238728567943769 1:15.131874 2:141.1338 3:0.24321769 4:0.23655361 5:0.098580629 6:0.076471913 7:0.11650164 8:0.069642897 9:0.043749347 10:0.039724172 11:0.031256883 12:0.041853745 
-4 1:0.0055483651 2:0.00025747811 3:0.74848353 4:0.12313136 5:0.038320342 6:0.022411813 7:0.015864679 8:0.012700168 9:0.010910367 10:0.0097835326 11:0.0091284816 12:0.008827045 
-4 1:0.0018375899 2:3.0287012e-05 3:0.69698343 4:0.13952288 5:0.061745226 6:0.036527598 7:0.018948285 8:0.013708571 9:0.0093650908 10:0.0082079817 11:0.007450451 12:0.0071833857 
-4 1:0.0026458405 2:3.7902089e-05 3:0.70440199 4:0.18413722 5:0.049399087 6:0.027210978 7:0.014943515 8:0.0060759603 9:0.0044326051 10:0.0033198547 11:0.0030295707 12:0.00290583 
-4 1:0.012110899 2:0.0010703736 3:0.75151905 4:0.11651681 5:0.04215469 6:0.022637737 7:0.01650809 8:0.013255556 9:0.010873029 10:0.0092864082 11:0.008565115 12:0.0082728087 
-4 1:0.41253814 2:1.8218505 3:0.87652463 4:0.094810615 5:0.017517597 6:0.0063979124 7:0.0028691639 8:0.0012108377 9:0.00035525577 10:0.00016616185 11:8.6348976e-05 12:5.8680791e-05 
-4 1:0.0046063941 2:0.00013463886 3:0.70613492 4:0.15069473 5:0.048472074 6:0.027157702 7:0.017512745 8:0.012786867 9:0.010507649 10:0.0093028873 11:0.0086560621 12:0.0083593259 
-4 1:0.00094692362 2:4.8692503e-06 3:0.69914831 4:0.14390021 5:0.050758486 6:0.036473843 7:0.019801678 8:0.014217551 9:0.010202418 10:0.0089880478 11:0.0082067829 12:0.0079112436 
-0.0013261640171064459 1:29.219882 2:546.58503 3:0.27642461 4:0.13617471 5:0.13682667 6:0.10420214 7:0.078455601 8:0.056479076 9:0.064967063 10:0.042624552 11:0.062966535 12:0.038836611 
-0.00086380297501706654 1:3.7596374 2:53.589741 3:0.57893588 4:0.31264607 5:0.055404244 6:0.025422378 7:0.019376812 8:0.0027214597 9:0.00080139961 10:0.0020724612 11:0.0020099764 12:0.00059096214 
-4 1:0.043031297 2:0.017555805 3:0.8017485 4:0.095857156 5:0.029088709 6:0.017818967 7:0.013502775 8:0.010679697 9:0.0087013564 10:0.0078939189 11:0.0072892241 12:0.007086947 
-0.00093211568745452653 1:17.813764 2:95.478452 3:0.14256607 4:0.13939576 5:0.17107133 6:0.16422317 7:0.1182958 8:0.058677043 9:0.02110016 10:0.025490321 11:0.060774421 12:0.093383037 
-0.0013261640164168864 1:35.11331 2:948.17166 3:0.22476692 4:0.18148112 5:0.14745816 6:0.12372328 7:0.082443397 8:0.07222067 9:0.064039415 10:0.047007069 11:0.035125052 12:0.019962388 
-0.0013261637154466932 1:39.894107 2:1050.7427 3:0.14150269 4:0.15409698 5:0.119112 6:0.16239985 7:0.13465971 8:0.11040147 9:0.087897588 10:0.04179021 11:0.031158732 12:0.016351962 
-0.0013261574882746929 1:35.424284 2:86.270576 3:0.060171964 4:0.085684569 5:0.11178549 6:0.1288554 7:0.13397693 8:0.12754452 9:0.11234602 10:0.093417478 11:0.076509237 12:0.066477957 
-0.0009564519533850535 1:8.1583019 2:42.717483 3:0.17008357 4:0.1162305 5:0.13010666 6:0.10931058 7:0.092448181 8:0.098107295 9:0.072046499 10:0.073922996 11:0.067402957 12:0.063132892 
-0.0013261640169268674 1:62.652937 2:2374.0325 3:0.23907076 4:0.23712738 5:0.098132148 6:0.081439441 7:0.11815469 8:0.069338526 9:0.042893298 10:0.039847291 11:0.030673049 12:0.040941111 
-0.0013261640163066968 1:54.461053 2:821.78479 3:0.045223478 4:0.065473119 5:0.065554657 6:0.083722316 7:0.10304313 8:0.10332709 9:0.11974064 10:0.13574928 11:0.12897896 12:0.13836405 
-0.0013261640170129652 1:59.000187 2:2646.329 3:0.17969924 4:0.17857489 5:0.14982997 6:0.084459722 7:0.042092117 8:0.046995285 9:0.04170598 10:0.042548178 11:0.074849976 12:0.15243264 
-4 1:0.087375622 2:0.039024424 3:0.71182644 4:0.21187669 5:0.050579496 6:0.013867117 7:0.0068721278 8:0.0028242472 9:0.001162622 10:0.00051979082 11:0.00025658936 12:0.00020493882 
-0.00028023151750801033 1:8.4156823 2:12.048573 3:0.16080975 4:0.13522793 5:0.095443806 6:0.091552802 7:0.086996563 8:0.084958367 9:0.085262485 10:0.08513943 11:0.085191815 12:0.08516449 
-4 1:0.23447918 2:0.59680586 3:0.876006 4:0.09559756 5:0.017540355 6:0.0063617979 7:0.0027603205 8:0.0011993779 9:0.0003266728 10:0.00012617817 11:5.1072967e-05 12:2.9268037e-05 
-0.0013261640172552713 1:221.88423 2:42315.155 3:0.19378791 4:0.23395315 5:0.085274027 6:0.080093909 7:0.084851351 8:0.095657116 9:0.056179452 10:0.041095625 11:0.037895717 12:0.08186268 
-4 1:0.001683745 2:1.8733858e-05 3:0.69341476 4:0.11635886 5:0.062847297 6:0.035828041 7:0.022523852 8:0.017003925 9:0.014967374 10:0.013008233 11:0.01195765 12:0.01151763 
-0.00079171241494205551 1:8.8910459 2:27.603522 3:0.1486324 4:0.093878529 5:0.091867028 6:0.09635786 7:0.10767929 8:0.097370718 9:0.10115805 10:0.090067425 11:0.085656629 12:0.079165838 
-0.0013261640170480482 1:269.31818 2:76353.11 3:0.18660154 4:0.25056487 5:0.082392672 6:0.088215383 7:0.080083915 8:0.10025319 9:0.055604195 10:0.041074328 11:0.033622818 12:0.072464487 
-0.049259003970836185 1:2.0318003 2:5.9073646 3:0.42500531 4:0.1671001 5:0.069770217 6:0.06210536 7:0.084274798 8:0.038105035 9:0.030824237 10:0.043418389 11:0.052786382 12:0.025259389 
-0.0013261640167271382 1:55.708487 2:1817.1008 3:0.23358631 4:0.24865694 5:0.12414928 6:0.052014891 7:0.054643617 8:0.071948978 9:0.047755549 10:0.045086137 11:0.063034016 12:0.056084308 
-0.0013141858947153862 1:22.652751 2:38.728519 3:0.077167705 4:0.098816905 5:0.11683716 6:0.13194522 7:0.13472733 8:0.12527721 9:0.10691777 10:0.085079098 11:0.065925391 12:0.054675682 
-0.001326164016997089 1:189.82867 2:28970.343 3:0.16111852 4:0.16955974 5:0.15380803 6:0.09347018 7:0.051632198 8:0.050305253 9:0.036554808 10:0.036894543 11:0.073250257 12:0.16876881 
-0.0013261640164975996 1:28.90789 2:478.70869 3:0.013066862 4:0.059099891 5:0.15806512 6:0.22226066 7:0.19480994 8:0.099962533 9:0.018347107 10:0.012723917 11:0.075075209 12:0.13893918 
-4 1:0.024774074 2:0.0064607198 3:0.71534921 4:0.1183903 5:0.054186174 6:0.025459547 7:0.021879355 8:0.016798609 9:0.01366964 10:0.011961582 11:0.011101108 12:0.010684797 
-4 1:0.0053195783 2:0.00019111479 3:0.75100809 4:0.10548415 5:0.090926169 6:0.023622422 7:0.0089725569 8:0.0051684851 9:0.0042165381 10:0.0037164673 11:0.0034205755 12:0.0033009396 
-0.0010441038206291855 1:17.230596 2:53.448362 3:0.085119246 4:0.07426265 5:0.077017693 6:0.096199211 7:0.11199941 8:0.11427166 9:0.11532723 10:0.10780118 11:0.10550152 12:0.10418249 
-0.0013261639679127968 1:29.636935 2:382.46803 3:0.19131593 4:0.15257981 5:0.18748415 6:0.15409316 7:0.094636399 8:0.086224624 9:0.067651303 10:0.029447869 11:0.018005918 12:0.017660045 
-0.0013261640170357247 1:66.065649 2:3544.2808 3:0.2257379 4:0.18071419 5:0.13721798 6:0.11216891 7:0.075358611 8:0.073977269 9:0.070711445 10:0.054279127 11:0.042666874 12:0.025303627 
-0.0009702550172711326 1:1.7670901 2:18.318379 3:0.56457024 4:0.32454553 5:0.059568613 6:0.023283051 7:0.018622567 8:0.0037760356 9:0.00068096487 10:0.0020653182 11:0.0021209636 12:0.00074274618 
-0.00099158064293486392 1:9.0166941 2:135.41294 3:0.44758465 4:0.1143272 5:0.045530017 6:0.054161201 7:0.10435773 8:0.087606729 9:0.03277364 10:0.017724605 11:0.027757436 12:0.064501514 
-0.0013261640170543765 1:68.736487 2:5633.7057 3:0.16389036 4:0.35973985 5:0.058356823 6:0.086260065 7:0.063375896 8:0.11315549 9:0.032350582 10:0.037286976 11:0.0274487 12:0.055628493 
-0.0010428391931278091 1:13.802763 2:76.518675 3:0.18204765 4:0.17100077 5:0.14102448 6:0.12099029 7:0.1056495 8:0.083614977 9:0.066078313 10:0.053742002 11:0.040406867 12:0.03308537 
-4.535856988428084e-05 1:6.7193952 2:17.196031 3:0.16899725 4:0.095186634 5:0.085679737 6:0.10027974 7:0.090444346 8:0.092236886 9:0.093513836 10:0.084044428 11:0.092177926 12:0.089876879 
-4 1:0.028231631 2:0.0096148479 3:0.7889861 4:0.12308517 5:0.061873325 6:0.015479444 7:0.0068671486 8:0.0025862139 9:0.00050078965 10:0.000333313 11:0.00015215801 12:0.00012993915 
-0.0010660402808734682 1:11.830996 2:10.000311 3:0.12754794 4:0.12184757 5:0.10242007 6:0.092880332 7:0.091315327 8:0.091834819 9:0.091980928 10:0.091828865 11:0.091879449 12:0.092158253 
-0.0011220603693402054 1:12.499384 2:68.085387 3:0.19124372 4:0.15383794 5:0.18689139 6:0.1538527 7:0.0954615 8:0.086211627 9:0.067191056 10:0.029517177 11:0.017701071 12:0.017217699 
-0.91014519207257749 1:0.00073260382 2:2.9628736e-06 3:0.69388855 4:0.14673298 5:0.069711465 6:0.030570942 7:0.014615619 8:0.012433131 9:0.009239501 10:0.007940959 11:0.0074286087 12:0.0070874558 
-0.0012590148806981838 1:25.125973 2:134.21572 3:0.047244032 4:0.060519423 5:0.067817765 6:0.078483637 7:0.10219989 8:0.10314179 9:0.12236656 10:0.13284427 11:0.13360739 12:0.14144326 
-0.0013061602509230608 1:44.209837 2:1298.3845 3:0.21592925 4:0.19605267 5:0.13967098 6:0.080785246 7:0.045287252 8:0.051037536 9:0.071697548 10:0.079814752 11:0.066404704 12:0.05011574 
-0.00061639489147157303 1:7.7748478 2:24.901456 3:0.18552334 4:0.11514415 5:0.094250093 6:0.091331746 7:0.092101464 8:0.090861021 9:0.08769624 10:0.082408837 11:0.077214905 12:0.073557508 
-5.546425885493475e-05 1:9.0789808 2:43.022952 3:0.19978669 4:0.13145203 5:0.1157458 6:0.10172485 7:0.086868256 8:0.074016073 9:0.074241214 10:0.068693722 11:0.067209163 12:0.0768495 
-0.0012817148618109648 1:9.399572 2:129.21097 3:0.32177827 4:0.071252839 5:0.21739096 6:0.14244489 7:0.017572873 8:0.044701545 9:0.084694712 10:0.034436501 11:0.0084631637 12:0.053754952 
-4 1:0.00265735 2:6.0195274e-05 3:0.72310055 4:0.10152467 5:0.053190477 6:0.031015565 7:0.021580759 8:0.016978377 9:0.014673233 10:0.013192387 11:0.012288452 12:0.011865297 
-4 1:0.21927362 2:0.36096502 3:0.77619519 4:0.14906931 5:0.048369783 6:0.017154027 7:0.0054847029 8:0.00170946 9:0.00066843389 10:0.00047050838 11:0.00043627861 12:0.00042136664 
-4 1:0.0014801733 2:1.7210294e-05 3:0.71792438 4:0.1598749 5:0.043109216 6:0.030356172 7:0.019000298 8:0.0086013643 9:0.0063478778 10:0.0052440929 11:0.0047837195 12:0.0045339498 
-0.0013261640167818167 1:54.978788 2:1436.2813 3:0.20646351 4:0.15523709 5:0.19010292 6:0.14513764 7:0.094163644 8:0.07975574 9:0.067792043 10:0.028801583 11:0.015848792 12:0.015875932 
-4 1:0.007307338 2:0.00038348757 3:0.78345597 4:0.092829329 5:0.064254505 6:0.020441369 7:0.0098466781 8:0.0072157469 9:0.0061542944 10:0.0054988047 11:0.0051148368 12:0.0049429546 
-0.0013261640167517852 1:23.323135 2:221.51057 3:0.067672809 4:0.11314379 5:0.18644273 6:0.2110122 7:0.16107786 8:0.080290693 9:0.032759384 10:0.033757879 11:0.051089394 12:0.059713272 
-4 1:0.0089247023 2:0.00058611443 3:0.74589334 4:0.11526917 5:0.039415472 6:0.023915431 7:0.017903255 8:0.014932095 9:0.012296637 10:0.010588683 11:0.0098426535 12:0.0094727022 
-0.0013261640171382538 1:28.43225 2:1165.0864 3:0.32181249 4:0.18823732 5:0.11942878 6:0.096852295 7:0.044411351 8:0.075811012 9:0.023394974 10:0.061517172 11:0.024021084 12:0.044136493 
-0.0013261640171755018 1:24.257735 2:868.47985 3:0.43010622 4:0.16869876 5:0.065940834 6:0.061193668 7:0.084814826 8:0.037678298 9:0.029421258 10:0.043434744 11:0.053008397 12:0.024411883 
-0.0007467937921573131 1:13.493572 2:96.403132 3:0.25033886 4:0.13214267 5:0.11456059 6:0.098467039 7:0.083738489 8:0.070906435 9:0.067104961 10:0.06250467 11:0.055080975 12:0.057438275 
-0.0011272464699941809 1:16.760915 2:70.180298 3:0.036838876 4:0.0469883 5:0.075038428 6:0.10293417 7:0.13228483 8:0.148397 9:0.14371475 10:0.12796139 11:0.10038827 12:0.080164074 
-0.00021751667330304793 1:10.683264 2:12.073018 3:0.12129379 4:0.10086148 5:0.10411242 6:0.095282585 7:0.096803354 8:0.094412393 9:0.095691838 10:0.096112815 11:0.094682532 12:0.094523857 
-0.00013661780330462297 1:10.760324 2:19.000269 3:0.15016202 4:0.12594069 5:0.097486744 6:0.089536394 7:0.089041304 8:0.088592904 9:0.088740564 10:0.08872329 11:0.088689792 12:0.088667248 
-4 1:0.0049035393 2:0.00014625486 3:0.72044549 4:0.18069822 5:0.055424325 6:0.015518761 7:0.0092062179 8:0.0053648035 9:0.0041368538 10:0.0032680609 11:0.0029480636 12:0.0028480171 
-0.0013215128485050687 1:20.36792 2:62.715511 3:0.072645791 4:0.05686073 5:0.07676586 6:0.079891325 7:0.095594655 8:0.10752107 9:0.1142154 10:0.12618276 11:0.12922544 12:0.13540028 
-0.0012925052699387929 1:32.599427 2:190.36515 3:0.20099962 4:0.12680158 5:0.062250898 6:0.061616318 7:0.1009192 8:0.11600126 9:0.088368117 10:0.061553776 11:0.073374432 12:0.10260546 
-0.0013261640168474864 1:156.08203 2:11335.169 3:0.12109961 4:0.19473191 5:0.12345894 6:0.21000015 7:0.049451916 8:0.063081101 9:0.051373318 10:0.015310567 11:0.083148239 12:0.086352014 
-0.0013168247421666002 1:44.964676 2:1284.9352 3:0.27523437 4:0.13830329 5:0.13558221 6:0.10487255 7:0.07976628 8:0.054129518 9:0.064990123 10:0.04333275 11:0.061902884 12:0.03979193 
-0.0012925052734032438 1:31.868198 2:183.79018 3:0.12590624 4:0.091593468 5:0.098510574 6:0.096505048 7:0.097860473 8:0.09531871 9:0.094506077 10:0.09626233 11:0.098951807 12:0.10033998 
-0.001326164016825504 1:56.851649 2:1931.859 3:0.22289891 4:0.2390586 5:0.15831181 6:0.089771996 7:0.082358644 8:0.077883818 9:0.045804416 10:0.031860192 11:0.02900592 12:0.022039544 
-0.00037363387795936786 1:8.8517657 2:37.390928 3:0.19567458 4:0.096380621 5:0.088268296 6:0.083466064 7:0.085314373 8:0.088407502 9:0.085110713 10:0.091062091 11:0.090954406 12:0.09265783 
-0.0013261623358764019 1:31.464398 2:69.029029 3:0.060647552 4:0.086133972 5:0.11225375 6:0.12926842 7:0.13424826 8:0.12760606 9:0.11214674 10:0.092961178 11:0.075845909 12:0.065697597 
-0.0013261637131286586 1:33.365511 2:1038.8733 3:0.32350943 4:0.22699939 5:0.13070642 6:0.086040487 7:0.042168513 8:0.036573406 9:0.023562573 10:0.033248889 11:0.040783058 12:0.053515353 
-0.00099811143267940564 1:8.8467682 2:61.063126 3:0.27689324 4:0.11263574 5:0.08481392 6:0.076184827 7:0.075223665 8:0.074046821 9:0.073973885 10:0.073647546 11:0.075007336 12:0.074985584 
-0.0011142121713092405 1:13.225844 2:26.530876 3:0.14756548 4:0.12630111 5:0.10449253 6:0.090792887 7:0.089161094 8:0.086836894 9:0.088100002 10:0.087189868 11:0.087275233 12:0.089032311 
-0.0012440932305586849 1:35.630755 2:601.00798 3:0.13377905 4:0.19220208 5:0.12460229 6:0.19030344 7:0.046724162 8:0.060169019 9:0.048553177 10:0.02309908 11:0.089514422 12:0.087226027 
-0.0013261640147617104 1:47.414792 2:1032.2006 3:0.19534877 4:0.15011102 5:0.18815344 6:0.1530134 7:0.09226187 8:0.085864143 9:0.0682094 10:0.029025277 11:0.018682517 12:0.018660357 
-0.0013261640169409117 1:47.379823 2:2090.6113 3:0.32251561 4:0.2275874 5:0.13159484 6:0.086074801 7:0.042050775 8:0.036114683 9:0.023340267 10:0.033153453 11:0.040984953 12:0.053684852 
-4 1:0.22737978 2:0.396092 3:0.77950017 4:0.14756703 5:0.047672405 6:0.016910344 7:0.0053676427 8:0.0016446627 9:0.00054104587 10:0.00028197692 11:0.00025571213 12:0.00024675424 
-0.0013261640168308331 1:220.86101 2:57257.977 3:0.17213079 4:0.31043165 5:0.065320067 6:0.09099775 7:0.071534812 8:0.11000396 9:0.045399132 10:0.040712643 11:0.027606733 12:0.060262644 
-4 1:0.00056273764 2:2.9283281e-06 3:0.71563322 4:0.1852643 5:0.045137833 6:0.022426271 7:0.014264409 8:0.0065225954 9:0.0037309294 10:0.0026072966 11:0.0022850474 12:0.0020298434 
-0.0013261640171809974 1:60.127716 2:2168.0017 3:0.23507914 4:0.25053395 5:0.12437798 6:0.051238411 7:0.053942561 8:0.071602486 9:0.047035957 10:0.044366374 11:0.062629998 12:0.056130908 
-0.0011344311424792974 1:7.7867454 2:87.982099 3:0.42733658 4:0.16773093 5:0.068111546 6:0.061655146 7:0.084518726 8:0.037903272 9:0.0302246 10:0.043420072 11:0.052882433 12:0.024890822 
-0.00074007285830979383 1:6.334677 2:20.829179 3:0.17235411 4:0.13240698 5:0.096980249 6:0.086252572 7:0.089294619 8:0.081555178 9:0.086175413 10:0.083487865 11:0.082008974 12:0.088539116 
-0.0013250111926321475 1:16.847793 2:161.1115 3:0.015806609 4:0.060711892 5:0.15955741 6:0.22245897 7:0.1938954 8:0.098998091 9:0.017943471 10:0.012313759 11:0.073856577 12:0.13691093 
-0.00114651014229461 1:16.965398 2:186.71872 3:0.2831187 4:0.14198529 5:0.12947062 6:0.10588145 7:0.081862563 8:0.047212861 9:0.063796826 10:0.044526023 11:0.057934824 12:0.041953997 
-0.00073224682930155373 1:30.010021 2:163.95772 3:0.04266578 4:0.045986303 5:0.059326873 6:0.074331313 7:0.092856425 8:0.11186956 9:0.1265725 10:0.13981083 11:0.14731001 12:0.15035376 
-4 1:0.038658714 2:0.021966205 3:0.85393282 4:0.070399323 5:0.022025435 6:0.013153743 7:0.0095062883 8:0.0076258437 9:0.0065139838 10:0.0058483369 11:0.0054599003 12:0.0052722384 
-0.0005158759015290714 1:4.8083761 2:15.301881 3:0.28811217 4:0.14326016 5:0.12599334 6:0.10644705 7:0.082414327 8:0.044827521 9:0.062991215 10:0.044921014 11:0.055893326 12:0.042799597 
-4 1:0.0018208625 2:4.5278853e-05 3:0.74056691 4:0.11223134 5:0.065409313 6:0.024629035 7:0.017466243 8:0.011428735 9:0.008289902 10:0.0071483661 11:0.0063924773 12:0.0061296715 
-0.0013261640168348854 1:44.561039 2:879.06091 3:0.24267099 4:0.14022238 5:0.076400856 6:0.16752605 7:0.11008496 8:0.053879741 9:0.074779441 10:0.052149883 11:0.041895226 12:0.038130047 
-0.0013261640110228676 1:38.968701 2:113.35168 3:0.076603575 4:0.098280812 5:0.11650678 6:0.13180061 7:0.1346839 8:0.12535437 9:0.10713458 10:0.085426831 11:0.066373233 12:0.055179337 
-4 1:0.0040619921 2:0.00010771113 3:0.70468536 4:0.15444534 5:0.06160496 6:0.025326332 7:0.015977327 8:0.01158532 9:0.0079479782 10:0.0064817016 11:0.0060356075 12:0.0056342068 
-0.001072693192817394 1:13.456104 2:83.966827 3:0.21088884 4:0.16201959 5:0.17669852 6:0.14491928 7:0.10079588 8:0.07782172 9:0.063893934 10:0.02987449 11:0.01647661 12:0.015781613 
-0.00088980208943259846 1:12.584848 2:136.46917 3:0.32997298 4:0.18790805 5:0.11848482 6:0.094498313 7:0.080460226 8:0.059438751 9:0.037950508 10:0.027125869 11:0.028583994 12:0.033819515 
-0.0012806910957593454 1:26.280374 2:509.35984 3:0.14531287 4:0.15701549 5:0.11933914 6:0.16018424 7:0.13209297 8:0.10649891 9:0.086700221 10:0.042211121 11:0.032011471 12:0.017471736 
-0.001326128580903696 1:35.460759 2:515.83115 3:0.067813851 4:0.11386046 5:0.18709355 6:0.21126969 7:0.1607824 8:0.079598211 9:0.032007081 10:0.033302398 11:0.05111163 12:0.060097812 
-0.00090076401892433863 1:13.416676 2:100.46685 3:0.22193389 4:0.19438127 5:0.1681798 6:0.13698618 7:0.10555381 8:0.07595121 9:0.04977332 10:0.028319318 11:0.013162523 12:0.0055197676 
-0.0013261640168026889 1:35.577734 2:262.27929 3:0.12307561 4:0.11147194 5:0.11382913 6:0.10952827 7:0.10467488 8:0.097157722 9:0.090162665 10:0.083615919 11:0.081091993 12:0.080505995 
-0.0012807309309734172 1:23.118398 2:503.87851 3:0.24810575 4:0.12087307 5:0.19475268 6:0.14352043 7:0.066228721 8:0.074698959 9:0.075413632 10:0.027311098 11:0.018178693 12:0.030204982 
-4 1:0.055777162 2:0.018458028 3:0.70763332 4:0.14231242 5:0.039482743 6:0.027098412 7:0.019406981 8:0.015768572 9:0.013253679 10:0.012124588 11:0.011366127 12:0.010992859 
-0.0012440932279781935 1:33.924895 2:606.45672 3:0.15509751 4:0.14350609 5:0.11545144 6:0.15501637 7:0.13398008 8:0.1113698 9:0.087846236 10:0.044137833 11:0.032968467 12:0.019403798 
-0.001221702404252234 1:15.365188 2:40.266315 3:0.19837563 4:0.126269 5:0.063080018 6:0.06236586 7:0.10089147 8:0.11574941 9:0.088711721 10:0.062418338 11:0.073988594 12:0.10264563 
-0.0013186222921656816 1:22.623936 2:107.97554 3:0.016998241 4:0.036194142 5:0.06836805 6:0.10658108 7:0.13917522 8:0.15585761 9:0.15166228 10:0.13062433 11:0.10422548 12:0.086179921 
-0.0013250140552037157 1:13.53919 2:169.68303 3:0.31933185 4:0.22949844 5:0.13433238 6:0.086169822 7:0.04168706 8:0.034786977 9:0.022624942 10:0.032832475 11:0.041608224 12:0.054211562 
-4 1:0.0012583386 2:1.0782325e-05 3:0.74076137 4:0.12576563 5:0.040155478 6:0.033148867 7:0.024260741 8:0.010044944 9:0.0078655825 10:0.0064164636 11:0.0057772923 12:0.005529719 
-0.00067724560994563917 1:8.2122604 2:57.104375 3:0.32726062 4:0.18811997 5:0.11924892 6:0.094850413 7:0.080432928 8:0.059522077 9:0.038335427 10:0.027617667 11:0.028908594 12:0.033941746 
-0.0013259038486752583 1:32.106674 2:308.96625 3:0.059575414 4:0.081631293 5:0.073329275 6:0.085763976 7:0.10415266 8:0.10030936 9:0.11239913 10:0.12749928 11:0.11946012 12:0.12609779 
-1.1186052084610765e-12 1:9.7921664 2:58.384541 3:0.16881766 4:0.085011648 5:0.10741615 6:0.078673429 7:0.10475158 8:0.079767756 9:0.10140314 10:0.082469987 11:0.09672063 12:0.084772026 
-4 1:1.1186077 2:2.0961687 3:0.44837601 4:0.11446513 5:0.045303269 6:0.054122733 7:0.10437376 8:0.087549522 9:0.032573282 10:0.017567619 11:0.02758048 12:0.064414355 
-0.0013261640168457656 1:18.660529 2:462.86005 3:0.35624722 4:0.25537594 5:0.15851353 6:0.079514719 7:0.026953768 8:0.0070609762 9:0.005865112 10:0.019073565 11:0.038064572 12:0.050675043 
-0.0010801190973627102 1:14.811527 2:91.673938 3:0.23034184 4:0.13243493 5:0.11394814 6:0.097954967 7:0.084113755 8:0.073187248 9:0.073320155 10:0.065843645 11:0.058362423 12:0.063480563 
-0.00099482769649189865 1:13.111588 2:19.609406 3:0.14280301 4:0.11599146 5:0.093636461 6:0.093675531 7:0.091819584 8:0.091505831 9:0.091533086 10:0.091672945 11:0.091151084 12:0.091247291 
-0.0012594457552760137 1:25.607545 2:140.13464 3:0.017813669 4:0.036363383 5:0.06901747 6:0.10647314 7:0.13950385 8:0.15624328 9:0.15114682 10:0.13074462 11:0.1034014 12:0.084843101 
-0.0013261640168536482 1:12.284672 2:250.02039 3:0.44671541 4:0.114465 5:0.045774979 6:0.054256035 7:0.10428412 8:0.08759327 9:0.032945747 10:0.017853949 11:0.027915057 12:0.064522395 
-0.00069652246097637956 1:11.294396 2:16.152035 3:0.12905043 4:0.098452893 5:0.099249916 6:0.0944683 7:0.096763388 8:0.09468911 9:0.094830176 10:0.096508338 11:0.095085253 12:0.094434054 
-4 1:0.0044748439 2:0.00012716514 3:0.72530714 4:0.17432206 5:0.040652168 6:0.026393776 7:0.015319184 8:0.0064424749 9:0.0038773308 10:0.0027311028 11:0.0024829625 12:0.002355246 
-4 1:0.00029687057 2:7.3907391e-07 3:0.70481675 4:0.12141445 5:0.08110272 6:0.042393482 7:0.02615007 8:0.0098786952 9:0.0060026976 10:0.0036194897 11:0.0023377795 12:0.0021761619 
-0.0013261640147902432 1:21.951334 2:616.36818 3:0.31045113 4:0.19607982 5:0.12312283 6:0.092625366 7:0.048729093 8:0.072294551 9:0.026151333 10:0.060853179 11:0.024802673 12:0.044245455 
-0.0013261640168113487 1:27.719908 2:1022.6184 3:0.35644606 4:0.25542446 5:0.15852779 6:0.079521534 7:0.026944074 8:0.0068975341 9:0.00575812 10:0.019069976 11:0.038070061 12:0.050684407 
-0.0010417526957551271 1:10.249115 2:74.399619 3:0.25819496 4:0.24348903 5:0.1564548 6:0.061204411 7:0.049765936 8:0.041825136 9:0.055080572 10:0.064393474 11:0.03918993 12:0.028803745 
-0.0013257389769897321 1:34.913189 2:133.36998 3:0.070287841 4:0.085751317 5:0.094900111 6:0.10810644 7:0.12763931 8:0.11187732 9:0.11772669 10:0.099025478 11:0.093938245 12:0.085701636 
-0.0013261640172856359 1:53.416499 2:3890.8043 3:0.3164572 4:0.19197071 5:0.12118104 6:0.094861754 7:0.046411946 8:0.07415381 9:0.024672668 10:0.061220843 11:0.024374742 12:0.044193795 
-0.0010528918335999862 1:7.3050219 2:101.57127 3:0.39167459 4:0.16306432 5:0.098549918 6:0.075920693 7:0.06487381 8:0.054652106 9:0.044744293 10:0.039549122 11:0.03473429 12:0.029555477 
-0.00078859741266136855 1:9.5205338 2:84.03335 3:0.27905232 4:0.24400918 5:0.15777351 6:0.06980205 7:0.025801742 8:0.031231588 9:0.056167165 10:0.064046899 11:0.046239968 12:0.024135772 
-0.0013261640168420463 1:98.73947 2:10920.41 3:0.34243452 4:0.10659096 5:0.11026845 6:0.19955329 7:0.055427899 8:0.033956127 9:0.071892177 10:0.029946067 11:0.027889406 12:0.020135591 
-4 1:0.022972509 2:0.0053405186 3:0.78758492 4:0.11041644 5:0.06337318 6:0.015717773 7:0.0091594168 8:0.0050755177 9:0.0025360179 10:0.0022473398 11:0.0019416844 12:0.0018555352 
-0.00050314849621206983 1:14.392049 2:53.686907 3:0.12975861 4:0.14246143 5:0.12321265 6:0.11858241 7:0.072884167 8:0.080582276 9:0.069664197 10:0.06312252 11:0.10001081 12:0.093368408 
-0.0010487159873964137 1:21.089291 2:306.11495 3:0.21981655 4:0.20089456 5:0.1860683 6:0.14858486 7:0.081113941 8:0.045862074 9:0.018354045 10:0.018937603 11:0.034200551 12:0.043778892 
-4 1:0.076904206 2:0.047484165 3:0.78484174 4:0.14354597 5:0.04617134 6:0.016514794 7:0.0052325598 8:0.0016586578 9:0.00067095349 10:0.00047682452 11:0.00044043395 12:0.00042557161 
-0.0013261640168111821 1:22.236156 2:277.88928 3:0.22266427 4:0.19445502 5:0.16830736 6:0.13714138 7:0.10553673 8:0.075821016 9:0.049556905 10:0.028049704 11:0.012850176 12:0.0053764016 
-0.0013261640171893796 1:37.412002 2:407.80931 3:0.14058703 4:0.13843507 5:0.17015743 6:0.16371964 7:0.11848619 8:0.059509325 9:0.022248312 10:0.026539583 11:0.061480835 12:0.093794854 
-4 1:0.037089292 2:0.014392574 3:0.76304199 4:0.10086873 5:0.037148654 6:0.023079195 7:0.017505637 8:0.014286781 9:0.012269854 10:0.011042824 11:0.010300427 12:0.0099606815 
-0.0013261640171894906 1:82.89628 2:2925.5837 3:0.1135644 4:0.17840392 5:0.12367835 6:0.20681327 7:0.058737383 8:0.069015488 9:0.054365975 10:0.015392317 11:0.081881131 12:0.096333478 
-0.00027668702257506 1:9.7921664 2:58.384541 3:0.16881766 4:0.085011648 5:0.10741615 6:0.078673429 7:0.10475158 8:0.079767756 9:0.10140314 10:0.082469987 11:0.09672063 12:0.084772026 
-0.0013261640172759215 1:63.526745 2:2412.3729 3:0.22344715 4:0.23940175 5:0.15768634 6:0.088670598 7:0.081759747 8:0.077778101 9:0.045703876 10:0.032327483 11:0.02956066 12:0.022628514 
-4 1:0.0011151076 2:1.3637349e-05 3:0.75616924 4:0.16880194 5:0.042357855 6:0.015760602 7:0.0079319524 8:0.0034223894 9:0.0020268412 10:0.0012531708 11:0.0011934066 12:0.0010326715 
-4 1:0.0024439775 2:4.8665745e-05 3:0.79897177 4:0.094611384 5:0.052273232 6:0.02026322 7:0.0097859923 8:0.0063607813 9:0.0051220532 10:0.0044357109 11:0.0040653684 12:0.0039162294 
-4 1:0.0030532644 2:5.2342129e-05 3:0.69198115 4:0.11699708 5:0.10586805 6:0.030326105 7:0.014531751 8:0.010123329 9:0.0085502809 10:0.0075820116 11:0.0069759823 12:0.0067305226 
-0.0011015981008810868 1:10.660318 2:52.018659 3:0.13159086 4:0.11062132 5:0.10767881 6:0.09381995 7:0.085305057 8:0.094888307 9:0.096474237 10:0.088568512 11:0.0914087 12:0.097536403 
-0.0013258240177812506 1:18.93132 2:125.63762 3:0.14636427 4:0.10100621 5:0.11916796 6:0.10792725 7:0.092265479 8:0.10142818 9:0.082167479 10:0.085618101 11:0.080877586 12:0.077349519 
-0.0013261640172554934 1:51.342698 2:1239.1936 3:0.20760218 4:0.15658608 5:0.18675101 6:0.14489471 7:0.096308253 8:0.079122191 9:0.066856232 10:0.029098439 11:0.01605937 12:0.015895614 
-0.0013261640171388644 1:106.23044 2:10948.861 3:0.32301936 4:0.12718747 5:0.1183767 6:0.15546373 7:0.043203768 8:0.044097351 9:0.068737544 10:0.047769728 11:0.041346767 12:0.028421234 
-0.0013237912611411828 1:27.462684 2:97.788363 3:0.06758601 4:0.088075729 5:0.09601094 6:0.1082344 7:0.12893203 8:0.11056047 9:0.11825122 10:0.098236049 11:0.093727586 12:0.085238938 
-4 1:0.028654837 2:0.0083274065 3:0.71765117 4:0.12016633 5:0.046625372 6:0.02801249 7:0.020205762 8:0.016483807 9:0.014178021 10:0.012727104 11:0.011884703 12:0.011494091 
-4 1:0.001257236 2:2.2510214e-05 3:0.75818314 4:0.12050937 5:0.051335379 6:0.023297306 7:0.015022777 8:0.008089725 9:0.0068674886 10:0.0059249026 11:0.0053668303 12:0.0051508312 
-4 1:0.00090440094 2:6.3136451e-06 3:0.69556205 4:0.1122079 5:0.069384034 6:0.045080746 7:0.023935206 8:0.015084931 9:0.011671332 10:0.0095837321 11:0.0087077659 12:0.0083662257 
-4 1:0.012653339 2:0.0014248348 3:0.73044233 4:0.14464254 5:0.040711845 6:0.022532021 7:0.015357739 8:0.012369112 9:0.0099319734 10:0.0083930303 11:0.007758666 12:0.0074875118 
-4 1:0.025606683 2:0.0035866255 3:0.71834724 4:0.20991827 5:0.048590809 6:0.013019282 7:0.0063179833 8:0.0025023158 9:0.00089923542 10:0.00029499076 11:6.4701378e-05 12:4.3057797e-05 
-0.001326164016992315 1:75.672835 2:3654.3309 3:0.15506623 4:0.15432245 5:0.14823107 6:0.10453804 7:0.069241742 8:0.06839682 9:0.072071729 10:0.076706206 11:0.073822251 12:0.075304166 
-0.0010483420559495092 1:22.129131 2:309.9687 3:0.23852374 4:0.25484814 5:0.12489778 6:0.049439626 7:0.052321057 8:0.070795108 9:0.045375889 10:0.042709705 11:0.061691662 12:0.056283776 
-0.0013261640170480482 1:163.23285 2:19440.014 3:0.14909047 4:0.15604037 5:0.15760488 6:0.10671995 7:0.065293844 8:0.056361089 9:0.040717784 10:0.040276173 11:0.069388844 12:0.15626587 
-4 1:0.0086157843 2:0.00052398665 3:0.74542912 4:0.16343157 5:0.030195278 6:0.014600191 7:0.011918696 8:0.0085714107 9:0.0072382895 10:0.0064562442 11:0.0060369596 12:0.0058324343 
-4 1:0.0010539619 2:7.6808091e-06 3:0.71813172 4:0.1295748 5:0.049372536 6:0.03522975 7:0.021001071 8:0.012702874 9:0.010194848 10:0.0084810332 11:0.0076330837 12:0.0073157606 
-0.0013249687762961204 1:36.621721 2:98.329222 3:0.07561096 4:0.097354619 5:0.11606426 6:0.13152095 7:0.13457196 8:0.12546635 9:0.10749068 10:0.08601969 11:0.067146653 12:0.056053722 
