svm_type c_svc
kernel_type rbf
gamma 0.083333333333333329
nr_class 2
total_sv 136
rho 1.0803172097264351
label 1 -1
probA -4.6567246345161752
probB -2.2037954964609732
nr_sv 66 70
SV
4 1:0.060273085 2:0.0047707625 3:0.38798546 4:0.1846167 5:0.10558598 6:0.072520959 7:0.05641734 8:0.046682019 9:0.04052054 10:0.036607182 11:0.034260572 12:0.0331544 
4 1:0.12475325 2:0.039002122 3:0.43601729 4:0.15357456 5:0.097225984 6:0.070335987 7:0.054806478 8:0.045466687 9:0.039512857 10:0.035698094 11:0.033418635 12:0.03233582 
4 1:0.04835668 2:0.0072940397 3:0.50668618 4:0.17542536 5:0.078122612 6:0.054344025 7:0.04220971 8:0.034737545 9:0.030160191 10:0.027133697 11:0.025391563 12:0.024567948 
4 1:3.6191287 2:0.029532565 3:0.10409207 4:0.10178129 5:0.10120128 6:0.098378647 7:0.09870813 8:0.098513765 9:0.098213405 10:0.097997354 11:0.098104257 12:0.098106868 
4 1:0.060433687 2:0.0084136028 3:0.4419783 4:0.15033829 5:0.096303489 6:0.069709712 7:0.054758455 8:0.045292062 9:0.039272915 10:0.035455046 11:0.033184967 12:0.032110452 
4 1:0.077228959 2:0.019049025 3:0.47063522 4:0.14208939 5:0.091140495 6:0.066066305 7:0.051999387 8:0.043140487 9:0.03738021 10:0.033786855 11:0.031644962 12:0.03059622 
4 1:0.11602646 2:0.032627428 3:0.4463649 4:0.15129897 5:0.097388773 6:0.068501332 7:0.053499774 8:0.044273877 9:0.038417347 10:0.034733454 11:0.032503831 12:0.031454029 
4 1:0.11893559 2:0.051205256 3:0.48196644 4:0.14391856 5:0.089677463 6:0.063967665 7:0.04981515 8:0.041277409 9:0.035846347 10:0.032398522 11:0.030325761 12:0.029347637 
4 1:0.038730663 2:0.0062166772 3:0.56219161 4:0.17012063 5:0.068750065 6:0.04497037 7:0.035124762 8:0.028910593 9:0.024970379 10:0.022522208 11:0.021057062 12:0.020369956 
4 1:0.027664138 2:0.0072226239 3:0.70690774 4:0.16769709 5:0.043726757 6:0.022139314 7:0.013929334 8:0.011328859 9:0.009579233 10:0.0085731856 11:0.0080001941 12:0.0077346848 
4 1:0.037276019 2:0.0024626274 3:0.42759814 4:0.19390365 5:0.093351239 6:0.064639942 7:0.050511727 8:0.041645093 9:0.035711559 10:0.032097075 11:0.030038975 12:0.029057297 
4 1:0.088036682 2:0.0098870418 3:0.37158216 4:0.16853784 5:0.10800857 6:0.078699484 7:0.061709343 8:0.05121935 9:0.044432565 10:0.04012056 11:0.037548897 12:0.036334814 
4 1:0.063140881 2:0.01876402 3:0.6432236 4:0.15868471 5:0.053144095 6:0.035072051 7:0.025204985 8:0.020808879 9:0.017729116 10:0.016055868 11:0.01504129 12:0.014487962 
4 1:0.04227879 2:0.0068234946 3:0.48577529 4:0.18240732 5:0.11024185 6:0.050541936 7:0.038696019 8:0.032643494 9:0.027639847 10:0.024731984 11:0.023698036 12:0.02253226 
4 1:0.06364481 2:0.0049626858 3:0.3730131 4:0.16854616 5:0.1084085 6:0.078387381 7:0.061343264 8:0.05094129 9:0.044177189 10:0.039901021 11:0.037346046 12:0.036139369 
4 1:0.043031297 2:0.017555805 3:0.8017485 4:0.095857156 5:0.029088709 6:0.017818967 7:0.013502775 8:0.010679697 9:0.0087013564 10:0.0078939189 11:0.0072892241 12:0.007086947 
4 1:0.028654837 2:0.0083274065 3:0.71765117 4:0.12016633 5:0.046625372 6:0.02801249 7:0.020205762 8:0.016483807 9:0.014178021 10:0.012727104 11:0.011884703 12:0.011494091 
4 1:0.098411513 2:0.011445411 3:0.37483578 4:0.1707786 5:0.10740652 6:0.077553303 7:0.060846906 8:0.050504708 9:0.043822311 10:0.039588982 11:0.037037555 12:0.035843331 
4 1:0.023070609 2:0.0009538914 3:0.39966451 4:0.20791141 5:0.099156135 6:0.066385413 7:0.051604553 8:0.042754592 9:0.036790485 10:0.033174036 11:0.031038054 12:0.03002826 
4 1:0.02048315 2:0.0018237669 3:0.57358204 4:0.13547104 5:0.077320079 6:0.048742538 7:0.037825563 8:0.031974926 9:0.026742364 10:0.023739419 11:0.022130692 12:0.021407226 
4 1:0.15565237 2:0.037424839 3:0.39520472 4:0.16274197 5:0.10469514 6:0.075541419 7:0.0591003 8:0.04902844 9:0.042599079 10:0.038479533 11:0.0360198 12:0.034856705 
4 1:0.11977275 2:0.015350355 3:0.36598627 4:0.1747872 5:0.1099209 6:0.078200022 7:0.06130562 8:0.050761559 9:0.044084785 10:0.039820643 11:0.037271975 12:0.036067855 
4 1:0.073166915 2:0.012314124 3:0.3646034 4:0.21592261 5:0.13702594 6:0.064516802 7:0.048214158 8:0.041504354 9:0.0352637 10:0.031873659 11:0.030614228 12:0.029027779 
4 1:2.3487132 2:0.025011757 3:0.10939235 4:0.10292209 5:0.10082425 6:0.097442264 7:0.097876712 8:0.097657264 9:0.09735987 10:0.097146863 11:0.097257142 12:0.097260133 
4 1:0.030734905 2:0.0020276434 3:0.4781936 4:0.15628848 5:0.094147827 6:0.061415207 7:0.047750515 8:0.039515584 9:0.034091525 10:0.030703949 11:0.02872253 12:0.027790172 
4 1:0.089665802 2:0.0089460037 3:0.36500257 4:0.18010118 5:0.10970359 6:0.077394935 7:0.06063244 8:0.0501021 9:0.043538454 10:0.039320323 11:0.036812144 12:0.035621422 
4 1:0.061866117 2:0.01383865 3:0.49632817 4:0.19548372 5:0.098115063 6:0.049422137 7:0.036262313 8:0.030522846 9:0.026027637 10:0.023401503 11:0.022340945 12:0.021239322 
4 1:0.077191109 2:0.0081198021 3:0.38619555 4:0.1673218 5:0.10818744 6:0.075817037 7:0.059409965 8:0.049189208 9:0.04265181 10:0.038532646 11:0.036062093 12:0.03489745 
4 1:0.0089247023 2:0.00058611443 3:0.74589334 4:0.11526917 5:0.039415472 6:0.023915431 7:0.017903255 8:0.014932095 9:0.012296637 10:0.010588683 11:0.0098426535 12:0.0094727022 
4 1:0.014663502 2:0.00084148652 3:0.53500115 4:0.23828786 5:0.068192605 6:0.037733158 7:0.028027626 8:0.022922086 9:0.019502111 10:0.017495111 11:0.016294919 12:0.015760073 
4 1:0.055777162 2:0.018458028 3:0.70763332 4:0.14231242 5:0.039482743 6:0.027098412 7:0.019406981 8:0.015768572 9:0.013253679 10:0.012124588 11:0.011366127 12:0.010992859 
1.1693390923968423 1:3.851223 2:0.034648108 3:0.10461295 4:0.10178685 5:0.10096506 6:0.098376957 7:0.098633333 8:0.098465658 9:0.098173576 10:0.097953637 11:0.09806168 12:0.098066647 
4 1:0.012653339 2:0.0014248348 3:0.73044233 4:0.14464254 5:0.040711845 6:0.022532021 7:0.015357739 8:0.012369112 9:0.0099319734 10:0.0083930303 11:0.007758666 12:0.0074875118 
4 1:0.05095083 2:0.0049856399 3:0.43296619 4:0.17402061 5:0.095113218 6:0.067068513 7:0.052378645 8:0.043250816 9:0.03749477 10:0.033846932 11:0.031680158 12:0.030655995 
4 1:0.031738822 2:0.0017161079 3:0.41329132 4:0.21250012 5:0.095280878 6:0.063335584 7:0.048988602 8:0.040620679 9:0.034977288 10:0.031552798 11:0.029493828 12:0.028540136 
4 1:0.062137417 2:0.014688954 3:0.47917258 4:0.23364652 5:0.11776186 6:0.063813911 7:0.039054705 8:0.02545125 9:0.016671777 10:0.010725225 11:0.007461721 12:0.0059465134 
4 1:0.075242442 2:0.010488024 3:0.41316457 4:0.15692658 5:0.10144399 6:0.073785774 7:0.057604855 8:0.047749207 9:0.041420902 10:0.037377714 11:0.034989352 12:0.033853852 
4 1:0.028199641 2:0.0016463887 3:0.44254953 4:0.20993273 5:0.093146536 6:0.058188155 7:0.044747838 8:0.037837579 9:0.031544042 10:0.028485459 11:0.026579753 12:0.025710447 
4 1:0.026831488 2:0.0014916302 3:0.44836572 4:0.15702544 5:0.095016637 6:0.067502566 7:0.052497787 8:0.043752534 9:0.037783592 10:0.033996103 11:0.031784125 12:0.030746956 
4 1:0.083106287 2:0.026064475 3:0.49276917 4:0.19002021 5:0.096812485 6:0.060445356 7:0.043357587 8:0.032431295 9:0.025634053 10:0.021301614 11:0.018757886 12:0.017597877 
4 1:0.026256683 2:0.0050554892 3:0.64005881 4:0.12394752 5:0.066417775 6:0.038557681 7:0.031280606 8:0.025388206 9:0.020913142 10:0.018437782 11:0.017298773 12:0.016860166 
4 1:0.074583943 2:0.0084097257 3:0.40986674 4:0.15969199 5:0.10151944 6:0.073579689 7:0.057676955 8:0.047877537 9:0.041524339 10:0.037509019 11:0.035104561 12:0.033961937 
4 1:0.024774074 2:0.0064607198 3:0.71534921 4:0.1183903 5:0.054186174 6:0.025459547 7:0.021879355 8:0.016798609 9:0.01366964 10:0.011961582 11:0.011101108 12:0.010684797 
4 1:0.25307558 2:0.0050977387 3:0.1572703 4:0.11679848 5:0.099562081 6:0.093258998 7:0.091657548 8:0.088940804 9:0.087855914 10:0.087015531 11:0.086744775 12:0.086406775 
4 1:0.084604322 2:0.01650917 3:0.45411631 4:0.14615014 5:0.093986736 6:0.068220868 7:0.053663193 8:0.044504411 9:0.038630916 10:0.034886617 11:0.032662023 12:0.03160745 
4 1:0.038658714 2:0.021966205 3:0.85393282 4:0.070399323 5:0.022025435 6:0.013153743 7:0.0095062883 8:0.0076258437 9:0.0065139838 10:0.0058483369 11:0.0054599003 12:0.0052722384 
4 1:0.063911999 2:0.012213754 3:0.48502764 4:0.17628132 5:0.085459744 6:0.057023245 7:0.044447175 8:0.036750806 9:0.031922166 10:0.028788056 11:0.026938683 12:0.026065644 
4 1:0.082955795 2:0.0097404042 3:0.3877672 4:0.18222011 5:0.1052467 6:0.073894857 7:0.057283826 8:0.047303529 9:0.040816924 10:0.036601725 11:0.03418576 12:0.033037181 
4 1:0.038533762 2:0.0015624115 3:0.34954915 4:0.19142478 5:0.11037926 6:0.078269432 7:0.061253413 8:0.050776631 9:0.043920548 10:0.039634241 11:0.037103778 12:0.035903334 
4 1:0.067926694 2:0.00059250231 3:0.17281941 4:0.11835507 5:0.098513615 6:0.089022855 7:0.087872003 8:0.086651062 9:0.086156085 10:0.085487051 11:0.085384238 12:0.085397638 
4 1:0.075946714 2:0.0059721401 3:0.3575957 4:0.17594714 5:0.1123011 6:0.079165621 7:0.062191156 8:0.051606619 9:0.044689103 10:0.040354728 11:0.037776037 12:0.036555211 
4 1:0.077368413 2:0.011852229 3:0.43849842 4:0.16398096 5:0.096188926 6:0.067695727 7:0.052843959 8:0.043776343 9:0.038014708 10:0.034294543 11:0.032098671 12:0.03106331 
4 1:0.036292942 2:0.0080590605 3:0.59938193 4:0.11515229 5:0.068378537 6:0.048698817 7:0.03835312 8:0.031580019 9:0.027319117 10:0.024643287 11:0.023067929 12:0.022315762 
4 1:0.019585245 2:0.0022047147 3:0.6971151 4:0.13099493 5:0.054114817 6:0.028878447 7:0.020646724 8:0.016874598 9:0.014395305 10:0.012839224 11:0.011978535 12:0.01158476 
4 1:0.035998264 2:0.0041286098 3:0.50480386 4:0.1823764 5:0.083267389 6:0.052727437 7:0.040175438 8:0.033154229 9:0.028713351 10:0.025910015 11:0.024248614 12:0.023457473 
4 1:0.049225471 2:0.019524424 3:0.61929857 4:0.11111609 5:0.0657445 6:0.044596398 7:0.035925033 8:0.030147451 9:0.026001513 10:0.023224596 11:0.02175012 12:0.021129775 
4 1:0.057364537 2:0.01272602 3:0.52396026 4:0.13001338 5:0.082752444 6:0.05810923 7:0.046249976 8:0.038701699 9:0.033420091 10:0.030038108 11:0.028114322 12:0.02729339 
4 1:0.083914943 2:0.0066268323 3:0.34858662 4:0.17271241 5:0.11197669 6:0.081729622 7:0.064274929 8:0.053432482 9:0.046408071 10:0.041870109 11:0.039194098 12:0.037929292 
4 1:0.025454859 2:0.0016557152 3:0.44502125 4:0.20955569 5:0.087168877 6:0.059488831 7:0.045238216 8:0.038107502 9:0.032223959 10:0.028849186 11:0.026969531 12:0.026080859 
4 1:0.037089292 2:0.014392574 3:0.76304199 4:0.10086873 5:0.037148654 6:0.023079195 7:0.017505637 8:0.014286781 9:0.012269854 10:0.011042824 11:0.010300427 12:0.0099606815 
4 1:0.041355659 2:0.012264202 3:0.62666265 4:0.17215134 5:0.058957896 6:0.033015487 7:0.024880241 8:0.020484619 9:0.017773627 10:0.015978111 11:0.014934224 12:0.014443184 
4 1:0.024573902 2:0.0037555697 3:0.67479541 4:0.17404256 5:0.049825943 6:0.026838503 7:0.01773376 8:0.01404996 9:0.011952524 10:0.010673163 11:0.0099696614 12:0.0096389949 
4 1:1.384694 2:0.012397104 3:0.11187755 4:0.10268043 5:0.10015187 6:0.09743754 7:0.097523769 8:0.097406345 9:0.097149778 10:0.096904481 11:0.097002581 12:0.097012951 
4 1:0.012110899 2:0.0010703736 3:0.75151905 4:0.11651681 5:0.04215469 6:0.022637737 7:0.01650809 8:0.013255556 9:0.010873029 10:0.0092864082 11:0.008565115 12:0.0082728087 
4 1:0.073282339 2:0.028278893 3:0.51145916 4:0.13346108 5:0.084503557 6:0.060383463 7:0.047428552 8:0.039430475 9:0.034213693 10:0.030869532 11:0.028883608 12:0.027976104 
4 1:0.031415315 2:0.0065934328 3:0.6275609 4:0.15367194 5:0.059951461 6:0.037444654 7:0.027814807 8:0.022767158 9:0.019702144 10:0.017718869 11:0.016555785 12:0.016015522 
-4 1:0.0099503313 2:0.00051821397 3:0.59661075 4:0.19052102 5:0.072825609 6:0.043198431 7:0.026758638 8:0.018012081 9:0.015086318 10:0.012865474 11:0.012034634 12:0.011514777 
-4 1:0.0037542567 2:3.4470277e-05 3:0.48414007 4:0.14702909 5:0.088465556 6:0.063228273 7:0.049790062 8:0.040819065 9:0.035123424 10:0.03166712 11:0.029638417 12:0.028673368 
-2.4165812009506622 1:0.034073418 2:5.7568408e-05 3:0.1197925 4:0.10813934 5:0.11381638 6:0.11799306 7:0.11736974 8:0.11043518 9:0.097848676 10:0.082547371 11:0.06870119 12:0.060404442 
-4 1:0.00265735 2:6.0195274e-05 3:0.72310055 4:0.10152467 5:0.053190477 6:0.031015565 7:0.021580759 8:0.016978377 9:0.014673233 10:0.013192387 11:0.012288452 12:0.011865297 
-4 1:0.14553521 2:0.021568099 3:0.33515989 4:0.09727029 5:0.08095837 6:0.084609077 7:0.086238962 8:0.080066377 9:0.070761811 10:0.061937946 11:0.053537923 12:0.047170958 
-4 1:0.0046904451 2:5.1804202e-05 3:0.44700113 4:0.17039398 5:0.095836026 6:0.064927973 7:0.05076326 8:0.0415958 9:0.036012276 10:0.032396945 11:0.030298563 12:0.029316695 
-1.7826133412534544 1:0.9144449 2:0.42900301 3:0.20628497 4:0.15863068 5:0.19779666 6:0.14692635 7:0.080818489 8:0.082756323 9:0.069245798 10:0.027415619 11:0.014355509 12:0.015009592 
-4 1:0.0086157843 2:0.00052398665 3:0.74542912 4:0.16343157 5:0.030195278 6:0.014600191 7:0.011918696 8:0.0085714107 9:0.0072382895 10:0.0064562442 11:0.0060369596 12:0.0058324343 
-4 1:0.016878539 2:0.0017824099 3:0.71803828 4:0.15194326 5:0.058411166 6:0.025770118 7:0.013054279 8:0.0087519899 9:0.0067513262 10:0.0059944713 11:0.0056007916 12:0.0054151491 
-4 1:0.0036952196 2:0.00010423405 3:0.6891231 4:0.10808158 5:0.055318344 6:0.034809323 7:0.026250334 8:0.020960414 9:0.018223312 10:0.016400951 11:0.015305228 12:0.014791727 
-4 1:1.1356795 2:0.090244112 3:0.081236046 4:0.097672195 5:0.11654517 6:0.12954233 7:0.13197988 8:0.1235008 9:0.10629602 10:0.085780802 11:0.06769828 12:0.057002317 
-4 1:0.51704675 2:0.0058533293 3:0.10367536 4:0.10305713 5:0.098215712 6:0.098187733 7:0.099880372 8:0.099131615 9:0.097681859 10:0.098325147 11:0.098786231 12:0.098083175 
-4 1:0.0088987259 2:0.00060657695 3:0.78304137 4:0.16089508 5:0.021909607 6:0.0090837728 7:0.0070773022 8:0.0045645135 9:0.0037974078 10:0.0033425152 11:0.0031246016 12:0.0030141843 
-4 1:0.0086790651 2:0.00035148173 3:0.57162944 4:0.19390176 5:0.074749165 6:0.043471162 7:0.029961278 8:0.021560334 9:0.018351084 10:0.016073746 11:0.015089169 12:0.014492161 
-4 1:0.11861859 2:0.0024681775 3:0.14095197 4:0.12643897 5:0.15443103 6:0.14785439 7:0.11314121 8:0.071633124 9:0.041578924 10:0.043520065 11:0.066135955 12:0.089558183 
-4 1:0.025606683 2:0.0035866255 3:0.71834724 4:0.20991827 5:0.048590809 6:0.013019282 7:0.0063179833 8:0.0025023158 9:0.00089923542 10:0.00029499076 11:6.4701378e-05 12:4.3057797e-05 
-4 1:0.0013483244 2:1.0925627e-05 3:0.60037343 4:0.13269568 5:0.084520503 6:0.044223562 7:0.032678645 8:0.02686517 9:0.022011944 10:0.019790149 11:0.018302293 12:0.017660173 
-4 1:0.62538696 2:0.062202633 3:0.19460582 4:0.12499809 5:0.064398548 6:0.063670321 7:0.1008119 8:0.11523489 9:0.089240176 10:0.063863446 11:0.075011228 12:0.10266856 
-4 1:0.00080054547 2:1.6881559e-06 3:0.50040882 4:0.17346049 5:0.083387942 6:0.059737803 7:0.043737002 8:0.034295498 9:0.029559558 10:0.026216078 11:0.024419911 12:0.023602869 
-4 1:0.0014587835 2:4.7796621e-06 3:0.46169122 4:0.17695478 5:0.089514457 6:0.063883866 7:0.048683035 8:0.038920444 9:0.033485305 10:0.030143671 11:0.028152172 12:0.027218917 
-4 1:0.45119387 2:0.028292662 3:0.12827384 4:0.09864152 5:0.10556114 6:0.12234272 7:0.13516693 8:0.093494874 9:0.066499317 10:0.041012458 11:0.065326465 12:0.13931699 
-4 1:0.24896847 2:0.044733002 3:0.25802847 4:0.24084108 5:0.15602654 6:0.063280302 7:0.050501905 8:0.043479233 9:0.054240943 10:0.063494539 11:0.03884354 12:0.029628675 
-4 1:0.016324093 2:0.001568728 3:0.59860235 4:0.18242192 5:0.079253124 6:0.042425934 7:0.025772753 8:0.018496782 9:0.014836061 10:0.013231297 11:0.012386369 12:0.011977918 
-4 1:0.0055483651 2:0.00025747811 3:0.74848353 4:0.12313136 5:0.038320342 6:0.022411813 7:0.015864679 8:0.012700168 9:0.010910367 10:0.0097835326 11:0.0091284816 12:0.008827045 
-0.54939768745419948 1:0.0039360496 2:4.388377e-05 3:0.46727459 4:0.24564865 5:0.08575626 6:0.046525869 7:0.03719443 8:0.029088868 9:0.024914888 10:0.022088542 11:0.020599393 12:0.019919441 
-4 1:0.0046648316 2:9.1275048e-05 3:0.58576816 4:0.18294554 5:0.070449751 6:0.039932997 7:0.028229796 8:0.02273426 9:0.019478544 10:0.017496832 11:0.016360462 12:0.015817618 
-4 1:0.0058701516 2:0.00020921772 3:0.64080501 4:0.18202699 5:0.058347977 6:0.030903107 7:0.022423996 8:0.016318343 9:0.013859703 10:0.012283816 11:0.011432496 12:0.011049792 
-4 1:0.31664751 2:0.10213694 3:0.2992585 4:0.2608881 5:0.16570924 6:0.068875496 7:0.019820844 8:0.025089941 9:0.050880825 10:0.058132955 11:0.037669792 12:0.013287856 
-3.2940308048987657 1:0.0071333439 2:0.00033484526 3:0.62082764 4:0.18206226 5:0.064023404 6:0.043436072 7:0.025433936 8:0.018378596 9:0.013389154 10:0.011362547 11:0.010484787 12:0.010099775 
-4 1:0.01919583 2:0.0020685762 3:0.64833424 4:0.11634642 5:0.068598756 6:0.0561378 7:0.037923348 8:0.0189401 9:0.016775541 10:0.012988864 11:0.011924659 12:0.011462436 
-4 1:0.0049317184 2:4.6458962e-05 3:0.45224765 4:0.179004 5:0.090138291 6:0.063105358 7:0.049039708 8:0.040350798 9:0.035009049 10:0.031577132 11:0.029531206 12:0.028576393 
-4 1:0.018052334 2:0.0013920971 3:0.6147161 4:0.17880361 5:0.07179344 6:0.037351591 7:0.026554479 8:0.018181655 9:0.014934206 10:0.013124205 11:0.012206243 12:0.011750736 
-1.665662786162694 1:2.8213233 2:1.8031872 3:0.21460569 4:0.12938861 5:0.05810725 6:0.057927784 7:0.10100948 8:0.11712264 9:0.08656681 10:0.057211372 11:0.070239004 12:0.10229572 
-4 1:0.10236625 2:0.0075562079 3:0.25970828 4:0.24387264 5:0.15652947 6:0.061869669 7:0.048091843 8:0.04076403 9:0.055671477 10:0.064671897 11:0.039644813 12:0.027648433 
-4 1:0.070277822 2:0.0052908074 3:0.33854655 4:0.11548421 5:0.16218677 6:0.1095464 7:0.039397799 8:0.05052338 9:0.069605529 10:0.03962471 11:0.023094008 12:0.048926559 
-4 1:1.5659472 2:0.19322813 3:0.079242323 4:0.10208743 5:0.11912984 6:0.1319759 7:0.13409261 8:0.12436731 9:0.10566658 10:0.083623801 11:0.064308596 12:0.052962137 
-4 1:0.00096530387 2:3.0958239e-06 3:0.54278642 4:0.15415721 5:0.079713159 6:0.056599501 7:0.039752812 8:0.031410449 9:0.026965232 10:0.023844378 11:0.022224917 12:0.021478573 
-4 1:0.0034943167 2:8.5522184e-05 3:0.65963462 4:0.19229944 5:0.050179598 6:0.024137672 7:0.018969698 8:0.013889361 9:0.011445562 10:0.010234069 11:0.0095402426 12:0.0092119921 
-4 1:0.44321971 2:0.12614568 3:0.28728325 4:0.13268067 5:0.13541547 6:0.10281958 7:0.07345646 8:0.062229557 9:0.062457281 10:0.040347998 11:0.063488734 12:0.037740533 
-4 1:0.14078682 2:0.0061160552 3:0.16310292 4:0.144797 5:0.16798461 6:0.15372856 7:0.11264866 8:0.058405371 9:0.026039188 10:0.028062304 11:0.056242095 12:0.084437721 
-4 1:0.0034497869 2:2.5398965e-05 3:0.47013195 4:0.15044711 5:0.094657298 6:0.065580517 7:0.050486619 8:0.041010055 9:0.035447298 10:0.031972876 11:0.029904688 12:0.028923973 
-4 1:0.0056654724 2:0.00018157545 3:0.65943521 4:0.13092451 5:0.075056094 6:0.035192653 7:0.026345396 8:0.019178655 9:0.015065609 10:0.013528099 11:0.012542275 12:0.012128987 
-4 1:0.012790399 2:0.00049075612 3:0.55295052 4:0.20254423 5:0.081179816 6:0.042151223 7:0.030298629 8:0.023007968 9:0.01918626 10:0.01701951 11:0.015721417 12:0.015185759 
-4 1:0.002020099 2:1.722481e-05 3:0.56152028 4:0.15548695 5:0.077736901 6:0.053311278 7:0.036064255 8:0.029043832 9:0.024229712 10:0.021742864 11:0.020276989 12:0.019612927 
-4 1:0.001683745 2:1.8733858e-05 3:0.69341476 4:0.11635886 5:0.062847297 6:0.035828041 7:0.022523852 8:0.017003925 9:0.014967374 10:0.013008233 11:0.01195765 12:0.01151763 
-4 1:0.48563816 2:0.12509133 3:0.22808213 4:0.24033226 5:0.12543398 6:0.056760421 7:0.057399873 8:0.071385103 9:0.050137799 10:0.047944538 11:0.063500295 12:0.056044795 
-4 1:0.12672267 2:0.024898762 3:0.43485275 4:0.11858902 5:0.052593257 6:0.05598591 7:0.10212756 8:0.085901114 9:0.034150024 10:0.019835707 11:0.029045692 12:0.063316498 
-4 1:0.00075694641 2:2.2483727e-06 3:0.60790861 4:0.14811016 5:0.078412345 6:0.043118277 7:0.028025818 8:0.023678349 9:0.019780548 10:0.017781015 11:0.016480258 12:0.015914589 
-4 1:0.00095107081 2:2.9224511e-06 3:0.5054391 4:0.1973031 5:0.080545424 6:0.055101066 7:0.03718234 8:0.030844166 9:0.026322944 10:0.023414114 11:0.021796744 12:0.02100736 
-4 1:0.011052978 2:0.00039468226 3:0.51841137 4:0.22997251 5:0.087559026 6:0.045570563 7:0.028242122 8:0.022466113 9:0.018859234 10:0.016952703 11:0.015862225 12:0.015341376 
-4 1:0.0027739723 2:4.0005817e-05 3:0.61760224 4:0.17471566 5:0.065101925 6:0.036331916 7:0.025561344 8:0.019783956 9:0.017068236 10:0.01521232 11:0.014201108 12:0.01373855 
-4 1:0.0086704013 2:0.0003397296 3:0.6071154 4:0.10820287 5:0.071790877 6:0.05851241 7:0.045875611 8:0.02749869 9:0.024040293 10:0.019929375 11:0.018399954 12:0.017754085 
-4 1:0.0034950794 2:3.944573e-05 3:0.51687822 4:0.12804573 5:0.09102362 6:0.060462558 7:0.046771693 8:0.038258261 9:0.032909228 10:0.029732721 11:0.027747478 12:0.026835414 
-1.9351154080793647 1:6.4112962 2:0.10024938 3:0.10053052 4:0.1012125 5:0.098602451 6:0.098435495 7:0.09989233 8:0.099772422 9:0.098578587 10:0.099289863 11:0.099724396 12:0.098934566 
-4 1:0.0043207405 2:5.7164892e-05 3:0.4882912 4:0.13356724 5:0.092834178 6:0.064696092 7:0.05053651 8:0.04137825 9:0.035690598 10:0.032273168 11:0.030135625 12:0.029147273 
-4 1:0.014051902 2:0.0006778369 3:0.56548347 4:0.17969246 5:0.079027094 6:0.045726233 7:0.033272203 8:0.024306675 9:0.020379334 10:0.018123733 11:0.016888508 12:0.016290747 
-4 1:0.010031707 2:0.00051228429 3:0.59558932 4:0.19385824 5:0.0720988 6:0.041034979 7:0.026519876 8:0.018045119 9:0.015214269 10:0.013066332 11:0.012257567 12:0.011732195 
-4 1:0.00086060743 2:2.1680568e-06 3:0.51922528 4:0.15585509 5:0.084848538 6:0.059378248 7:0.044012372 8:0.033808349 9:0.028821534 10:0.025877305 11:0.023923788 12:0.02310261 
-4 1:0.02042387 2:0.001984789 3:0.60941011 4:0.1402562 5:0.077610922 6:0.054480313 7:0.037172079 8:0.020724864 9:0.018372232 10:0.014694786 11:0.013570082 12:0.013060734 
-4 1:0.0010903695 2:3.7556108e-06 3:0.48816308 4:0.16209758 5:0.091896731 6:0.06087683 7:0.0463942 8:0.036840382 9:0.031833297 10:0.028559751 11:0.026480325 12:0.025587232 
-4 1:0.011218709 2:0.00023728811 3:0.39946751 4:0.18152555 5:0.11039573 6:0.069539051 7:0.054068171 8:0.044767464 9:0.038888278 10:0.035106424 11:0.032862441 12:0.031798571 
-4 1:0.011154004 2:0.00062533122 3:0.56755802 4:0.18273506 5:0.081889996 6:0.042574619 7:0.032296689 8:0.023737989 9:0.019451651 10:0.017332467 11:0.016115087 12:0.015536493 
-0.80758083489801347 1:5.1373759 2:1.8740764 3:0.061564478 4:0.086788988 5:0.11290013 6:0.1298028 7:0.13458277 8:0.12764739 9:0.11182377 10:0.092287451 11:0.07488965 12:0.064577636 
-4 1:0.017016778 2:0.0021443502 3:0.7571588 4:0.13505566 5:0.036064294 6:0.018762507 7:0.012478041 8:0.0099342691 9:0.0088824416 10:0.0075118799 11:0.0070523607 12:0.006740638 
-4 1:0.0054168307 2:8.7970999e-05 3:0.49953919 4:0.14625907 5:0.085029259 6:0.06079012 7:0.047338596 8:0.039038574 9:0.033870196 10:0.030541598 11:0.028573668 12:0.027645264 
-4 1:0.0037030781 2:2.5334294e-05 3:0.4128023 4:0.17446485 5:0.097546277 6:0.070661619 7:0.055485646 8:0.045813561 9:0.039834712 10:0.035826221 11:0.033527235 12:0.0324256 
-0.75100381074062394 1:0.011711218 2:0.0014086065 3:0.8234932 4:0.091065889 5:0.035018142 6:0.017560355 7:0.0087713664 8:0.0060346488 9:0.0050987365 10:0.0045454059 11:0.0041801868 12:0.0040316356 
-3.9673532179590461 1:0.26079223 2:0.10244309 3:0.4320221 4:0.17258635 5:0.061128678 6:0.061183364 7:0.085383877 8:0.038097579 9:0.027195872 10:0.044481365 11:0.052992114 12:0.02373942 
-4 1:0.0046063941 2:0.00013463886 3:0.70613492 4:0.15069473 5:0.048472074 6:0.027157702 7:0.017512745 8:0.012786867 9:0.010507649 10:0.0093028873 11:0.0086560621 12:0.0083593259 
-4 1:0.0030230279 2:3.0326598e-05 3:0.53116232 4:0.15795684 5:0.083681882 6:0.058073963 7:0.040193991 8:0.031803441 9:0.027169182 10:0.024287034 11:0.022666391 12:0.021915358 
