svm_type c_svc
kernel_type rbf
gamma 0.083333333333333329
nr_class 2
total_sv 1298
rho 1
label 1 -1
probA 2.4619364255464227
probB 2.5690955483526325
nr_sv 649 649
SV
4 1:0.44321971 2:0.12614568 3:0.28728325 4:0.13268067 5:0.13541547 6:0.10281958 7:0.07345646 8:0.062229557 9:0.062457281 10:0.040347998 11:0.063488734 12:0.037740533 
4 1:8.8965271e-05 2:2.7055278e-08 3:0.38415983 4:0.33112931 5:0.14204056 6:0.064952776 7:0.049062292 8:0.016749023 9:0.0067837555 10:0.0030992791 11:0.0012630969 12:0.00075191381 
4 1:0.0029290441 2:4.0884911e-05 3:0.58336828 4:0.17299742 5:0.078864042 6:0.045876489 7:0.030334533 8:0.022136928 9:0.018849124 10:0.016596057 11:0.015396229 12:0.014842404 
4 1:0.0001147227 2:4.5336472e-08 3:0.49387358 4:0.20121046 5:0.11414755 6:0.092276978 7:0.038800309 8:0.024971352 9:0.014125885 10:0.0091929098 11:0.0060301106 12:0.0051348213 
4 1:0.016878539 2:0.0017824099 3:0.71803828 4:0.15194326 5:0.058411166 6:0.025770118 7:0.013054279 8:0.0087519899 9:0.0067513262 10:0.0059944713 11:0.0056007916 12:0.0054151491 
4 1:0.011218709 2:0.00023728811 3:0.39946751 4:0.18152555 5:0.11039573 6:0.069539051 7:0.054068171 8:0.044767464 9:0.038888278 10:0.035106424 11:0.032862441 12:0.031798571 
4 1:12.284672 2:250.02039 3:0.44671541 4:0.114465 5:0.045774979 6:0.054256035 7:0.10428412 8:0.08759327 9:0.032945747 10:0.017853949 11:0.027915057 12:0.064522395 
4 1:47.568858 2:1292.1671 3:0.01424412 4:0.059837636 5:0.15880952 6:0.22242189 7:0.1944422 8:0.099510968 9:0.018123369 10:0.012497414 11:0.074496033 12:0.13801466 
4 1:13.072725 2:75.992379 3:0.23971389 4:0.13990944 5:0.076101766 6:0.17027858 7:0.11193368 8:0.053058259 9:0.076231731 10:0.052143853 11:0.04067414 12:0.037709291 
4 1:9.346416e-05 2:3.1750916e-08 3:0.53444052 4:0.19608539 5:0.12727424 6:0.055683297 7:0.041351661 8:0.019683492 9:0.01035122 10:0.0081619072 11:0.003802605 12:0.0030341285 
4 1:7.7867454 2:87.982099 3:0.42733658 4:0.16773093 5:0.068111546 6:0.061655146 7:0.084518726 8:0.037903272 9:0.0302246 10:0.043420072 11:0.052882433 12:0.024890822 
4 1:0.0034943167 2:8.5522184e-05 3:0.65963462 4:0.19229944 5:0.050179598 6:0.024137672 7:0.018969698 8:0.013889361 9:0.011445562 10:0.010234069 11:0.0095402426 12:0.0092119921 
4 1:35.11331 2:948.17166 3:0.22476692 4:0.18148112 5:0.14745816 6:0.12372328 7:0.082443397 8:0.07222067 9:0.064039415 10:0.047007069 11:0.035125052 12:0.019962388 
4 1:0.0042814048 2:5.3475782e-05 3:0.48565495 4:0.20028789 5:0.11805495 6:0.098122491 7:0.035512804 8:0.028559965 9:0.010320374 10:0.009013736 11:0.0072225616 12:0.0069073291 
4 1:0.0068715387 2:7.9965804e-05 3:0.38737357 4:0.17856407 5:0.1306217 6:0.069277853 7:0.053134794 8:0.043943965 9:0.038042368 10:0.034311812 11:0.032112577 12:0.031072266 
4 1:0.0014587835 2:4.7796621e-06 3:0.46169122 4:0.17695478 5:0.089514457 6:0.063883866 7:0.048683035 8:0.038920444 9:0.033485305 10:0.030143671 11:0.028152172 12:0.027218917 
4 1:0.0044299005 2:2.7797207e-05 3:0.39694814 4:0.16443509 5:0.10634034 6:0.076230226 7:0.05812012 8:0.048264072 9:0.041527684 10:0.037474584 11:0.035053643 12:0.033919804 
4 1:0.0036952196 2:0.00010423405 3:0.6891231 4:0.10808158 5:0.055318344 6:0.034809323 7:0.026250334 8:0.020960414 9:0.018223312 10:0.016400951 11:0.015305228 12:0.014791727 
4 1:0.0025316032 2:4.2888537e-05 3:0.63641975 4:0.17807942 5:0.068659698 6:0.035287078 7:0.021479665 8:0.014961584 9:0.012702917 10:0.011282581 11:0.010496026 12:0.010128159 
4 1:31.464398 2:69.029029 3:0.060647552 4:0.086133972 5:0.11225375 6:0.12926842 7:0.13424826 8:0.12760606 9:0.11214674 10:0.092961178 11:0.075845909 12:0.065697597 
4 1:0.00010766906 2:4.0548862e-08 3:0.4385577 4:0.2821458 5:0.099841065 6:0.073884938 7:0.044677459 8:0.023828808 9:0.014072529 10:0.0097829644 11:0.0067015753 12:0.0062069171 
4 1:0.00010785051 2:5.0443454e-08 3:0.5867756 4:0.18107438 5:0.087339646 6:0.066380577 7:0.026520686 8:0.027243793 9:0.012530732 10:0.0057286778 11:0.0036727785 12:0.0025902559 
4 1:0.00046926173 2:6.4921559e-07 3:0.48532372 4:0.19531763 5:0.1115461 6:0.063606114 7:0.04568584 8:0.025802525 9:0.022050887 10:0.01811286 11:0.016222755 12:0.015491901 
4 1:0.0084167004 2:5.2212688e-05 3:0.31424549 4:0.18014497 5:0.118997 6:0.08661795 7:0.06790804 8:0.056207239 9:0.048755447 10:0.044035974 11:0.04121929 12:0.039885689 
4 1:0.00036899169 2:2.7015209e-07 3:0.41334453 4:0.17205074 5:0.12568635 6:0.065674726 7:0.062180061 8:0.044094623 9:0.035371028 10:0.028934253 11:0.026207612 12:0.025189499 
4 1:0.00011046999 2:4.1115739e-08 3:0.43446423 4:0.29164887 5:0.13800632 6:0.079468215 7:0.021394042 8:0.016784947 9:0.012489385 10:0.0036600177 11:0.0016577727 12:0.00042445711 
4 1:0.00012139213 2:3.902221e-08 3:0.43638862 4:0.21483568 5:0.14905559 6:0.06878099 7:0.050441297 8:0.024146368 9:0.017783064 10:0.013902053 11:0.012469411 12:0.011630463 
4 1:0.016324093 2:0.001568728 3:0.59860235 4:0.18242192 5:0.079253124 6:0.042425934 7:0.025772753 8:0.018496782 9:0.014836061 10:0.013231297 11:0.012386369 12:0.011977918 
4 1:0.0099503313 2:0.00051821397 3:0.59661075 4:0.19052102 5:0.072825609 6:0.043198431 7:0.026758638 8:0.018012081 9:0.015086318 10:0.012865474 11:0.012034634 12:0.011514777 
4 1:0.00011559532 2:4.9002967e-08 3:0.48830952 4:0.2691044 5:0.082002262 6:0.083442045 7:0.031573771 8:0.020266333 9:0.0086613697 10:0.0082152444 11:0.0045114594 12:0.0037402091 
4 1:14.392049 2:53.686907 3:0.12975861 4:0.14246143 5:0.12321265 6:0.11858241 7:0.072884167 8:0.080582276 9:0.069664197 10:0.06312252 11:0.10001081 12:0.093368408 
4 1:0.00059245056 2:5.0504234e-07 3:0.39445709 4:0.19563145 5:0.10893039 6:0.076338094 7:0.057700637 8:0.043350257 9:0.036562014 10:0.031331236 11:0.027736759 12:0.026638667 
4 1:8.2122604 2:57.104375 3:0.32726062 4:0.18811997 5:0.11924892 6:0.094850413 7:0.080432928 8:0.059522077 9:0.038335427 10:0.027617667 11:0.028908594 12:0.033941746 
4 1:9.9071036e-05 2:3.139904e-08 3:0.48732102 4:0.22097184 5:0.12752468 6:0.086104842 7:0.036586158 8:0.019693552 9:0.0087996729 10:0.0054482264 11:0.0040466651 12:0.0033482868 
4 1:0.00024233601 2:3.6578844e-07 3:0.63761559 4:0.16061034 5:0.1043161 6:0.05140387 7:0.01643497 8:0.01245203 9:0.0066530407 10:0.0039081064 11:0.0035597578 12:0.0029087111 
4 1:9.0983342e-05 2:3.9520266e-08 3:0.52411542 4:0.20367434 5:0.1269354 6:0.082067075 7:0.028318925 8:0.019385867 9:0.0091732629 10:0.0038735247 11:0.0018010445 12:0.00063490065 
4 1:13.416676 2:100.46685 3:0.22193389 4:0.19438127 5:0.1681798 6:0.13698618 7:0.10555381 8:0.07595121 9:0.04977332 10:0.028319318 11:0.013162523 12:0.0055197676 
4 1:0.0001105804 2:4.7475176e-08 3:0.51885429 4:0.23352373 5:0.12182849 6:0.068984441 7:0.028010359 8:0.013307336 9:0.0093156941 10:0.0044244807 11:0.0012348945 12:0.00050800021 
4 1:0.00048173801 2:5.9851195e-07 3:0.45084287 4:0.20275968 5:0.13994621 6:0.080676304 7:0.035994119 8:0.024611417 9:0.019298597 10:0.0162262 11:0.014798761 12:0.014147854 
4 1:0.00015235309 2:6.3700847e-08 3:0.46328563 4:0.18159219 5:0.121496 6:0.095238505 7:0.047288494 8:0.029073461 9:0.021225133 10:0.01529868 11:0.01294407 12:0.011975223 
4 1:0.00011185915 2:3.3772375e-08 3:0.41426179 4:0.28813803 5:0.11124334 6:0.081329084 7:0.037811141 8:0.026376791 9:0.014794468 10:0.011151941 11:0.0075242266 12:0.0070223246 
4 1:0.0027974205 2:3.3741946e-05 3:0.54451879 4:0.22405136 5:0.086192016 6:0.060940649 7:0.036350861 8:0.012565934 9:0.010424354 10:0.0086520008 11:0.0081277505 12:0.0077878063 
4 1:22.129131 2:309.9687 3:0.23852374 4:0.25484814 5:0.12489778 6:0.049439626 7:0.052321057 8:0.070795108 9:0.045375889 10:0.042709705 11:0.061691662 12:0.056283776 
4 1:0.0045043704 2:1.628782e-05 3:0.32424578 4:0.17557324 5:0.11704808 6:0.086072789 7:0.067302751 8:0.055695954 9:0.048242115 10:0.043604727 11:0.040791388 12:0.03946255 
4 1:0.00081643199 2:6.2487692e-07 3:0.33650723 4:0.18422079 5:0.11288376 6:0.085277489 7:0.067925009 8:0.052144478 9:0.044895465 10:0.040353473 11:0.037649376 12:0.03633723 
4 1:0.00064573186 2:4.9784269e-07 3:0.36230352 4:0.18223363 5:0.12126519 6:0.081546909 7:0.059935055 8:0.047450837 9:0.041050146 10:0.036265305 11:0.033745366 12:0.032585953 
4 1:0.0015081876 2:9.7921995e-06 3:0.62058232 4:0.13790363 5:0.058614489 6:0.062051975 7:0.040045729 8:0.021495062 9:0.016874425 10:0.014893407 11:0.013696832 12:0.01318798 
4 1:0.00022633718 2:1.0724327e-07 3:0.41380485 4:0.19687948 5:0.1348919 6:0.069340386 7:0.054471979 8:0.032702088 9:0.027740016 10:0.025429421 11:0.022291082 12:0.021387639 
4 1:0.00046773013 2:2.5696364e-07 3:0.35809541 4:0.20499367 5:0.11890491 6:0.077496426 7:0.058169653 8:0.046132395 9:0.03823926 10:0.034148784 11:0.031743509 12:0.030560387 
4 1:0.0015904259 2:1.9201883e-06 3:0.31801592 4:0.18191406 5:0.11786732 6:0.08628551 7:0.067567981 8:0.055350114 9:0.047995687 10:0.043357782 11:0.040509212 12:0.039185651 
4 1:0.00010312026 2:4.0852665e-08 3:0.52343089 4:0.24870251 5:0.10706102 6:0.062993338 7:0.023086803 8:0.020652343 9:0.0067088084 10:0.0048177664 11:0.0016632324 12:0.00083894222 
4 1:0.012790399 2:0.00049075612 3:0.55295052 4:0.20254423 5:0.081179816 6:0.042151223 7:0.030298629 8:0.023007968 9:0.01918626 10:0.01701951 11:0.015721417 12:0.015185759 
4 1:15.365188 2:40.266315 3:0.19837563 4:0.126269 5:0.063080018 6:0.06236586 7:0.10089147 8:0.11574941 9:0.088711721 10:0.062418338 11:0.073988594 12:0.10264563 
4 1:0.0024439775 2:4.8665745e-05 3:0.79897177 4:0.094611384 5:0.052273232 6:0.02026322 7:0.0097859923 8:0.0063607813 9:0.0051220532 10:0.0044357109 11:0.0040653684 12:0.0039162294 
4 1:0.99184168 2:0.66166044 3:0.24280568 4:0.25965873 5:0.12540318 6:0.047387123 7:0.050481021 8:0.06987675 9:0.043335635 10:0.040681634 11:0.060564837 12:0.056633078 
4 1:0.0012604506 2:1.229839e-06 3:0.3111525 4:0.19090312 5:0.12223441 6:0.086940595 7:0.066758271 8:0.054007173 9:0.046855389 10:0.042058533 11:0.039233447 12:0.037970097 
4 1:0.071977833 2:0.018288133 3:0.26795898 4:0.51493784 5:0.12353275 6:0.050051195 7:0.010194673 8:0.017857076 9:0.005005534 10:0.0036422467 11:0.0033985787 12:0.0032592028 
4 1:0.00010064867 2:6.6206179e-08 3:0.51813934 4:0.25730774 5:0.091360375 6:0.078256566 7:0.032731887 8:0.010033006 9:0.00797082 10:0.0021924469 11:0.0015995936 12:0.00038597337 
4 1:0.00050480578 2:9.5097807e-07 3:0.54600792 4:0.17935514 5:0.09311014 6:0.048475074 7:0.038865851 8:0.024182018 9:0.020598316 10:0.017405385 11:0.015966498 12:0.015258137 
4 1:0.0023152788 2:2.0425814e-05 3:0.56218629 4:0.28379306 5:0.093527524 6:0.038266269 7:0.012791837 8:0.0058707661 9:0.0019625844 10:0.00085931385 11:0.00041870641 12:0.00031044747 
4 1:0.0058910403 2:2.5484762e-05 3:0.31336555 4:0.18049468 5:0.11939051 6:0.086487232 7:0.068042709 8:0.056204414 9:0.048802431 10:0.044081962 11:0.041237513 12:0.039908701 
4 1:0.0046904451 2:5.1804202e-05 3:0.44700113 4:0.17039398 5:0.095836026 6:0.064927973 7:0.05076326 8:0.0415958 9:0.036012276 10:0.032396945 11:0.030298563 12:0.029316695 
4 1:0.0022467547 2:4.2917976e-06 3:0.33228878 4:0.17505735 5:0.11740594 6:0.085367377 7:0.065735735 8:0.054560282 9:0.047120407 10:0.042441726 11:0.039710774 12:0.038402575 
4 1:0.0012363591 2:4.0713838e-06 3:0.45327711 4:0.27015893 5:0.079731843 6:0.047613006 7:0.036137359 8:0.028390177 9:0.024070802 10:0.021103839 11:0.019615704 12:0.018958416 
4 1:0.00012540866 2:8.8580528e-08 3:0.6063245 4:0.1896355 5:0.11379348 6:0.048510518 7:0.018317768 8:0.011212894 9:0.0079391871 10:0.0030119589 11:0.00087019831 12:0.00036261956 
4 1:29.636935 2:382.46803 3:0.19131593 4:0.15257981 5:0.18748415 6:0.15409316 7:0.094636399 8:0.086224624 9:0.067651303 10:0.029447869 11:0.018005918 12:0.017660045 
4 1:0.0013026598 2:8.3277292e-06 3:0.65768054 4:0.15036518 5:0.047120688 6:0.071076039 7:0.028298592 8:0.014681491 9:0.010622446 10:0.0077767841 11:0.0062598756 12:0.005828484 
4 1:0.00056984356 2:3.4514231e-06 3:0.75501958 4:0.15117284 5:0.03819556 6:0.028169177 7:0.012300513 8:0.0058784649 9:0.0036468496 10:0.0022496565 11:0.0017926632 12:0.0014974934 
4 1:9.5422249e-05 2:3.9992442e-08 3:0.47844646 4:0.29243507 5:0.077729904 6:0.077316515 7:0.039805461 8:0.019609253 9:0.0095243658 10:0.0035648864 11:0.00095611989 12:0.00060188805 
4 1:0.0012583386 2:1.0782325e-05 3:0.74076137 4:0.12576563 5:0.040155478 6:0.033148867 7:0.024260741 8:0.010044944 9:0.0078655825 10:0.0064164636 11:0.0057772923 12:0.005529719 
4 1:178.5203 2:32978.567 3:0.33085861 4:0.12117525 5:0.11714801 6:0.17190929 7:0.045485655 8:0.041038569 9:0.066935882 10:0.041286294 11:0.03659638 12:0.025314221 
4 1:75.672835 2:3654.3309 3:0.15506623 4:0.15432245 5:0.14823107 6:0.10453804 7:0.069241742 8:0.06839682 9:0.072071729 10:0.076706206 11:0.073822251 12:0.075304166 
4 1:3.5401659 2:10.491509 3:0.32546781 4:0.18825926 5:0.11973514 6:0.09508294 7:0.080398992 8:0.059579903 9:0.038598843 10:0.027953353 11:0.029129734 12:0.034028666 
4 1:35.424284 2:86.270576 3:0.060171964 4:0.085684569 5:0.11178549 6:0.1288554 7:0.13397693 8:0.12754452 9:0.11234602 10:0.093417478 11:0.076509237 12:0.066477957 
4 1:0.010031707 2:0.00051228429 3:0.59558932 4:0.19385824 5:0.0720988 6:0.041034979 7:0.026519876 8:0.018045119 9:0.015214269 10:0.013066332 11:0.012257567 12:0.011732195 
4 1:0.00019954709 2:9.5821613e-08 3:0.46158726 4:0.19622093 5:0.11141367 6:0.072571118 7:0.05404541 8:0.03054613 9:0.022304581 10:0.018470674 11:0.016591077 12:0.015466363 
4 1:59.000187 2:2646.329 3:0.17969924 4:0.17857489 5:0.14982997 6:0.084459722 7:0.042092117 8:0.046995285 9:0.04170598 10:0.042548178 11:0.074849976 12:0.15243264 
4 1:0.02115851 2:0.0050441285 3:0.85175303 4:0.11121568 5:0.023642522 6:0.0073514216 7:0.0031158618 8:0.0015019397 9:0.00051370591 10:0.00032905616 11:0.00028883591 12:0.00027437442 
4 1:0.00071587999 2:3.0816048e-06 3:0.64452648 4:0.20261767 5:0.073683586 6:0.033501937 7:0.025180946 8:0.0078272139 9:0.0060052735 10:0.0032937211 11:0.0020785407 12:0.0012255226 
4 1:0.021851844 2:0.0022257859 3:0.6220623 4:0.1583559 5:0.10679239 6:0.063244416 7:0.027786451 8:0.0072160124 9:0.00470817 10:0.0039602086 11:0.0029491231 12:0.0027867636 
4 1:0.0016874846 2:3.9250447e-06 3:0.39815631 4:0.17443412 5:0.11126375 6:0.073865967 7:0.05558755 8:0.046003259 9:0.039064837 10:0.035219925 11:0.032977509 12:0.031844495 
4 1:0.00078210888 2:3.3180701e-06 3:0.64982112 4:0.12690759 5:0.072718447 6:0.052480547 7:0.03062554 8:0.018080446 9:0.014717913 10:0.012245292 11:0.011136175 12:0.010732191 
4 1:0.00013467498 2:6.2434783e-08 3:0.46512002 4:0.28270574 5:0.1341116 6:0.058175523 7:0.03383195 8:0.013709658 9:0.0078741579 10:0.0028748836 11:0.0011511542 12:0.00043049952 
4 1:0.36684569 2:0.23721252 3:0.37608629 4:0.25096433 5:0.14710338 6:0.079580754 7:0.027557409 8:0.0081500578 9:0.0069625291 10:0.018509503 11:0.03574926 12:0.046884797 
4 1:33.365511 2:1038.8733 3:0.32350943 4:0.22699939 5:0.13070642 6:0.086040487 7:0.042168513 8:0.036573406 9:0.023562573 10:0.033248889 11:0.040783058 12:0.053515353 
4 1:5.1373759 2:1.8740764 3:0.061564478 4:0.086788988 5:0.11290013 6:0.1298028 7:0.13458277 8:0.12764739 9:0.11182377 10:0.092287451 11:0.07488965 12:0.064577636 
4 1:9.3698048e-05 2:2.2303655e-08 3:0.36721937 4:0.30443522 5:0.17898534 6:0.08721598 7:0.033747235 8:0.015010103 9:0.0071655713 10:0.0036172949 11:0.0017597079 12:0.00082491061 
4 1:0.00080054547 2:1.6881559e-06 3:0.50040882 4:0.17346049 5:0.083387942 6:0.059737803 7:0.043737002 8:0.034295498 9:0.029559558 10:0.026216078 11:0.024419911 12:0.023602869 
4 1:0.007809015 2:6.2910055e-05 3:0.34843307 4:0.19752683 5:0.12743901 6:0.077712308 7:0.059299404 8:0.047281687 9:0.039712784 10:0.035625763 11:0.03324932 12:0.032123419 
4 1:0.00075694641 2:2.2483727e-06 3:0.60790861 4:0.14811016 5:0.078412345 6:0.043118277 7:0.028025818 8:0.023678349 9:0.019780548 10:0.017781015 11:0.016480258 12:0.015914589 
4 1:0.0060008643 2:0.00026800533 3:0.69205885 4:0.19447758 5:0.068597158 6:0.027928737 7:0.0077572519 8:0.0026642226 9:0.0019790554 10:0.0016366039 11:0.0014532959 12:0.0013788301 
4 1:8.8543828e-05 2:3.5736652e-08 3:0.50982668 4:0.21521042 5:0.14102024 6:0.070873136 7:0.037806294 8:0.013709497 9:0.0061733278 10:0.0032020662 11:0.0014559945 12:0.00070240472 
4 1:0.0015197646 2:1.994094e-06 3:0.3340877 4:0.17592764 5:0.11850667 6:0.083785603 7:0.066038843 8:0.054151117 9:0.046699645 10:0.041953025 11:0.039123307 12:0.037845717 
4 1:0.000287777 2:1.6166908e-07 3:0.42889153 4:0.18210734 5:0.10846294 6:0.067970306 7:0.053556313 8:0.039525286 9:0.03374219 10:0.030063242 11:0.027704966 12:0.026638072 
4 1:5.8302312 2:17.157667 3:0.20535639 4:0.15652977 5:0.19788277 6:0.14653337 7:0.083344308 8:0.082492178 9:0.069529326 10:0.027541969 11:0.014700063 12:0.015312188 
4 1:0.0015295455 2:3.3832563e-06 3:0.38050965 4:0.19867479 5:0.099115814 6:0.073801455 7:0.056817281 8:0.047009687 9:0.039986866 10:0.036212268 11:0.033691225 12:0.03256192 
4 1:0.0040722759 2:2.0765548e-05 3:0.37886559 4:0.17000799 5:0.10703127 6:0.077360271 7:0.060687424 8:0.050090428 9:0.043258567 10:0.03905638 11:0.036535106 12:0.035349444 
4 1:0.0014553914 2:1.7446375e-06 3:0.32575185 4:0.17581985 5:0.12145017 6:0.085675645 7:0.067187025 8:0.054620475 9:0.047077856 10:0.042438906 11:0.03968746 12:0.038381958 
4 1:0.0010575697 2:8.6133547e-06 3:0.64394141 4:0.17730541 5:0.080729746 6:0.05077521 7:0.032687181 8:0.010181487 9:0.0024814782 10:0.0011724571 11:0.00040763033 12:0.00030224173 
4 1:23.653083 2:521.66838 3:0.23646032 4:0.26318072 5:0.15074131 6:0.078389369 7:0.080583462 8:0.067445137 9:0.044930287 10:0.029712238 11:0.024173885 12:0.024205851 
4 1:0.0037542567 2:3.4470277e-05 3:0.48414007 4:0.14702909 5:0.088465556 6:0.063228273 7:0.049790062 8:0.040819065 9:0.035123424 10:0.03166712 11:0.029638417 12:0.028673368 
4 1:0.11861796 2:0.0070646746 3:0.21177705 4:0.1931803 5:0.16229133 6:0.13581484 7:0.10423054 8:0.077794407 9:0.05229226 10:0.032709382 11:0.01806684 12:0.01130793 
4 1:0.0051976324 2:2.0046509e-05 3:0.31516361 4:0.17995122 5:0.11889695 6:0.086339916 7:0.067953323 8:0.056086683 9:0.048703333 10:0.043969684 11:0.041140877 12:0.039814946 
4 1:0.00013504542 2:8.0205574e-08 3:0.53587207 4:0.25047324 5:0.10866362 6:0.054787832 7:0.025225572 8:0.01540057 9:0.0054674465 10:0.0026986318 11:0.00090894237 12:0.00048979402 
4 1:0.00015767197 2:6.614289e-08 3:0.46557675 4:0.21103588 5:0.10336315 6:0.064618204 7:0.050255424 8:0.032375235 9:0.023766457 10:0.018159255 11:0.015490368 12:0.014638551 
4 1:6.1903262 2:11.792101 3:0.14409052 4:0.14001766 5:0.17168287 6:0.16454973 7:0.11814383 8:0.058089874 9:0.020304332 10:0.024764649 11:0.060270341 12:0.093077379 
4 1:0.0009626718 2:1.0074708e-06 3:0.36225047 4:0.18971913 5:0.10714418 6:0.081061268 7:0.06092896 8:0.049358433 9:0.041813411 10:0.037426179 11:0.034897254 12:0.033723011 
4 1:9.0166941 2:135.41294 3:0.44758465 4:0.1143272 5:0.045530017 6:0.054161201 7:0.10435773 8:0.087606729 9:0.03277364 10:0.017724605 11:0.027757436 12:0.064501514 
4 1:0.018052334 2:0.0013920971 3:0.6147161 4:0.17880361 5:0.07179344 6:0.037351591 7:0.026554479 8:0.018181655 9:0.014934206 10:0.013124205 11:0.012206243 12:0.011750736 
4 1:0.0010011076 2:4.1855001e-06 3:0.52095014 4:0.24690084 5:0.069584921 6:0.050852162 7:0.026009336 8:0.021556914 9:0.018199759 10:0.016096381 11:0.014845817 12:0.014293749 
4 1:0.00024912044 2:8.3401556e-08 3:0.34525515 4:0.22558904 5:0.15300133 6:0.07416397 7:0.057655043 8:0.040623588 9:0.030542486 10:0.026366393 11:0.023277235 12:0.022419697 
4 1:0.0016692608 2:4.8607667e-06 3:0.43210057 4:0.16638036 5:0.10772047 6:0.069315791 7:0.051342001 8:0.042328039 9:0.036431652 10:0.032727359 11:0.030601008 12:0.029581812 
4 1:0.00017155736 2:6.1217312e-08 3:0.43416555 4:0.18274215 5:0.13874626 6:0.076982713 7:0.052517256 8:0.031122301 9:0.025179676 10:0.020768637 11:0.018851207 12:0.018030013 
4 1:0.0013008624 2:6.4961993e-06 3:0.53612027 4:0.12580716 5:0.11707715 6:0.065151958 7:0.048071436 8:0.028392951 9:0.022752303 10:0.01997147 11:0.018234688 12:0.017549299 
4 1:0.039506322 2:0.0051073277 3:0.52621508 4:0.19750114 5:0.11148019 6:0.065621936 7:0.026948105 8:0.019191137 9:0.015069663 10:0.013305706 11:0.012264634 12:0.011815922 
4 1:0.0010903695 2:3.7556108e-06 3:0.48816308 4:0.16209758 5:0.091896731 6:0.06087683 7:0.0463942 8:0.036840382 9:0.031833297 10:0.028559751 11:0.026480325 12:0.025587232 
4 1:0.00033783354 2:6.1844304e-07 3:0.64048308 4:0.17430683 5:0.094248434 6:0.03028858 7:0.020479681 8:0.012796882 9:0.0094345628 10:0.0064004273 11:0.0057990185 12:0.0054845404 
4 1:0.00025597088 2:7.1245003e-08 3:0.34559587 4:0.21174023 5:0.1196731 6:0.080834653 7:0.062678227 8:0.044785203 9:0.039324376 10:0.033192728 11:0.030899993 12:0.029797977 
4 1:3.8550899 2:6.5171355 3:0.24832188 4:0.14136192 5:0.078697975 6:0.16053267 7:0.10653346 8:0.056192169 9:0.071192711 10:0.051997455 11:0.044045814 12:0.038854643 
4 1:15.131874 2:141.1338 3:0.24321769 4:0.23655361 5:0.098580629 6:0.076471913 7:0.11650164 8:0.069642897 9:0.043749347 10:0.039724172 11:0.031256883 12:0.041853745 
4 1:0.0044736153 2:8.6483082e-05 3:0.51602652 4:0.15496911 5:0.1157079 6:0.0534794 7:0.037987571 8:0.030194348 9:0.025521084 10:0.022914548 11:0.021432885 12:0.02073572 
4 1:0.0058701516 2:0.00020921772 3:0.64080501 4:0.18202699 5:0.058347977 6:0.030903107 7:0.022423996 8:0.016318343 9:0.013859703 10:0.012283816 11:0.011432496 12:0.011049792 
4 1:9.4263557e-05 2:2.8355611e-08 3:0.43540969 4:0.23574622 5:0.18029836 6:0.085817149 7:0.018822074 8:0.022149626 9:0.015537863 10:0.0030531189 11:0.0025170235 12:0.00064263234 
4 1:0.00024179497 2:1.1530252e-07 3:0.4265928 4:0.20959082 5:0.1188876 6:0.076593676 7:0.051714065 8:0.030101121 9:0.025273161 10:0.021706137 11:0.019829833 12:0.018777984 
4 1:0.0015234917 2:2.9961891e-06 3:0.38359102 4:0.19360968 5:0.10142862 6:0.074234797 7:0.05651514 8:0.046419194 9:0.040190418 10:0.036067126 11:0.03374033 12:0.032584595 
4 1:0.00011187896 2:4.3843672e-08 3:0.48946835 4:0.22954659 5:0.14338159 6:0.063928436 7:0.045397382 8:0.014678969 9:0.0085528651 10:0.0022326188 11:0.0022422706 12:0.00053477704 
4 1:0.0010409525 2:4.8452932e-06 3:0.49836632 4:0.20016988 5:0.097091943 6:0.050235853 7:0.045227545 8:0.027594622 9:0.022966082 10:0.020376571 11:0.01887073 12:0.018194743 
4 1:1.1186077 2:2.0961687 3:0.44837601 4:0.11446513 5:0.045303269 6:0.054122733 7:0.10437376 8:0.087549522 9:0.032573282 10:0.017567619 11:0.02758048 12:0.064414355 
4 1:0.064519889 2:0.01601249 3:0.55864468 4:0.21031249 5:0.093448501 6:0.06519512 7:0.022522912 8:0.014875968 9:0.011308047 10:0.0085852396 11:0.007530308 12:0.007218932 
4 1:0.0012177663 2:8.9027391e-06 3:0.61065024 4:0.13701062 5:0.070775251 6:0.051059374 7:0.033478875 8:0.025421394 9:0.020952412 10:0.017789962 11:0.016389211 12:0.015693429 
4 1:0.00013614772 2:6.2263243e-08 3:0.52546881 4:0.21650716 5:0.11570474 6:0.056612561 7:0.035722732 8:0.022939853 9:0.011260857 10:0.0059440399 11:0.0053199886 12:0.0042890546 
4 1:0.0074169536 2:4.0401433e-05 3:0.31508132 4:0.17803656 5:0.11865196 6:0.086587924 7:0.068180965 8:0.056559473 9:0.049014546 10:0.044280867 11:0.041494397 12:0.040112914 
4 1:9.1853105e-05 2:2.5234848e-08 3:0.43154592 4:0.27816079 5:0.12104544 6:0.090852874 7:0.039723497 8:0.021724693 9:0.010391797 10:0.0039371178 11:0.0017477116 12:0.00084203255 
4 1:0.00038544892 2:8.7308505e-07 3:0.65352086 4:0.17108658 5:0.088126507 6:0.040583506 7:0.022389411 8:0.012479287 9:0.0048274369 10:0.0029753379 11:0.002083638 12:0.001837606 
4 1:8.7457166e-05 2:3.8106942e-08 3:0.55300643 4:0.17284208 5:0.14931984 6:0.058446555 7:0.027573999 8:0.021163421 9:0.013602256 10:0.0024280707 11:0.0010716134 12:0.00051983555 
4 1:0.00079042123 2:2.7139854e-06 3:0.56870483 4:0.18484802 5:0.094700713 6:0.039041493 7:0.028577707 8:0.022231816 9:0.017731751 10:0.015390853 11:0.01429433 12:0.01379161 
4 1:0.00010123714 2:4.6695175e-08 3:0.52944904 4:0.26150878 5:0.089360798 6:0.050086592 7:0.029358098 8:0.021816371 9:0.011386016 10:0.0043366981 11:0.0016264776 12:0.00099343127 
4 1:0.0019432969 2:2.8393171e-06 3:0.31645373 4:0.17825362 5:0.12070422 6:0.087215398 7:0.068209899 8:0.055748495 9:0.048155443 10:0.043403698 11:0.040624102 12:0.039278548 
4 1:0.48563816 2:0.12509133 3:0.22808213 4:0.24033226 5:0.12543398 6:0.056760421 7:0.057399873 8:0.071385103 9:0.050137799 10:0.047944538 11:0.063500295 12:0.056044795 
4 1:0.0015049766 2:2.0737309e-06 3:0.3385289 4:0.18393087 5:0.1182805 6:0.082217788 7:0.0643308 8:0.051645896 9:0.044830384 10:0.04033254 11:0.037670118 12:0.036422247 
4 1:0.0028769554 2:6.1560789e-06 3:0.3123094 4:0.1851799 5:0.11841186 6:0.085836471 7:0.067785581 8:0.055885749 9:0.048462529 10:0.043702355 11:0.040904102 12:0.039555754 
4 1:0.01134895 2:0.00022462579 3:0.42102895 4:0.17484439 5:0.12340663 6:0.071860423 7:0.049312686 8:0.039525394 9:0.033384312 10:0.030134429 11:0.028048207 12:0.02710704 
4 1:0.00015580015 2:1.2590241e-07 3:0.570108 4:0.24558204 5:0.094352938 6:0.044155638 7:0.025463181 8:0.0090899053 9:0.0050529286 10:0.0034184121 11:0.001807747 12:0.00093821371 
4 1:0.002020099 2:1.722481e-05 3:0.56152028 4:0.15548695 5:0.077736901 6:0.053311278 7:0.036064255 8:0.029043832 9:0.024229712 10:0.021742864 11:0.020276989 12:0.019612927 
4 1:0.001447791 2:5.7338109e-06 3:0.46674135 4:0.16838561 5:0.09160117 6:0.065088753 7:0.049049882 8:0.03941627 9:0.033306408 10:0.030042758 11:0.027968944 12:0.027052243 
4 1:0.0018383322 2:7.3471872e-06 3:0.43412961 4:0.19079449 5:0.097053893 6:0.068093133 7:0.047724223 8:0.039550567 9:0.03424779 10:0.030702824 11:0.028642387 12:0.027685321 
4 1:8.8407119e-05 2:2.8981987e-08 3:0.42249888 4:0.31746816 5:0.11972929 6:0.059852274 7:0.042553663 8:0.023441473 9:0.0077383025 10:0.0040400144 11:0.0016813873 12:0.00094975579 
4 1:35.634324 2:1440.6362 3:0.34544891 4:0.10481907 5:0.10549391 6:0.20429657 7:0.059419589 8:0.031996979 9:0.073153061 10:0.029108997 11:0.025979278 12:0.018580813 
4 1:0.00099714989 2:5.4941713e-06 3:0.66630527 4:0.14661555 5:0.074064246 6:0.03452399 7:0.019523387 8:0.015521049 9:0.012265861 10:0.01098201 11:0.010039963 12:0.0096769336 
4 1:22.623936 2:107.97554 3:0.016998241 4:0.036194142 5:0.06836805 6:0.10658108 7:0.13917522 8:0.15585761 9:0.15166228 10:0.13062433 11:0.10422548 12:0.086179921 
4 1:3.5015398 2:20.152797 3:0.44537754 4:0.11482651 5:0.046159545 6:0.054440569 7:0.10413093 8:0.08752513 9:0.033193125 10:0.018030139 11:0.028137751 12:0.064508112 
4 1:0.00070184837 2:4.1314119e-06 3:0.69210874 4:0.1509118 5:0.05932187 6:0.032421907 7:0.019629962 8:0.012665736 9:0.01020721 10:0.0082477973 11:0.0072528688 12:0.0068780523 
4 1:0.00017081354 2:1.1774286e-07 3:0.55857462 4:0.23911172 5:0.084517605 6:0.040408223 7:0.03034953 8:0.01773197 9:0.012123636 10:0.0071315776 11:0.0053021674 12:0.0045244771 
4 1:0.0046063941 2:0.00013463886 3:0.70613492 4:0.15069473 5:0.048472074 6:0.027157702 7:0.017512745 8:0.012786867 9:0.010507649 10:0.0093028873 11:0.0086560621 12:0.0083593259 
4 1:0.0017329738 2:2.4032589e-06 3:0.32388148 4:0.17698715 5:0.12151945 6:0.086130573 7:0.066637992 8:0.054856471 9:0.047231613 10:0.042561701 11:0.039795632 12:0.038484417 
4 1:0.0030815826 2:7.0805826e-06 3:0.31480645 4:0.18074915 5:0.11949427 6:0.087107297 7:0.067229358 8:0.055873175 9:0.048598078 10:0.043696106 11:0.040912274 12:0.039565466 
4 1:9.6706774e-05 2:4.379062e-08 3:0.478589 4:0.29187185 5:0.090844012 6:0.072849226 7:0.034300172 8:0.017539583 9:0.0077716658 10:0.0040255758 11:0.0013074223 12:0.00083433314 
4 1:0.45119387 2:0.028292662 3:0.12827384 4:0.09864152 5:0.10556114 6:0.12234272 7:0.13516693 8:0.093494874 9:0.066499317 10:0.041012458 11:0.065326465 12:0.13931699 
4 1:0.0011174385 2:5.4365896e-06 3:0.53329647 4:0.16799214 5:0.090788854 6:0.049928443 7:0.041174219 8:0.028696372 9:0.024805665 10:0.022119343 11:0.020476617 12:0.019741066 
4 1:0.0001205926 2:9.3319083e-08 3:0.57129179 4:0.23239618 5:0.077736723 6:0.063333637 7:0.025564346 8:0.018226348 9:0.0064194886 10:0.0034405222 11:0.0011665583 12:0.00042122908 
4 1:47.414792 2:1032.2006 3:0.19534877 4:0.15011102 5:0.18815344 6:0.1530134 7:0.09226187 8:0.085864143 9:0.0682094 10:0.029025277 11:0.018682517 12:0.018660357 
4 1:22.652751 2:38.728519 3:0.077167705 4:0.098816905 5:0.11683716 6:0.13194522 7:0.13472733 8:0.12527721 9:0.10691777 10:0.085079098 11:0.065925391 12:0.054675682 
4 1:0.0004119771 2:4.4984738e-07 3:0.43575041 4:0.19836343 5:0.11630271 6:0.076237959 7:0.043245758 8:0.034705418 9:0.027428406 10:0.023720116 11:0.022034554 12:0.021163182 
4 1:2.97704 2:6.0645517 3:0.22452101 4:0.18233396 5:0.15509643 6:0.13263374 7:0.089556903 8:0.071463126 9:0.058091562 10:0.040427311 11:0.028473836 12:0.016214363 
4 1:6.4112962 2:0.10024938 3:0.10053052 4:0.1012125 5:0.098602451 6:0.098435495 7:0.09989233 8:0.099772422 9:0.098578587 10:0.099289863 11:0.099724396 12:0.098934566 
4 1:0.0001189368 2:6.8104211e-08 3:0.52922888 4:0.22100183 5:0.11565234 6:0.064941825 7:0.037369598 8:0.017842765 9:0.010903082 10:0.0019240842 11:0.00082349052 12:0.00029588573 
4 1:0.00048462908 2:1.4994412e-06 3:0.62419127 4:0.14532479 5:0.10297948 6:0.04357016 7:0.024961275 8:0.01644724 9:0.013608649 10:0.010612525 11:0.0092432772 12:0.0086364756 
4 1:0.01941565 2:0.00040241122 3:0.32946515 4:0.16326661 5:0.11418094 6:0.090399268 7:0.073258992 8:0.060126427 9:0.050031553 10:0.042164776 11:0.037857036 12:0.037384909 
4 1:0.0024943731 2:8.8175392e-06 3:0.39446079 4:0.15990254 5:0.11242822 6:0.080428866 7:0.059562835 8:0.047654998 9:0.041092202 10:0.036384137 11:0.033794046 12:0.032667374 
4 1:0.0027749786 2:4.3482957e-05 3:0.69001849 4:0.18522706 5:0.05835561 6:0.01934166 7:0.012687807 8:0.0088597239 9:0.007289067 10:0.006360268 11:0.0058877494 12:0.0056904142 
4 1:0.00015511765 2:8.114615e-08 3:0.48441377 4:0.1885502 5:0.10860556 6:0.081160066 7:0.051196508 8:0.027564466 9:0.017605241 10:0.015694118 11:0.012728507 12:0.011893337 
4 1:0.0021558041 2:5.714874e-06 3:0.38174387 4:0.18318511 5:0.11075441 6:0.075054197 7:0.057117731 8:0.047078377 9:0.040252278 10:0.036321098 11:0.034007419 12:0.032852769 
4 1:0.0027739723 2:4.0005817e-05 3:0.61760224 4:0.17471566 5:0.065101925 6:0.036331916 7:0.025561344 8:0.019783956 9:0.017068236 10:0.01521232 11:0.014201108 12:0.01373855 
4 1:66.065649 2:3544.2808 3:0.2257379 4:0.18071419 5:0.13721798 6:0.11216891 7:0.075358611 8:0.073977269 9:0.070711445 10:0.054279127 11:0.042666874 12:0.025303627 
4 1:0.0008429813 2:1.2324972e-06 3:0.41479222 4:0.17970384 5:0.10580906 6:0.072444866 7:0.052715092 8:0.043856209 9:0.036468378 10:0.032861529 11:0.030449155 12:0.029437942 
4 1:0.00031608011 2:2.1074491e-07 3:0.40780374 4:0.23477924 5:0.12975222 6:0.067069107 7:0.046076222 8:0.032922541 9:0.023474941 10:0.021012895 11:0.018548143 12:0.017682125 
4 1:8.745205 2:101.99828 3:0.35696458 4:0.25528404 5:0.15827229 6:0.07961445 7:0.026973468 8:0.0067443405 9:0.0056638556 10:0.019089682 11:0.038069545 12:0.050668802 
4 1:0.0010933813 2:9.7572677e-07 3:0.32308019 4:0.1858768 5:0.12114564 6:0.084604864 7:0.064766873 8:0.053803223 9:0.046424261 10:0.041796209 11:0.038947138 12:0.037682322 
4 1:0.0049317184 2:4.6458962e-05 3:0.45224765 4:0.179004 5:0.090138291 6:0.063105358 7:0.049039708 8:0.040350798 9:0.035009049 10:0.031577132 11:0.029531206 12:0.028576393 
4 1:0.00016616289 2:1.0614116e-07 3:0.50112315 4:0.24005776 5:0.10898016 6:0.055487968 7:0.037054394 8:0.018416087 9:0.013797218 10:0.010162062 11:0.0079519038 12:0.0066541895 
4 1:0.0036081597 2:2.11524e-05 3:0.41956121 4:0.17068255 5:0.099186381 6:0.073510308 7:0.054537695 8:0.044447312 9:0.038353452 10:0.034568862 11:0.032327514 12:0.031268516 
4 1:0.00014184043 2:5.1432326e-08 3:0.44953042 4:0.2140967 5:0.12429963 6:0.066084179 7:0.04114721 8:0.030899615 9:0.024422956 10:0.017716248 11:0.015876685 12:0.015171165 
4 1:9.3289476e-05 2:3.1556066e-08 3:0.46695134 4:0.32266525 5:0.10849742 6:0.035974643 7:0.037906975 8:0.017293087 9:0.0063112227 10:0.0025237476 11:0.0012919138 12:0.00058148428 
4 1:0.00022908137 2:1.0474063e-07 3:0.38893488 4:0.25693602 5:0.11968566 6:0.072711891 7:0.043675029 8:0.030522517 9:0.025276362 10:0.022066564 11:0.020098296 12:0.019143951 
4 1:0.00010434789 2:4.0635026e-08 3:0.43108376 4:0.36244213 5:0.092161088 6:0.065920428 7:0.021072188 8:0.017360359 9:0.0057596654 10:0.0021115628 11:0.0011881945 12:0.00082690014 
4 1:0.0041207795 2:1.274556e-05 3:0.31678643 4:0.17858559 5:0.1185439 6:0.08745688 7:0.067690186 8:0.05596276 9:0.048587437 10:0.043811194 11:0.04096995 12:0.039635411 
4 1:0.0021600611 2:4.8334332e-06 3:0.35870358 4:0.18374373 5:0.11030725 6:0.080413102 7:0.060876128 8:0.050217784 9:0.043310585 10:0.038979195 11:0.036449328 12:0.035247768 
4 1:0.0015495791 2:6.6460071e-06 3:0.52092567 4:0.18586486 5:0.13507214 6:0.042630067 7:0.044822583 8:0.01985173 9:0.014949519 10:0.012725614 11:0.011536575 12:0.011071631 
4 1:0.00072391692 2:4.8599641e-07 3:0.32901348 4:0.20142902 5:0.11612521 6:0.083496647 7:0.064548298 8:0.05079504 9:0.043035376 10:0.038947694 11:0.036029182 12:0.034848883 
4 1:9.4748698e-05 2:2.4902054e-08 3:0.43761318 4:0.23256445 5:0.14686531 6:0.083108026 7:0.055396015 8:0.026356046 9:0.0093648127 10:0.0047806775 11:0.0023707399 12:0.0015652641 
4 1:0.0033239332 2:5.8200921e-05 3:0.5739691 4:0.14853269 5:0.13874368 6:0.049628891 7:0.027407273 8:0.015313014 9:0.013119918 10:0.011706445 11:0.010737116 12:0.010328284 
4 1:0.10236625 2:0.0075562079 3:0.25970828 4:0.24387264 5:0.15652947 6:0.061869669 7:0.048091843 8:0.04076403 9:0.055671477 10:0.064671897 11:0.039644813 12:0.027648433 
4 1:60.127716 2:2168.0017 3:0.23507914 4:0.25053395 5:0.12437798 6:0.051238411 7:0.053942561 8:0.071602486 9:0.047035957 10:0.044366374 11:0.062629998 12:0.056130908 
4 1:220.86101 2:57257.977 3:0.17213079 4:0.31043165 5:0.065320067 6:0.09099775 7:0.071534812 8:0.11000396 9:0.045399132 10:0.040712643 11:0.027606733 12:0.060262644 
4 1:0.00020979912 2:1.9645875e-07 3:0.5607077 4:0.22333459 5:0.10668155 6:0.053455583 7:0.021038765 8:0.0098646896 9:0.010326288 10:0.0049434445 11:0.0052891496 12:0.004129976 
4 1:0.00016352398 2:7.603613e-08 3:0.43330468 4:0.25396692 5:0.11665673 6:0.075080085 7:0.042669787 8:0.024604324 9:0.018060344 10:0.013380762 11:0.011210191 12:0.010539675 
4 1:0.00047961739 2:3.2846117e-07 3:0.38892877 4:0.20630222 5:0.10240434 6:0.074671036 7:0.05478219 8:0.043257868 9:0.036382012 10:0.032680699 11:0.030101083 12:0.029047958 
4 1:0.01681783 2:0.0010893577 3:0.53921063 4:0.20657751 5:0.087324619 6:0.067720901 7:0.053265847 8:0.029023371 9:0.011860625 10:0.003377383 11:0.0014272044 12:0.00020492178 
4 1:1.1498725 2:1.5498662 3:0.30142964 4:0.20240175 5:0.12550215 6:0.089566798 7:0.052023612 8:0.069863364 9:0.02812808 10:0.06053541 11:0.025310488 12:0.044398262 
4 1:0.00010788251 2:4.2853965e-08 3:0.4965877 4:0.26478453 5:0.078549357 6:0.054801085 7:0.050360687 8:0.027504419 9:0.01215134 10:0.0075767427 11:0.0038849635 12:0.0033870887 
4 1:0.00094692362 2:4.8692503e-06 3:0.69914831 4:0.14390021 5:0.050758486 6:0.036473843 7:0.019801678 8:0.014217551 9:0.010202418 10:0.0089880478 11:0.0082067829 12:0.0079112436 
4 1:0.00011798164 2:5.808344e-08 3:0.48161487 4:0.29234935 5:0.079562744 6:0.07593819 7:0.028860416 8:0.01812032 9:0.0079069959 10:0.0071140972 11:0.0045732691 12:0.0037827417 
4 1:0.00062899117 2:7.4912073e-07 3:0.43125196 4:0.16652667 5:0.12037602 6:0.069771099 7:0.049167642 8:0.040245997 9:0.034372167 10:0.030613711 11:0.028646146 12:0.027651827 
4 1:18.660529 2:462.86005 3:0.35624722 4:0.25537594 5:0.15851353 6:0.079514719 7:0.026953768 8:0.0070609762 9:0.005865112 10:0.019073565 11:0.038064572 12:0.050675043 
4 1:0.0074942908 2:0.00017680383 3:0.48489016 4:0.18809503 5:0.1053365 6:0.053692793 7:0.039145521 8:0.03164673 9:0.026971455 10:0.02433936 11:0.022764179 12:0.022023523 
4 1:25.607545 2:140.13464 3:0.017813669 4:0.036363383 5:0.06901747 6:0.10647314 7:0.13950385 8:0.15624328 9:0.15114682 10:0.13074462 11:0.1034014 12:0.084843101 
4 1:0.00024592652 2:1.1997374e-07 3:0.41599488 4:0.19611845 5:0.11965742 6:0.083707082 7:0.052366203 8:0.034259848 9:0.029332572 10:0.024474109 11:0.022021222 12:0.02103026 
4 1:0.0001879134 2:1.5995554e-07 3:0.57499633 4:0.230993 5:0.099177952 6:0.044323002 7:0.021521815 8:0.01355086 9:0.006781381 10:0.0038952751 11:0.002616429 12:0.0020547415 
4 1:0.00265735 2:6.0195274e-05 3:0.72310055 4:0.10152467 5:0.053190477 6:0.031015565 7:0.021580759 8:0.016978377 9:0.014673233 10:0.013192387 11:0.012288452 12:0.011865297 
4 1:0.0073395947 2:4.064534e-05 3:0.31575661 4:0.18138129 5:0.11785891 6:0.086411765 7:0.067737883 8:0.05582309 9:0.048534964 10:0.043820475 11:0.041012545 12:0.039689309 
4 1:0.0078476771 2:0.00014751595 3:0.42038988 4:0.23787502 5:0.13304291 6:0.11874007 7:0.037845012 8:0.029327993 9:0.0075397824 10:0.0061229398 11:0.0046430104 12:0.0042637664 
4 1:2.1893212 2:7.4282206 3:0.32897257 4:0.18305044 5:0.11695644 6:0.099594333 7:0.041824915 8:0.078123901 9:0.021718923 10:0.061903975 11:0.023585069 12:0.044058489 
4 1:0.011052978 2:0.00039468226 3:0.51841137 4:0.22997251 5:0.087559026 6:0.045570563 7:0.028242122 8:0.022466113 9:0.018859234 10:0.016952703 11:0.015862225 12:0.015341376 
4 1:0.14078682 2:0.0061160552 3:0.16310292 4:0.144797 5:0.16798461 6:0.15372856 7:0.11264866 8:0.058405371 9:0.026039188 10:0.028062304 11:0.056242095 12:0.084437721 
4 1:36.621721 2:98.329222 3:0.07561096 4:0.097354619 5:0.11606426 6:0.13152095 7:0.13457196 8:0.12546635 9:0.10749068 10:0.08601969 11:0.067146653 12:0.056053722 
4 1:0.00033788285 2:1.6956033e-07 3:0.3739426 4:0.19161511 5:0.12556467 6:0.07144948 7:0.062733692 8:0.044696026 9:0.037713159 10:0.032568755 11:0.02973051 12:0.028558017 
4 1:0.00015819013 2:8.8783561e-08 3:0.48740709 4:0.25420033 5:0.087731251 6:0.069527022 7:0.03285771 8:0.024370741 9:0.015618132 10:0.011149599 11:0.0088981042 12:0.0078674601 
4 1:4.0151737 2:9.128736 3:0.22358342 4:0.19442776 5:0.16828943 6:0.13723695 7:0.10546925 8:0.075676955 9:0.049351451 10:0.027824506 11:0.012598036 12:0.0052992877 
4 1:0.00055445679 2:4.4752145e-07 3:0.38182981 4:0.19049088 5:0.10600849 6:0.075889612 7:0.060742012 8:0.045394721 9:0.039347152 10:0.035037725 11:0.032449713 12:0.031252659 
4 1:0.00010476111 2:6.2502565e-08 3:0.47649145 4:0.26623519 5:0.13571015 6:0.050779813 7:0.042174665 8:0.018612573 9:0.005725643 10:0.003115464 11:0.00069695731 12:0.00042945554 
4 1:0.00092253289 2:6.9533885e-07 3:0.32489166 4:0.17741072 5:0.12432143 6:0.084511286 7:0.067438177 8:0.054120844 9:0.046522995 10:0.041921425 11:0.03913638 12:0.03784269 
4 1:10.249115 2:74.399619 3:0.25819496 4:0.24348903 5:0.1564548 6:0.061204411 7:0.049765936 8:0.041825136 9:0.055080572 10:0.064393474 11:0.03918993 12:0.028803745 
4 1:0.0005726991 2:2.7574691e-07 3:0.31777878 4:0.19425426 5:0.1182988 6:0.088084918 7:0.065356502 8:0.055279105 9:0.045007463 10:0.040235712 11:0.03761805 12:0.036283034 
4 1:0.00012088454 2:5.9371614e-08 3:0.46652265 4:0.2718478 5:0.12791228 6:0.070213243 7:0.031662386 8:0.016416034 9:0.010574812 10:0.0030765202 11:0.0011321515 12:0.00059888819 
4 1:0.00086060743 2:2.1680568e-06 3:0.51922528 4:0.15585509 5:0.084848538 6:0.059378248 7:0.044012372 8:0.033808349 9:0.028821534 10:0.025877305 11:0.023923788 12:0.02310261 
4 1:0.0021737833 2:5.4790514e-06 3:0.37329833 4:0.1811161 5:0.10747434 6:0.078371512 7:0.05937265 8:0.048792518 9:0.042134096 10:0.037942562 11:0.035476788 12:0.034316154 
4 1:0.0025783474 2:8.2772561e-06 3:0.38009415 4:0.17040486 5:0.11044531 6:0.082918443 7:0.064131404 8:0.047309898 9:0.040497187 10:0.036243614 11:0.033743614 12:0.032591363 
4 1:7.9594926 2:4.2701582 3:0.059729845 4:0.085128965 5:0.11115234 6:0.12829369 7:0.13360243 8:0.12743645 9:0.11257892 10:0.093981169 11:0.077347607 12:0.067467466 
4 1:0.0015224205 2:6.1242559e-06 3:0.48455394 4:0.1414668 5:0.10264977 6:0.068289549 7:0.049366626 8:0.038505065 9:0.032282898 10:0.02881483 11:0.026868681 12:0.025914103 
4 1:0.0034313302 2:1.4352802e-05 3:0.3704286 4:0.18669544 5:0.11379194 6:0.074291773 7:0.058089513 8:0.047726129 9:0.041431007 10:0.037305401 11:0.03484599 12:0.033718176 
4 1:22.236156 2:277.88928 3:0.22266427 4:0.19445502 5:0.16830736 6:0.13714138 7:0.10553673 8:0.075821016 9:0.049556905 10:0.028049704 11:0.012850176 12:0.0053764016 
4 1:0.00059194661 2:1.7560404e-06 3:0.67825593 4:0.17342266 5:0.064967266 6:0.038167138 7:0.014849507 8:0.010136198 9:0.0064422492 10:0.0049820757 11:0.0043885363 12:0.0041804453 
4 1:0.0059934596 2:0.0001191129 3:0.54787381 4:0.19780341 5:0.15348461 6:0.032027124 7:0.043102427 8:0.01032992 9:0.0057906858 10:0.0037164365 11:0.0029874547 12:0.0027481266 
4 1:0.00010227406 2:3.9813856e-08 3:0.48911951 4:0.24706562 5:0.11409973 6:0.07238576 7:0.040310255 8:0.019699908 9:0.0083306805 10:0.0050894986 11:0.0023545743 12:0.0014787073 
4 1:0.00056273764 2:2.9283281e-06 3:0.71563322 4:0.1852643 5:0.045137833 6:0.022426271 7:0.014264409 8:0.0065225954 9:0.0037309294 10:0.0026072966 11:0.0022850474 12:0.0020298434 
4 1:8.8930007e-05 2:2.0764987e-08 3:0.4040624 4:0.26829736 5:0.11555152 6:0.11495672 7:0.054675605 8:0.023367904 9:0.010439431 10:0.0043163286 11:0.0030465794 12:0.0012344924 
4 1:0.0031254014 2:7.3692372e-06 3:0.31467737 4:0.18358683 5:0.11805199 6:0.085713978 7:0.067707713 8:0.05577082 9:0.04843916 10:0.043669384 11:0.040880703 12:0.03953668 
4 1:0.031688524 2:0.0066915756 3:0.60351236 4:0.25739275 5:0.062910982 6:0.036469428 7:0.029600252 8:0.0069453809 9:0.0025728439 10:0.00039833386 11:0.00017858661 12:1.8438183e-05 
4 1:0.0086704013 2:0.0003397296 3:0.6071154 4:0.10820287 5:0.071790877 6:0.05851241 7:0.045875611 8:0.02749869 9:0.024040293 10:0.019929375 11:0.018399954 12:0.017754085 
4 1:0.0021290741 2:2.0522899e-05 3:0.61495276 4:0.1720557 5:0.11703092 6:0.041519562 7:0.037337583 8:0.0098572176 9:0.0046674898 10:0.0013982463 11:0.00075573224 12:0.00040525496 
4 1:0.00014312583 2:6.8556703e-08 3:0.43476241 4:0.33974652 5:0.12058412 6:0.053043794 7:0.028940574 8:0.012218377 9:0.0068580201 10:0.0022154199 11:0.0012008038 12:0.000410784 
4 1:0.31664751 2:0.10213694 3:0.2992585 4:0.2608881 5:0.16570924 6:0.068875496 7:0.019820844 8:0.025089941 9:0.050880825 10:0.058132955 11:0.037669792 12:0.013287856 
4 1:0.0024262583 2:4.4648268e-06 3:0.31888355 4:0.17767134 5:0.12023441 6:0.08655807 7:0.067440514 8:0.055796924 9:0.048154159 10:0.043420602 11:0.040609881 12:0.039278427 
4 1:2.0318003 2:5.9073646 3:0.42500531 4:0.1671001 5:0.069770217 6:0.06210536 7:0.084274798 8:0.038105035 9:0.030824237 10:0.043418389 11:0.052786382 12:0.025259389 
4 1:0.0012967106 2:1.0879633e-05 3:0.6830282 4:0.19618905 5:0.057626267 6:0.021818969 7:0.014144906 8:0.0083405287 9:0.0058413526 10:0.004683164 11:0.0041890381 12:0.003943101 
4 1:0.00063949796 2:4.0729596e-07 3:0.34193953 4:0.20439493 5:0.11087052 6:0.087694701 7:0.058514105 8:0.048265688 9:0.041751465 10:0.037064135 11:0.034564558 12:0.033286994 
4 1:0.00010140854 2:4.3371454e-08 3:0.52034665 4:0.28115006 5:0.087698893 6:0.056760114 7:0.028128727 8:0.012088675 9:0.0077810547 10:0.0040944694 11:0.0012691701 12:0.00066246459 
4 1:1.5659472 2:0.19322813 3:0.079242323 4:0.10208743 5:0.11912984 6:0.1319759 7:0.13409261 8:0.12436731 9:0.10566658 10:0.083623801 11:0.064308596 12:0.052962137 
4 1:0.0060415389 2:2.7082927e-05 3:0.3148927 4:0.18145537 5:0.11882374 6:0.086268044 7:0.067499091 8:0.055983818 9:0.048532704 10:0.043842361 11:0.041027848 12:0.039700562 
4 1:9.0517991e-05 2:3.0013161e-08 3:0.46313276 4:0.25584126 5:0.13936903 6:0.081193585 7:0.027286507 8:0.019337662 9:0.0086751917 10:0.0027374255 11:0.0018353465 12:0.00057502579 
4 1:51.342698 2:1239.1936 3:0.20760218 4:0.15658608 5:0.18675101 6:0.14489471 7:0.096308253 8:0.079122191 9:0.066856232 10:0.029098439 11:0.01605937 12:0.015895614 
4 1:0.0052714703 2:2.9791983e-05 3:0.35126644 4:0.19679705 5:0.12014485 6:0.075669935 7:0.05908336 8:0.047999873 9:0.041453104 10:0.037288365 11:0.034882278 12:0.033737568 
4 1:0.00012274347 2:5.1498723e-08 3:0.41942073 4:0.2594197 5:0.17696476 6:0.088219369 7:0.026085849 8:0.018374182 9:0.0061236398 10:0.0032696674 11:0.0013383899 12:0.0007760927 
4 1:0.00064144874 2:1.0584429e-06 3:0.44963576 4:0.20495149 5:0.093982602 6:0.062923224 7:0.048191353 8:0.037040687 9:0.02915692 10:0.025937419 11:0.023955831 12:0.023078863 
4 1:0.00018472996 2:8.3220559e-08 3:0.44536159 4:0.19470348 5:0.10284981 6:0.079221689 7:0.054259714 8:0.035883879 9:0.025417904 10:0.022251744 11:0.020074854 12:0.019028307 
4 1:44.561039 2:879.06091 3:0.24267099 4:0.14022238 5:0.076400856 6:0.16752605 7:0.11008496 8:0.053879741 9:0.074779441 10:0.052149883 11:0.041895226 12:0.038130047 
4 1:0.00010063385 2:4.0859803e-08 3:0.53894227 4:0.22197845 5:0.1189034 6:0.064438842 7:0.02429763 8:0.020457974 9:0.0061776621 10:0.0025755216 11:0.0014424086 12:0.00074421788 
4 1:0.0019634638 2:3.3959364e-06 3:0.33697682 4:0.17467524 5:0.11648927 6:0.083910053 7:0.066108619 8:0.053721123 9:0.046659691 10:0.0421224 11:0.039381804 12:0.038062297 
4 1:0.00010822575 2:4.0298203e-08 3:0.46680584 4:0.23734748 5:0.14459116 6:0.047572024 7:0.057256629 8:0.02288185 9:0.011276092 10:0.0059197957 11:0.003657282 12:0.0026607184 
4 1:8.675403e-05 2:2.8236687e-08 3:0.42963698 4:0.29193237 5:0.12189985 6:0.078145565 7:0.049562157 8:0.015044039 9:0.007631847 10:0.0036385673 11:0.001683688 12:0.00078500579 
4 1:0.26079223 2:0.10244309 3:0.4320221 4:0.17258635 5:0.061128678 6:0.061183364 7:0.085383877 8:0.038097579 9:0.027195872 10:0.044481365 11:0.052992114 12:0.02373942 
4 1:0.59749234 2:0.33543883 3:0.32669448 4:0.22525334 5:0.12701472 6:0.08586761 7:0.042805506 8:0.03849503 9:0.024455659 10:0.033664284 11:0.040069648 12:0.052815654 
4 1:9.1483398e-05 2:2.8883818e-08 3:0.39661184 4:0.25283787 5:0.20953264 6:0.071689884 7:0.033536219 8:0.01830288 9:0.011421851 10:0.003953131 11:0.001478311 12:0.000614536 
4 1:0.00018121764 2:6.6568059e-08 3:0.38139852 4:0.25378576 5:0.12374231 6:0.075675469 7:0.05844133 8:0.03043293 9:0.023654539 10:0.019023341 11:0.016893626 12:0.016151337 
4 1:0.00067572114 2:6.9167131e-07 3:0.41150205 4:0.19155428 5:0.097237901 6:0.074449007 7:0.053913912 8:0.042623549 9:0.036313737 10:0.032093354 11:0.029968268 12:0.02890773 
4 1:0.00011024992 2:5.7092948e-08 3:0.53480505 4:0.27637099 5:0.08596955 6:0.049450762 7:0.031580001 8:0.012229785 9:0.006075366 10:0.00204126 11:0.0011154729 12:0.00035525884 
4 1:0.00015503875 2:4.4327986e-08 3:0.35138667 4:0.2893679 5:0.12470082 6:0.067218969 7:0.051105662 8:0.031509829 9:0.026552073 10:0.020700301 11:0.018740199 12:0.01784075 
4 1:0.080384358 2:0.023823507 3:0.25719973 4:0.530817 5:0.12487613 6:0.050259258 7:0.0089227527 8:0.018387895 9:0.003869751 10:0.0019917542 11:0.0018388573 12:0.0017499968 
4 1:0.00029401569 2:3.2343741e-07 3:0.53833317 4:0.1733177 5:0.11617084 6:0.06398918 7:0.031899579 8:0.02243917 9:0.017300787 10:0.013110025 11:0.011744352 12:0.01114708 
4 1:0.00067440075 2:2.8980485e-06 3:0.65067222 4:0.16614535 5:0.052866461 6:0.037421217 7:0.028307292 8:0.017357024 9:0.013698815 10:0.011812543 11:0.010818342 12:0.010385706 
4 1:9.9830026e-05 2:5.2124853e-08 3:0.52988973 4:0.23779202 5:0.097212183 6:0.089177593 7:0.018088057 8:0.015340128 9:0.0061995312 10:0.0042807085 11:0.0015114717 12:0.0004986157 
4 1:3.1133784 2:5.0965964 3:0.22715144 4:0.24033306 5:0.12314881 6:0.055359611 7:0.057667625 8:0.073458259 9:0.05088249 10:0.04822047 11:0.064786102 12:0.056049869 
4 1:0.00032464933 2:1.2469896e-07 3:0.36728205 4:0.18633586 5:0.11487998 6:0.083049007 7:0.064818473 8:0.045976693 9:0.039160128 10:0.033951361 11:0.031964786 12:0.031046465 
4 1:0.0002562424 2:9.9970678e-08 3:0.38978389 4:0.19340142 5:0.11981858 6:0.081138255 7:0.061504704 8:0.039562072 9:0.033621862 10:0.028385148 11:0.026280865 12:0.025241993 
4 1:0.0015358149 2:2.0373794e-06 3:0.32871597 4:0.17941158 5:0.12337306 6:0.08395474 7:0.066877925 8:0.052887029 9:0.045978742 10:0.041218809 11:0.038505358 12:0.037228198 
4 1:0.00017677379 2:1.1656518e-07 3:0.49440687 4:0.31786105 5:0.086060876 6:0.042891813 7:0.021561755 8:0.012124071 9:0.009472999 10:0.0061742744 11:0.0047969283 12:0.0044323317 
4 1:0.00015649535 2:1.2969301e-07 3:0.6081988 4:0.19930874 5:0.11126058 6:0.039815738 7:0.018815263 8:0.012182924 9:0.0059747472 10:0.002784621 11:0.00099975692 12:0.00063508574 
4 1:32.599427 2:190.36515 3:0.20099962 4:0.12680158 5:0.062250898 6:0.061616318 7:0.1009192 8:0.11600126 9:0.088368117 10:0.061553776 11:0.073374432 12:0.10260546 
4 1:0.0014801733 2:1.7210294e-05 3:0.71792438 4:0.1598749 5:0.043109216 6:0.030356172 7:0.019000298 8:0.0086013643 9:0.0063478778 10:0.0052440929 11:0.0047837195 12:0.0045339498 
4 1:0.00010962868 2:3.3016513e-08 3:0.43283925 4:0.24838123 5:0.11864812 6:0.10890504 7:0.044485992 8:0.02227966 9:0.0081142656 10:0.0072498034 11:0.0048032154 12:0.0041036684 
4 1:0.0072531706 2:0.00018436325 3:0.55735055 4:0.1970172 5:0.15322749 6:0.031734565 7:0.042845045 8:0.0084642823 9:0.0041792415 10:0.002256738 11:0.001576337 12:0.0012850468 
4 1:0.00086616191 2:9.3216671e-07 3:0.35053908 4:0.20578969 5:0.11383485 6:0.080864472 7:0.057682901 8:0.046928089 9:0.040098509 10:0.036234467 11:0.033799201 12:0.032608844 
4 1:0.0053447693 2:2.1395692e-05 3:0.31693883 4:0.17893762 5:0.11801894 6:0.08669807 7:0.067679969 8:0.056113671 9:0.048666046 10:0.043980875 11:0.04116559 12:0.039821008 
4 1:0.41253814 2:1.8218505 3:0.87652463 4:0.094810615 5:0.017517597 6:0.0063979124 7:0.0028691639 8:0.0012108377 9:0.00035525577 10:0.00016616185 11:8.6348976e-05 12:5.8680791e-05 
4 1:0.14553521 2:0.021568099 3:0.33515989 4:0.09727029 5:0.08095837 6:0.084609077 7:0.086238962 8:0.080066377 9:0.070761811 10:0.061937946 11:0.053537923 12:0.047170958 
4 1:0.0026144799 2:5.9814629e-06 3:0.33282401 4:0.17552673 5:0.11717045 6:0.086119439 7:0.065574288 8:0.054265857 9:0.046816056 10:0.042198299 11:0.03944819 12:0.038160014 
4 1:0.0040619921 2:0.00010771113 3:0.70468536 4:0.15444534 5:0.06160496 6:0.025326332 7:0.015977327 8:0.01158532 9:0.0079479782 10:0.0064817016 11:0.0060356075 12:0.0056342068 
4 1:0.00011725183 2:7.462564e-08 3:0.61484823 4:0.17318951 5:0.11615226 6:0.049912305 7:0.018075412 8:0.014412952 9:0.0084988628 10:0.0035428591 11:0.00095767662 12:0.000394595 
4 1:9.6560487e-05 2:2.583417e-08 3:0.42828202 4:0.27071204 5:0.12157052 6:0.093875772 7:0.048050664 8:0.02076052 9:0.009775121 10:0.0036610404 11:0.002333483 12:0.0009281302 
4 1:2.8213233 2:1.8031872 3:0.21460569 4:0.12938861 5:0.05810725 6:0.057927784 7:0.10100948 8:0.11712264 9:0.08656681 10:0.057211372 11:0.070239004 12:0.10229572 
4 1:47.379823 2:2090.6113 3:0.32251561 4:0.2275874 5:0.13159484 6:0.086074801 7:0.042050775 8:0.036114683 9:0.023340267 10:0.033153453 11:0.040984953 12:0.053684852 
4 1:0.00087445226 2:1.28916e-06 3:0.42119883 4:0.19251293 5:0.10227657 6:0.069117275 7:0.052021738 8:0.0399087 9:0.034483558 10:0.03077003 11:0.028654764 12:0.027680786 
4 1:9.4346594e-05 2:5.6883857e-08 3:0.52458852 4:0.18218613 5:0.17205328 6:0.060185197 7:0.034660347 8:0.016846843 9:0.0046486524 10:0.0027107041 11:0.0016012014 12:0.00050662173 
4 1:0.00030990832 2:1.4687792e-07 3:0.38269101 4:0.21042478 5:0.10559136 6:0.084266544 7:0.053926677 8:0.043878222 9:0.036185351 10:0.029200174 11:0.026887762 12:0.025670348 
4 1:0.00029343024 2:4.5883712e-07 3:0.67060202 4:0.1776036 5:0.063395775 6:0.047604036 7:0.01850625 8:0.0086715535 9:0.004393874 10:0.0035518153 11:0.002864451 12:0.0026747807 
4 1:0.00060404767 2:3.0021437e-07 3:0.31949824 4:0.19695238 5:0.11801965 6:0.087383104 7:0.064169093 8:0.052314077 9:0.045318093 10:0.040459303 11:0.037738208 12:0.036342351 
4 1:0.51704675 2:0.0058533293 3:0.10367536 4:0.10305713 5:0.098215712 6:0.098187733 7:0.099880372 8:0.099131615 9:0.097681859 10:0.098325147 11:0.098786231 12:0.098083175 
4 1:0.0068217087 2:3.6301961e-05 3:0.31856135 4:0.18412555 5:0.11950526 6:0.084965674 7:0.066399944 8:0.054793107 9:0.047607227 10:0.042985659 11:0.040208987 12:0.038912737 
4 1:0.00066095482 2:2.4369849e-06 3:0.59844928 4:0.2174943 5:0.073740516 6:0.046085876 7:0.020537116 8:0.014340692 9:0.0090160651 10:0.0071380512 11:0.0066275407 12:0.0062600868 
4 1:0.00064190846 2:2.2862463e-06 3:0.59410594 4:0.25539967 5:0.072250925 6:0.030775494 7:0.016317521 8:0.012333543 9:0.007172993 10:0.0046484966 11:0.0036985437 12:0.0031342777 
4 1:0.00010435618 2:3.2915962e-08 3:0.46325945 4:0.26963209 5:0.12864564 6:0.075153943 7:0.036380077 8:0.015968841 9:0.0059270339 10:0.0035979153 11:0.00081196453 12:0.00061846604 
4 1:9.7617264e-05 2:4.1553028e-08 3:0.50681055 4:0.22242709 5:0.14768486 6:0.063687265 7:0.034002072 8:0.01252634 9:0.0072259338 10:0.0030634264 11:0.001708373 12:0.00082473855 
4 1:0.00067613273 2:1.3205758e-06 3:0.50991933 4:0.18262831 5:0.10613329 6:0.058183693 7:0.035318606 8:0.030177815 9:0.022102533 10:0.019724599 11:0.017800772 12:0.017160799 
4 1:0.00017102335 2:9.0432862e-08 3:0.45245084 4:0.23607769 5:0.12122822 6:0.061178661 7:0.040255812 8:0.026032227 9:0.018430062 10:0.015947605 11:0.014338159 12:0.013390489 
4 1:2.7048407 2:4.9713259 3:0.20765245 4:0.19611759 5:0.14430778 6:0.077479924 7:0.040339944 8:0.042443059 9:0.046545989 10:0.046925415 11:0.070216804 12:0.11799867 
4 1:0.020445424 2:0.0013343617 3:0.25629182 4:0.49050177 5:0.13050284 6:0.055754178 7:0.016721597 8:0.018016461 9:0.0092078627 10:0.0079959796 11:0.0074579306 12:0.0071921376 
4 1:0.0088987259 2:0.00060657695 3:0.78304137 4:0.16089508 5:0.021909607 6:0.0090837728 7:0.0070773022 8:0.0045645135 9:0.0037974078 10:0.0033425152 11:0.0031246016 12:0.0030141843 
4 1:0.00064616798 2:5.2104131e-07 3:0.36475682 4:0.18994615 5:0.12635155 6:0.081254387 7:0.061226584 8:0.046107818 9:0.03713037 10:0.032798073 11:0.030068759 12:0.028927062 
4 1:0.0019645502 2:1.1887122e-05 3:0.51562139 4:0.17745837 5:0.09160899 6:0.0921251 7:0.090374069 8:0.012100682 9:0.007644469 10:0.0048940213 11:0.0041707113 12:0.0038147493 
4 1:9.4434982e-05 2:4.287134e-08 3:0.54866075 4:0.17014918 5:0.15714584 6:0.061368804 7:0.026829024 8:0.020477018 9:0.011515888 10:0.002435511 11:0.00098299269 12:0.00041899912 
4 1:0.0001005257 2:3.7475295e-08 3:0.47238997 4:0.26427446 5:0.13339203 6:0.058901811 7:0.038627805 8:0.018502436 9:0.0082931426 10:0.0038163429 11:0.0011246903 12:0.00064639372 
4 1:0.0013507436 2:1.1552682e-05 3:0.66290765 4:0.14903732 5:0.058750182 6:0.042345945 7:0.02394759 8:0.017066938 9:0.013290444 10:0.011473165 11:0.010521442 12:0.010156323 
4 1:0.00089070361 2:2.5224457e-06 3:0.45544159 4:0.18856783 5:0.10002274 6:0.061155701 7:0.050507554 8:0.035824729 9:0.030300118 10:0.027242342 11:0.025298717 12:0.024422664 
4 1:56.851649 2:1931.859 3:0.22289891 4:0.2390586 5:0.15831181 6:0.089771996 7:0.082358644 8:0.077883818 9:0.045804416 10:0.031860192 11:0.02900592 12:0.022039544 
4 1:35.630755 2:601.00798 3:0.13377905 4:0.19220208 5:0.12460229 6:0.19030344 7:0.046724162 8:0.060169019 9:0.048553177 10:0.02309908 11:0.089514422 12:0.087226027 
4 1:0.0099354559 2:8.1652697e-05 3:0.32866281 4:0.18400178 5:0.11846485 6:0.083234532 7:0.064530694 8:0.053508873 9:0.046480141 10:0.041959997 11:0.039268211 12:0.037998822 
4 1:0.00021537601 2:1.6743594e-07 3:0.53158272 4:0.19396461 5:0.088841518 6:0.050738157 7:0.047163568 8:0.025329664 9:0.019228741 10:0.016223676 11:0.013523966 12:0.012774991 
4 1:2.2977541 2:2.1027032 3:0.067480199 4:0.11107477 5:0.18445821 6:0.21014619 7:0.16190206 8:0.082325011 9:0.034987728 10:0.035099836 11:0.050998299 12:0.058555809 
4 1:0.00015751671 2:1.4025152e-07 3:0.57235049 4:0.21790655 5:0.11898431 6:0.048199814 7:0.021772454 8:0.011930389 9:0.0049435359 10:0.0025475032 11:0.00080620711 12:0.00055297815 
4 1:0.00026812034 2:9.7795126e-08 3:0.38282678 4:0.20406046 5:0.11844888 6:0.081532234 7:0.050911553 8:0.042376578 9:0.034852318 10:0.030042552 11:0.027402265 12:0.026231701 
4 1:0.001148868 2:1.9387329e-06 3:0.41694816 4:0.16645111 5:0.10822332 6:0.072141811 7:0.054692332 8:0.044228267 9:0.038240732 10:0.03438469 11:0.032120293 12:0.031027225 
4 1:0.0086790651 2:0.00035148173 3:0.57162944 4:0.19390176 5:0.074749165 6:0.043471162 7:0.029961278 8:0.021560334 9:0.018351084 10:0.016073746 11:0.015089169 12:0.014492161 
4 1:68.736487 2:5633.7057 3:0.16389036 4:0.35973985 5:0.058356823 6:0.086260065 7:0.063375896 8:0.11315549 9:0.032350582 10:0.037286976 11:0.0274487 12:0.055628493 
4 1:269.31818 2:76353.11 3:0.18660154 4:0.25056487 5:0.082392672 6:0.088215383 7:0.080083915 8:0.10025319 9:0.055604195 10:0.041074328 11:0.033622818 12:0.072464487 
4 1:0.0002893941 2:4.5849971e-07 3:0.58817428 4:0.19084881 5:0.1107233 6:0.04894767 7:0.022823416 8:0.017400016 9:0.010546113 10:0.004503609 11:0.0031580918 12:0.0027444479 
4 1:0.00010406552 2:5.651132e-08 3:0.55379549 4:0.20914455 5:0.10316155 6:0.085269675 7:0.020925293 8:0.014816347 9:0.0073163504 10:0.003883254 11:0.0012181694 12:0.00045566854 
4 1:9.399572 2:129.21097 3:0.32177827 4:0.071252839 5:0.21739096 6:0.14244489 7:0.017572873 8:0.044701545 9:0.084694712 10:0.034436501 11:0.0084631637 12:0.053754952 
4 1:0.00073260382 2:2.9628736e-06 3:0.69388855 4:0.14673298 5:0.069711465 6:0.030570942 7:0.014615619 8:0.012433131 9:0.009239501 10:0.007940959 11:0.0074286087 12:0.0070874558 
4 1:0.0025458691 2:4.8493852e-06 3:0.31685407 4:0.17852443 5:0.1198662 6:0.086654076 7:0.067678653 8:0.055983358 9:0.04844417 10:0.043657864 11:0.040853484 12:0.039519502 
4 1:0.00030225111 2:1.8036181e-07 3:0.40598298 4:0.20257066 5:0.12240773 6:0.079155688 7:0.050628747 8:0.034057601 9:0.029728082 10:0.026441785 11:0.024521523 12:0.023335486 
4 1:27.719908 2:1022.6184 3:0.35644606 4:0.25542446 5:0.15852779 6:0.079521534 7:0.026944074 8:0.0068975341 9:0.00575812 10:0.019069976 11:0.038070061 12:0.050684407 
4 1:0.0011647929 2:1.6049253e-06 3:0.36213165 4:0.17384618 5:0.12054942 6:0.081085334 7:0.061029515 8:0.049602014 9:0.042817862 10:0.038066993 11:0.035199037 12:0.033982185 
4 1:8.9774704e-05 2:3.656995e-08 3:0.48108927 4:0.28775198 5:0.10643996 6:0.071352561 7:0.028043613 8:0.01397069 9:0.006842036 10:0.0026415195 11:0.0010183083 12:0.00083685075 
4 1:0.00011233301 2:5.0928273e-08 3:0.43572883 4:0.26214257 5:0.1482185 6:0.060056433 7:0.045500167 8:0.021277249 9:0.013000006 10:0.0062229943 11:0.0043488371 12:0.003379958 
4 1:28.43225 2:1165.0864 3:0.32181249 4:0.18823732 5:0.11942878 6:0.096852295 7:0.044411351 8:0.075811012 9:0.023394974 10:0.061517172 11:0.024021084 12:0.044136493 
4 1:55.708487 2:1817.1008 3:0.23358631 4:0.24865694 5:0.12414928 6:0.052014891 7:0.054643617 8:0.071948978 9:0.047755549 10:0.045086137 11:0.063034016 12:0.056084308 
4 1:0.0015584227 2:3.8127656e-06 3:0.40702805 4:0.19259114 5:0.096108441 6:0.072850916 7:0.053124014 8:0.043298586 9:0.037659352 10:0.033769395 11:0.031569536 12:0.030485544 
4 1:53.416499 2:3890.8043 3:0.3164572 4:0.19197071 5:0.12118104 6:0.094861754 7:0.046411946 8:0.07415381 9:0.024672668 10:0.061220843 11:0.024374742 12:0.044193795 
4 1:0.0017398217 2:3.4578655e-06 3:0.35947499 4:0.19346821 5:0.11747348 6:0.083119759 7:0.056742695 8:0.047265956 9:0.040175656 10:0.035469461 11:0.03321782 12:0.032000953 
4 1:0.0018532422 2:6.1641789e-06 3:0.40654718 4:0.15655515 5:0.10440081 6:0.075149201 7:0.059334289 8:0.048131273 9:0.041699397 10:0.037561675 11:0.035058442 12:0.03387753 
4 1:0.0032722944 2:5.5139706e-05 3:0.56896923 4:0.16221792 5:0.098258845 6:0.045487064 7:0.031016684 8:0.023867832 9:0.020084043 10:0.017421677 11:0.016251138 12:0.015648181 
4 1:0.12672267 2:0.024898762 3:0.43485275 4:0.11858902 5:0.052593257 6:0.05598591 7:0.10212756 8:0.085901114 9:0.034150024 10:0.019835707 11:0.029045692 12:0.063316498 
4 1:0.0067151368 2:3.3136909e-05 3:0.314591 4:0.17889789 5:0.11874701 6:0.086706652 7:0.067947423 8:0.056453298 9:0.048991654 10:0.044230791 11:0.041390711 12:0.040052269 
4 1:0.0013951325 2:4.9086193e-06 3:0.44742995 4:0.17140801 5:0.10479892 6:0.063961924 7:0.051706359 8:0.03941545 9:0.033819786 10:0.030396972 11:0.028312766 12:0.027388884 
4 1:12.584848 2:136.46917 3:0.32997298 4:0.18790805 5:0.11848482 6:0.094498313 7:0.080460226 8:0.059438751 9:0.037950508 10:0.027125869 11:0.028583994 12:0.033819515 
4 1:0.0018375899 2:3.0287012e-05 3:0.69698343 4:0.13952288 5:0.061745226 6:0.036527598 7:0.018948285 8:0.013708571 9:0.0093650908 10:0.0082079817 11:0.007450451 12:0.0071833857 
4 1:0.00042880205 2:6.874238e-07 3:0.54272034 4:0.17803301 5:0.16309526 6:0.042578632 7:0.031688659 8:0.013211352 9:0.0092853406 10:0.0069960888 11:0.0062204411 12:0.0058810873 
4 1:3.2896896 2:9.9933448 3:0.3177048 4:0.23051777 5:0.13563924 6:0.086204359 7:0.041498294 8:0.034225828 9:0.022254095 10:0.032651072 11:0.041908482 12:0.054471304 
4 1:0.00011206563 2:3.7829329e-08 3:0.37417855 4:0.30329635 5:0.18467542 6:0.058862771 7:0.045324637 8:0.017316256 9:0.0088683354 10:0.0037296107 11:0.002240126 12:0.0015039407 
4 1:4.1140285 2:14.882193 3:0.33305658 4:0.1876938 5:0.11757751 6:0.094087112 7:0.080471402 8:0.059352683 9:0.037519738 10:0.026579774 11:0.02822257 12:0.033686117 
4 1:0.029971044 2:0.00021856982 3:0.17412726 4:0.16782057 5:0.1530592 6:0.12475741 7:0.092338427 8:0.068022192 9:0.055211117 10:0.052253827 11:0.053869688 12:0.055739571 
4 1:0.00024767967 2:1.1481815e-07 3:0.39092623 4:0.23580309 5:0.11070562 6:0.077489912 7:0.052976027 8:0.036205117 9:0.028905394 10:0.0245003 11:0.021246286 12:0.020238604 
4 1:13.456104 2:83.966827 3:0.21088884 4:0.16201959 5:0.17669852 6:0.14491928 7:0.10079588 8:0.07782172 9:0.063893934 10:0.02987449 11:0.01647661 12:0.015781613 
4 1:0.076904206 2:0.047484165 3:0.78484174 4:0.14354597 5:0.04617134 6:0.016514794 7:0.0052325598 8:0.0016586578 9:0.00067095349 10:0.00047682452 11:0.00044043395 12:0.00042557161 
4 1:12.235027 2:106.87458 3:0.25893724 4:0.24382453 5:0.15679964 6:0.061474651 7:0.048808335 8:0.041154083 9:0.055344554 10:0.064529698 11:0.03940141 12:0.028160543 
4 1:0.0055060005 2:0.00010149311 3:0.49642492 4:0.19502864 5:0.094984378 6:0.055132669 7:0.03838932 8:0.030188221 9:0.025064703 10:0.022470005 11:0.02100102 12:0.020307264 
4 1:0.00035460628 2:2.4367954e-07 3:0.40414864 4:0.20320039 5:0.14099278 6:0.08879803 7:0.044157369 8:0.033631851 9:0.025758122 10:0.020842114 11:0.019223478 12:0.018339116 
4 1:9.4696108e-05 2:2.6138817e-08 3:0.37726853 4:0.26293523 5:0.19694289 6:0.070831959 7:0.051292356 8:0.020484748 9:0.009786242 10:0.0052252977 11:0.0027656603 12:0.0023380242 
4 1:24.257735 2:868.47985 3:0.43010622 4:0.16869876 5:0.065940834 6:0.061193668 7:0.084814826 8:0.037678298 9:0.029421258 10:0.043434744 11:0.053008397 12:0.024411883 
4 1:0.00011941681 2:6.3859414e-08 3:0.54262618 4:0.22780193 5:0.11229316 6:0.068289383 7:0.022421334 8:0.014680625 9:0.0080648984 10:0.0022514496 11:0.0010503906 12:0.0004945786 
4 1:0.032163586 2:0.0076672229 3:0.61534535 4:0.27958116 5:0.043058443 6:0.031854434 7:0.019678284 8:0.0071302989 9:0.0025593466 10:0.00056093882 11:0.00018288097 12:4.6727604e-05 
4 1:0.00075975093 2:7.5498226e-07 3:0.38924045 4:0.16989677 5:0.12401204 6:0.077113273 7:0.055637508 8:0.045395981 9:0.038814575 10:0.034695363 11:0.032373406 12:0.031268719 
4 1:0.014051902 2:0.0006778369 3:0.56548347 4:0.17969246 5:0.079027094 6:0.045726233 7:0.033272203 8:0.024306675 9:0.020379334 10:0.018123733 11:0.016888508 12:0.016290747 
4 1:0.23447918 2:0.59680586 3:0.876006 4:0.09559756 5:0.017540355 6:0.0063617979 7:0.0027603205 8:0.0011993779 9:0.0003266728 10:0.00012617817 11:5.1072967e-05 12:2.9268037e-05 
4 1:0.0015036273 2:9.3479227e-06 3:0.5174696 4:0.21192154 5:0.079591589 6:0.053259011 7:0.036988185 8:0.027859987 9:0.02090475 10:0.01820198 11:0.01680779 12:0.016191427 
4 1:0.62538696 2:0.062202633 3:0.19460582 4:0.12499809 5:0.064398548 6:0.063670321 7:0.1008119 8:0.11523489 9:0.089240176 10:0.063863446 11:0.075011228 12:0.10266856 
4 1:0.00010974226 2:5.3393919e-08 3:0.54476788 4:0.21648851 5:0.1041742 6:0.080964389 7:0.02748975 8:0.011646214 9:0.0081031494 10:0.0046292695 11:0.0012008389 12:0.00051448236 
4 1:0.00011326725 2:4.8101737e-08 3:0.44210233 4:0.28242979 5:0.12042433 6:0.067047201 7:0.045731008 8:0.021994576 9:0.011109867 10:0.0039589079 11:0.0031907876 12:0.0019494058 
4 1:0.00011228583 2:3.9314351e-08 3:0.46557702 4:0.22658169 5:0.1642371 6:0.07297077 7:0.042049906 8:0.013794506 9:0.0092886661 10:0.0025113182 11:0.0021468746 12:0.00078013576 
4 1:0.00056001136 2:4.9459146e-07 3:0.37865493 4:0.18772597 5:0.11236784 6:0.079656763 7:0.059286963 8:0.046360829 9:0.038012436 10:0.033875302 11:0.031751151 12:0.030781453 
4 1:0.00050382401 2:2.568376e-07 3:0.33638556 4:0.19496569 5:0.12176222 6:0.084218702 7:0.061350709 8:0.050604276 9:0.042344191 10:0.037719011 11:0.03507526 12:0.0338923 
4 1:0.0034950794 2:3.944573e-05 3:0.51687822 4:0.12804573 5:0.09102362 6:0.060462558 7:0.046771693 8:0.038258261 9:0.032909228 10:0.029732721 11:0.027747478 12:0.026835414 
4 1:0.0090687687 2:7.2047561e-05 3:0.3301443 4:0.18082038 5:0.11664515 6:0.083601231 7:0.065213263 8:0.054107117 9:0.046989264 10:0.042418256 11:0.03971949 12:0.03843076 
4 1:0.00011083975 2:4.2964546e-08 3:0.44461301 4:0.28310797 5:0.13246705 6:0.061545357 7:0.043266216 8:0.020570886 9:0.0089229216 10:0.0029761816 11:0.0015214716 12:0.00093935736 
4 1:0.0034070939 2:7.2592951e-05 3:0.56858414 4:0.16307696 5:0.091547304 6:0.042453361 7:0.034851678 8:0.025152838 9:0.020841793 10:0.018682286 11:0.017289149 12:0.01669141 
4 1:0.034073418 2:5.7568408e-05 3:0.1197925 4:0.10813934 5:0.11381638 6:0.11799306 7:0.11736974 8:0.11043518 9:0.097848676 10:0.082547371 11:0.06870119 12:0.060404442 
4 1:62.652937 2:2374.0325 3:0.23907076 4:0.23712738 5:0.098132148 6:0.081439441 7:0.11815469 8:0.069338526 9:0.042893298 10:0.039847291 11:0.030673049 12:0.040941111 
4 1:0.0064493057 2:0.00021793706 3:0.66736402 4:0.19293702 5:0.066170131 6:0.027435676 7:0.014061332 8:0.0088112503 9:0.0067994608 10:0.0057658908 11:0.005304215 12:0.0050973107 
4 1:0.0047237536 2:2.4766458e-05 3:0.36272453 4:0.18732652 5:0.11587258 6:0.083515946 7:0.057828424 8:0.04728947 9:0.040503729 10:0.036398794 11:0.034012926 12:0.032891599 
4 1:0.01919583 2:0.0020685762 3:0.64833424 4:0.11634642 5:0.068598756 6:0.0561378 7:0.037923348 8:0.0189401 9:0.016775541 10:0.012988864 11:0.011924659 12:0.011462436 
4 1:0.0015794574 2:7.6030171e-06 3:0.50793997 4:0.14405283 5:0.097280733 6:0.064249634 7:0.048737974 8:0.034471227 9:0.029413781 10:0.025768054 11:0.023856749 12:0.023083865 
4 1:0.00014990583 2:6.5771732e-08 3:0.49537734 4:0.20866148 5:0.13077488 6:0.070004266 7:0.031783583 8:0.021763868 9:0.014366918 10:0.010352855 11:0.008757054 12:0.0077663465 
4 1:0.0039360496 2:4.388377e-05 3:0.46727459 4:0.24564865 5:0.08575626 6:0.046525869 7:0.03719443 8:0.029088868 9:0.024914888 10:0.022088542 11:0.020599393 12:0.019919441 
4 1:0.0010764956 2:1.0272811e-06 3:0.33617881 4:0.18417998 5:0.11461154 6:0.082937903 7:0.065569204 8:0.052842004 9:0.045754926 10:0.040909372 11:0.038223817 12:0.036956637 
4 1:163.23285 2:19440.014 3:0.14909047 4:0.15604037 5:0.15760488 6:0.10671995 7:0.065293844 8:0.056361089 9:0.040717784 10:0.040276173 11:0.069388844 12:0.15626587 
4 1:0.00024357201 2:1.4747719e-07 3:0.4467646 4:0.2042818 5:0.11235304 6:0.0723564 7:0.044564466 8:0.031931873 9:0.025331747 10:0.021865223 11:0.020201967 12:0.019383383 
4 1:0.00017492403 2:7.8062957e-08 3:0.44383478 4:0.24401151 5:0.10262128 6:0.071864706 7:0.043497742 8:0.02931608 9:0.021525111 10:0.015655307 11:0.013886565 12:0.013139205 
4 1:0.00011399535 2:3.7752449e-08 3:0.48310764 4:0.19149581 5:0.10115777 6:0.085952467 7:0.039265173 8:0.03551602 9:0.022465996 10:0.014970658 11:0.013032967 12:0.01241701 
4 1:0.0012159143 2:1.9893226e-06 3:0.38302594 4:0.18184596 5:0.10937253 6:0.078714772 7:0.057228393 8:0.046884926 9:0.039868509 10:0.035838997 11:0.033365008 12:0.032252555 
4 1:8.6196086e-05 2:2.4012011e-08 3:0.4779425 4:0.2662731 5:0.11840946 6:0.068265246 7:0.033821899 8:0.018324296 9:0.0093746355 10:0.0042101606 11:0.0019997471 12:0.001335544 
4 1:38.968701 2:113.35168 3:0.076603575 4:0.098280812 5:0.11650678 6:0.13180061 7:0.1346839 8:0.12535437 9:0.10713458 10:0.085426831 11:0.066373233 12:0.055179337 
4 1:17.813764 2:95.478452 3:0.14256607 4:0.13939576 5:0.17107133 6:0.16422317 7:0.1182958 8:0.058677043 9:0.02110016 10:0.025490321 11:0.060774421 12:0.093383037 
4 1:0.0096526458 2:0.00010992595 3:0.36741807 4:0.19846594 5:0.11529024 6:0.073527228 7:0.056183506 8:0.045903293 9:0.039943761 10:0.035783774 11:0.033485131 12:0.032389183 
4 1:0.013862823 2:0.00030512966 3:0.35647655 4:0.23736117 5:0.1150233 6:0.1105382 7:0.052728926 8:0.038055316 9:0.025606883 10:0.022497326 11:0.020710015 12:0.020008034 
4 1:14.680064 2:94.628877 3:0.24638767 4:0.14085564 5:0.077671368 6:0.16310857 7:0.1077336 8:0.05536366 9:0.072505001 10:0.052086468 11:0.043383142 12:0.038634522 
4 1:0.001683745 2:1.8733858e-05 3:0.69341476 4:0.11635886 5:0.062847297 6:0.035828041 7:0.022523852 8:0.017003925 9:0.014967374 10:0.013008233 11:0.01195765 12:0.01151763 
4 1:0.00030012903 2:1.260494e-07 3:0.36587009 4:0.21162075 5:0.12395123 6:0.076807051 7:0.055078123 8:0.043311379 9:0.035383594 10:0.03084422 11:0.028352982 12:0.027423331 
4 1:2.6925899 2:4.1539419 3:0.011680763 4:0.05807647 5:0.15678799 6:0.22178254 7:0.19509984 8:0.10062343 9:0.018840042 10:0.013198781 11:0.075965883 12:0.14022498 
4 1:0.009369462 2:6.5531267e-05 3:0.31664256 4:0.17696736 5:0.11798213 6:0.087115352 7:0.068300461 8:0.056542532 9:0.048910447 10:0.044194984 11:0.041348818 12:0.040006475 
4 1:221.88423 2:42315.155 3:0.19378791 4:0.23395315 5:0.085274027 6:0.080093909 7:0.084851351 8:0.095657116 9:0.056179452 10:0.041095625 11:0.037895717 12:0.08186268 
4 1:0.00050570947 2:2.3011803e-06 3:0.67352683 4:0.13741687 5:0.070756209 6:0.040204575 7:0.024484872 8:0.015075644 9:0.01211068 10:0.0097690353 11:0.0082901773 12:0.007972711 
4 1:156.08203 2:11335.169 3:0.12109961 4:0.19473191 5:0.12345894 6:0.21000015 7:0.049451916 8:0.063081101 9:0.051373318 10:0.015310567 11:0.083148239 12:0.086352014 
4 1:0.006690139 2:3.4859903e-05 3:0.31890512 4:0.18101834 5:0.11735314 6:0.08589703 7:0.067211499 8:0.055529595 9:0.048270177 10:0.043598485 11:0.040786037 12:0.039468342 
4 1:23.118398 2:503.87851 3:0.24810575 4:0.12087307 5:0.19475268 6:0.14352043 7:0.066228721 8:0.074698959 9:0.075413632 10:0.027311098 11:0.018178693 12:0.030204982 
4 1:0.0008382714 2:8.5018246e-07 3:0.36926207 4:0.19512714 5:0.12214286 6:0.07430695 7:0.059118888 8:0.045149721 9:0.038350877 10:0.033637309 11:0.031239185 12:0.030168535 
4 1:0.0036451285 2:5.1202809e-05 3:0.47453955 4:0.25523606 5:0.093971206 6:0.0734025 7:0.059805959 8:0.02296211 9:0.012814131 10:0.0049853105 11:0.0020864116 12:0.00019194321 
4 1:0.066181602 2:0.020895556 3:0.69102425 4:0.2116489 5:0.054972304 6:0.017361481 7:0.0097448086 8:0.0052844517 9:0.0034415379 10:0.0025350264 11:0.0020104697 12:0.0018834363 
4 1:0.00095107081 2:2.9224511e-06 3:0.5054391 4:0.1973031 5:0.080545424 6:0.055101066 7:0.03718234 8:0.030844166 9:0.026322944 10:0.023414114 11:0.021796744 12:0.02100736 
4 1:12.499384 2:68.085387 3:0.19124372 4:0.15383794 5:0.18689139 6:0.1538527 7:0.0954615 8:0.086211627 9:0.067191056 10:0.029517177 11:0.017701071 12:0.017217699 
4 1:0.00040123586 2:2.3175778e-07 3:0.4002197 4:0.19462989 5:0.11191995 6:0.073100882 7:0.05462161 8:0.044962781 9:0.034565306 10:0.030054376 11:0.027779611 12:0.026815591 
4 1:29.219882 2:546.58503 3:0.27642461 4:0.13617471 5:0.13682667 6:0.10420214 7:0.078455601 8:0.056479076 9:0.064967063 10:0.042624552 11:0.062966535 12:0.038836611 
4 1:0.00095560187 2:1.8834391e-06 3:0.43135857 4:0.16011564 5:0.10256531 6:0.076125742 7:0.055569843 8:0.043129406 9:0.036652598 10:0.032901966 11:0.030587676 12:0.029526572 
4 1:0.005509117 2:2.1961019e-05 3:0.31213703 4:0.1797989 5:0.11917118 6:0.087289823 7:0.068159995 8:0.05655084 9:0.049045001 10:0.044293655 11:0.041452778 12:0.040107401 
4 1:0.00020895256 2:7.8110496e-08 3:0.39778721 4:0.22719249 5:0.10635819 6:0.07256993 7:0.050398944 8:0.041473094 9:0.029857774 10:0.026155096 11:0.023946387 12:0.023103124 
4 1:16.760915 2:70.180298 3:0.036838876 4:0.0469883 5:0.075038428 6:0.10293417 7:0.13228483 8:0.148397 9:0.14371475 10:0.12796139 11:0.10038827 12:0.080164074 
4 1:0.00010640887 2:4.4836206e-08 3:0.51974264 4:0.23777793 5:0.11161601 6:0.065728751 7:0.030967762 8:0.016876338 9:0.0098086449 10:0.0040894866 11:0.00202671 12:0.0013186795 
4 1:0.0001098679 2:5.3070083e-08 3:0.55315556 4:0.20132719 5:0.13445401 6:0.04416086 7:0.026413341 8:0.021472991 9:0.0082362285 10:0.0056375487 11:0.0029072447 12:0.0021448159 
4 1:0.00015969297 2:6.2367505e-08 3:0.39829233 4:0.26650351 5:0.1216246 6:0.070394318 7:0.049392765 8:0.029078346 9:0.02135176 10:0.016049987 11:0.013662746 12:0.013010599 
4 1:2.0294617 2:5.4548705 3:0.35565433 4:0.25522566 5:0.15846538 6:0.079542939 7:0.027010997 8:0.0074765278 9:0.0061438747 10:0.019100738 11:0.038064192 12:0.050659542 
4 1:0.0037030781 2:2.5334294e-05 3:0.4128023 4:0.17446485 5:0.097546277 6:0.070661619 7:0.055485646 8:0.045813561 9:0.039834712 10:0.035826221 11:0.033527235 12:0.0324256 
4 1:0.00010242469 2:4.3839152e-08 3:0.45773693 4:0.23002013 5:0.16153577 6:0.067268191 7:0.041914201 8:0.024282651 9:0.0074022777 10:0.0045147606 11:0.0028241954 12:0.0024051547 
4 1:0.0030532644 2:5.2342129e-05 3:0.69198115 4:0.11699708 5:0.10586805 6:0.030326105 7:0.014531751 8:0.010123329 9:0.0085502809 10:0.0075820116 11:0.0069759823 12:0.0067305226 
4 1:0.0006427621 2:5.4840834e-07 3:0.35408212 4:0.21030789 5:0.11372505 6:0.079819911 7:0.057057265 8:0.046026117 9:0.03858712 10:0.034943395 11:0.032542517 12:0.0313515 
4 1:0.0055483651 2:0.00025747811 3:0.74848353 4:0.12313136 5:0.038320342 6:0.022411813 7:0.015864679 8:0.012700168 9:0.010910367 10:0.0097835326 11:0.0091284816 12:0.008827045 
4 1:0.00010487372 2:5.6416634e-08 3:0.50488641 4:0.20344279 5:0.15520552 6:0.073732052 7:0.030442566 8:0.015493084 9:0.011788644 10:0.0033389038 11:0.0012044975 12:0.00044614484 
4 1:0.006339407 2:3.5469938e-05 3:0.3347455 4:0.18299157 5:0.11736846 6:0.082930757 7:0.063808227 8:0.052908202 9:0.045828808 10:0.041386379 11:0.038712754 12:0.037457048 
4 1:54.978788 2:1436.2813 3:0.20646351 4:0.15523709 5:0.19010292 6:0.14513764 7:0.094163644 8:0.07975574 9:0.067792043 10:0.028801583 11:0.015848792 12:0.015875932 
4 1:0.0001089253 2:6.4843677e-08 3:0.48866417 4:0.23209835 5:0.14678839 6:0.056860458 7:0.041690011 8:0.020871252 9:0.0061586581 10:0.0035402238 11:0.0017660584 12:0.0014934929 
4 1:0.00010732136 2:3.4837857e-08 3:0.43610253 4:0.27674877 5:0.13591157 6:0.072222703 7:0.046427151 8:0.012634593 9:0.010388618 10:0.0043986888 11:0.0031776515 12:0.0018978334 
4 1:0.00011360702 2:4.5805124e-08 3:0.51470301 4:0.23668593 5:0.11215272 6:0.07188244 7:0.032598403 8:0.021165451 9:0.0067581295 10:0.0025875405 11:0.0011185157 12:0.00034096557 
4 1:4.8083761 2:15.301881 3:0.28811217 4:0.14326016 5:0.12599334 6:0.10644705 7:0.082414327 8:0.044827521 9:0.062991215 10:0.044921014 11:0.055893326 12:0.042799597 
4 1:0.0022040135 2:6.7317249e-06 3:0.38282909 4:0.18310521 5:0.1153343 6:0.074115646 7:0.056579562 8:0.046123382 9:0.039519205 10:0.035573711 11:0.033166794 12:0.032059142 
4 1:0.0056654724 2:0.00018157545 3:0.65943521 4:0.13092451 5:0.075056094 6:0.035192653 7:0.026345396 8:0.019178655 9:0.015065609 10:0.013528099 11:0.012542275 12:0.012128987 
4 1:0.0053195783 2:0.00019111479 3:0.75100809 4:0.10548415 5:0.090926169 6:0.023622422 7:0.0089725569 8:0.0051684851 9:0.0042165381 10:0.0037164673 11:0.0034205755 12:0.0033009396 
4 1:0.0013483244 2:1.0925627e-05 3:0.60037343 4:0.13269568 5:0.084520503 6:0.044223562 7:0.032678645 8:0.02686517 9:0.022011944 10:0.019790149 11:0.018302293 12:0.017660173 
4 1:0.7195167 2:0.29078323 3:0.01806541 4:0.061719242 5:0.16025446 6:0.2223286 7:0.19301376 8:0.098385347 9:0.017831882 10:0.012184725 11:0.073143417 12:0.13557045 
4 1:0.00026734462 2:1.5563231e-07 3:0.43879449 4:0.1881013 5:0.10006606 6:0.07846901 7:0.052880219 8:0.039243876 9:0.029907384 10:0.025311227 11:0.023502814 12:0.022600797 
4 1:13.53919 2:169.68303 3:0.31933185 4:0.22949844 5:0.13433238 6:0.086169822 7:0.04168706 8:0.034786977 9:0.022624942 10:0.032832475 11:0.041608224 12:0.054211562 
4 1:0.22737978 2:0.396092 3:0.77950017 4:0.14756703 5:0.047672405 6:0.016910344 7:0.0053676427 8:0.0016446627 9:0.00054104587 10:0.00028197692 11:0.00025571213 12:0.00024675424 
4 1:0.00024954191 2:1.1863399e-07 3:0.40058438 4:0.23183733 5:0.10692784 6:0.074847471 7:0.050859544 8:0.037340466 9:0.029045009 10:0.024450814 11:0.022113881 12:0.020955451 
4 1:51.766675 2:2436.7504 3:0.24798903 4:0.19177414 5:0.10895199 6:0.08304832 7:0.070002825 8:0.079480421 9:0.060851502 10:0.050854335 11:0.044773485 12:0.061915545 
4 1:0.00038083204 2:2.9812992e-07 3:0.44312413 4:0.16065905 5:0.11376122 6:0.07683092 7:0.05273793 8:0.041089455 9:0.0314364 10:0.028209456 11:0.02593358 12:0.024981674 
4 1:0.00021673262 2:1.178407e-07 3:0.42727569 4:0.1948939 5:0.13608857 6:0.086466301 7:0.04484666 8:0.031612339 9:0.024572081 10:0.019088522 11:0.017762539 12:0.016586527 
4 1:0.00014672416 2:7.7297218e-08 3:0.54761811 4:0.17304421 5:0.10078442 6:0.067695656 7:0.047241517 8:0.024139446 9:0.011814649 10:0.010926992 11:0.0084302919 12:0.0079184789 
4 1:9.7108662e-05 2:4.5938619e-08 3:0.51814129 4:0.19760018 5:0.17065809 6:0.054193858 7:0.029806315 8:0.019343415 9:0.0052439781 10:0.0027377188 11:0.0016004842 12:0.00066023706 
4 1:0.0011151076 2:1.3637349e-05 3:0.75616924 4:0.16880194 5:0.042357855 6:0.015760602 7:0.0079319524 8:0.0034223894 9:0.0020268412 10:0.0012531708 11:0.0011934066 12:0.0010326715 
4 1:0.004366693 2:1.8794325e-05 3:0.35302246 4:0.17009346 5:0.11193096 6:0.082253774 7:0.064252231 8:0.0529644 9:0.045882785 10:0.041449595 11:0.038775606 12:0.037510697 
4 1:0.00038949024 2:5.0529976e-07 3:0.48641201 4:0.21656988 5:0.09384964 6:0.058032473 7:0.036391235 8:0.028426311 9:0.022722096 10:0.020206194 11:0.018590753 12:0.017908247 
4 1:0.0043195947 2:2.0791345e-05 3:0.34659178 4:0.19540425 5:0.12917648 6:0.074744191 7:0.058784493 8:0.047812923 9:0.041062673 10:0.036908127 11:0.034500786 12:0.033356179 
4 1:0.0016379745 2:3.361043e-06 3:0.38262796 4:0.18622251 5:0.11109137 6:0.078808357 7:0.056090127 8:0.045792044 9:0.039195368 10:0.034901584 11:0.032447222 12:0.031272919 
4 1:0.0057048504 2:2.4115924e-05 3:0.31649171 4:0.1768963 5:0.11827893 6:0.086980623 7:0.068482318 8:0.056572556 9:0.048895846 10:0.044146488 11:0.041306458 12:0.039962012 
4 1:4.7632166 2:12.632308 3:0.22168125 4:0.19432526 5:0.16806245 6:0.13690776 7:0.10553048 8:0.075998019 9:0.04986834 10:0.028450832 11:0.013316791 12:0.0056210072 
4 1:16.847793 2:161.1115 3:0.015806609 4:0.060711892 5:0.15955741 6:0.22245897 7:0.1938954 8:0.098998091 9:0.017943471 10:0.012313759 11:0.073856577 12:0.13691093 
4 1:0.0023837757 2:4.3813027e-06 3:0.31847548 4:0.18163323 5:0.11762733 6:0.085242173 7:0.067668233 8:0.055731951 9:0.048194535 10:0.043483235 11:0.040665258 12:0.039322657 
4 1:0.001741106 2:4.9133931e-06 3:0.40694331 4:0.17700803 5:0.10113447 6:0.071302246 7:0.05557548 8:0.046117444 9:0.039676915 10:0.035506585 11:0.033112929 12:0.032030541 
4 1:0.0013625498 2:3.9248279e-06 3:0.43734341 4:0.1825847 5:0.1132001 6:0.062416075 7:0.047589724 8:0.039053117 9:0.032891889 10:0.02947639 11:0.027511412 12:0.026610679 
4 1:0.0049035393 2:0.00014625486 3:0.72044549 4:0.18069822 5:0.055424325 6:0.015518761 7:0.0092062179 8:0.0053648035 9:0.0041368538 10:0.0032680609 11:0.0029480636 12:0.0028480171 
4 1:0.00046534873 2:2.4474317e-07 3:0.3422949 4:0.21961682 5:0.11678328 6:0.082933055 7:0.057093117 8:0.045649117 9:0.038467629 10:0.03382482 11:0.031520557 12:0.030311382 
4 1:0.00016313912 2:1.4479866e-07 3:0.6082974 4:0.19449627 5:0.11373929 6:0.041099875 7:0.020199118 8:0.01169204 9:0.0060826275 10:0.0027265546 11:0.00094449613 12:0.000703618 
4 1:0.00061781304 2:7.7269301e-07 3:0.45579484 4:0.18714875 5:0.098819942 6:0.06351154 7:0.048592357 8:0.036947498 9:0.030785075 10:0.02745913 11:0.025334688 12:0.024393572 
4 1:0.00021028325 2:1.5307363e-07 3:0.53731708 4:0.24119646 5:0.095018008 6:0.049802306 7:0.026103879 8:0.015535377 9:0.012637642 10:0.0080725083 11:0.0075220164 12:0.0064584578 
4 1:8.7391367e-05 2:2.447527e-08 3:0.44404734 4:0.27412872 5:0.11573989 6:0.083105852 7:0.050848088 8:0.0151523 9:0.0088091351 10:0.0051851558 11:0.0018202276 12:0.0011078228 
4 1:0.0086157843 2:0.00052398665 3:0.74542912 4:0.16343157 5:0.030195278 6:0.014600191 7:0.011918696 8:0.0085714107 9:0.0072382895 10:0.0064562442 11:0.0060369596 12:0.0058324343 
4 1:14.20246 2:95.821399 3:0.10091411 4:0.12642808 5:0.17419358 6:0.19930847 7:0.14441072 8:0.075970202 9:0.036911506 10:0.03104864 11:0.049947035 12:0.05868794 
4 1:0.00055012153 2:2.1195098e-06 3:0.63305179 4:0.2274792 5:0.075462116 6:0.036571503 7:0.01543605 8:0.0076397091 9:0.0030242378 10:0.00065529919 11:0.00053805949 12:0.00013457079 
4 1:0.00032269422 2:1.7142871e-07 3:0.41170875 4:0.18367003 5:0.10423611 6:0.078486191 7:0.056188655 8:0.043043275 9:0.034747838 10:0.03086386 11:0.028403435 12:0.027291974 
4 1:0.0010539619 2:7.6808091e-06 3:0.71813172 4:0.1295748 5:0.049372536 6:0.03522975 7:0.021001071 8:0.012702874 9:0.010194848 10:0.0084810332 11:0.0076330837 12:0.0073157606 
4 1:58.44054 2:2077.0145 3:0.24028486 4:0.2369592 5:0.098179247 6:0.080028271 7:0.11771491 8:0.069415505 9:0.043140383 10:0.039820368 11:0.030843861 12:0.041211869 
4 1:0.00011385788 2:3.272868e-08 3:0.45035206 4:0.21804252 5:0.15513318 6:0.067004283 7:0.043915266 8:0.028039592 9:0.014613531 10:0.0086893067 11:0.0071894169 12:0.0066927742 
4 1:0.00018900566 2:6.0800625e-08 3:0.38502026 4:0.19734199 5:0.13929469 6:0.072375091 7:0.058646966 8:0.037834813 9:0.031337054 10:0.027353503 11:0.025351196 12:0.024243568 
4 1:0.00096530387 2:3.0958239e-06 3:0.54278642 4:0.15415721 5:0.079713159 6:0.056599501 7:0.039752812 8:0.031410449 9:0.026965232 10:0.023844378 11:0.022224917 12:0.021478573 
4 1:0.00023076239 2:6.2261867e-07 3:0.64847552 4:0.22699383 5:0.060330424 6:0.030723225 7:0.01546433 8:0.0075289092 9:0.0049589208 10:0.0026054739 11:0.0017167659 12:0.001151793 
4 1:37.412002 2:407.80931 3:0.14058703 4:0.13843507 5:0.17015743 6:0.16371964 7:0.11848619 8:0.059509325 9:0.022248312 10:0.026539583 11:0.061480835 12:0.093794854 
4 1:0.00063947785 2:4.2687969e-07 3:0.34672715 4:0.18854928 5:0.12244316 6:0.085677659 7:0.059839967 8:0.048696341 9:0.041297446 10:0.037157285 11:0.034573293 12:0.033379391 
4 1:9.5670945e-05 2:3.7623321e-08 3:0.46671944 4:0.23089467 5:0.15450893 6:0.085336122 7:0.031892494 8:0.013903792 9:0.0083904089 10:0.0042464892 11:0.0024177186 12:0.0016239111 
4 1:0.022972509 2:0.0053405186 3:0.78758492 4:0.11041644 5:0.06337318 6:0.015717773 7:0.0091594168 8:0.0050755177 9:0.0025360179 10:0.0022473398 11:0.0019416844 12:0.0018555352 
4 1:0.00046433013 2:3.3703936e-07 3:0.41912789 4:0.18117571 5:0.1181911 6:0.072560514 7:0.051328187 8:0.040295151 9:0.033792823 10:0.029328348 11:0.026980032 12:0.025931714 
4 1:0.0070468281 2:0.00019624575 3:0.60068312 4:0.16905499 5:0.11507583 6:0.05751894 7:0.027209568 8:0.0085526698 9:0.0072416167 10:0.0056168506 11:0.004527582 12:0.0043052002 
4 1:0.0062362256 2:0.00013515841 3:0.55797198 4:0.29075867 5:0.096227184 6:0.03728365 7:0.011203879 8:0.004605485 9:0.0013934505 10:0.00041743092 11:9.1042212e-05 12:4.4979085e-05 
4 1:0.00089657519 2:9.2405919e-07 3:0.37492103 4:0.16698488 5:0.11471872 6:0.077680928 7:0.064146772 8:0.049191345 9:0.042874516 10:0.038149891 11:0.035395592 12:0.034232934 
4 1:0.00010100851 2:3.4883694e-08 3:0.46892798 4:0.22192193 5:0.15869591 6:0.077691344 7:0.034151566 8:0.014915462 9:0.010272178 10:0.005860064 11:0.0040060672 12:0.0034028784 
4 1:9.5205338 2:84.03335 3:0.27905232 4:0.24400918 5:0.15777351 6:0.06980205 7:0.025801742 8:0.031231588 9:0.056167165 10:0.064046899 11:0.046239968 12:0.024135772 
4 1:23.323135 2:221.51057 3:0.067672809 4:0.11314379 5:0.18644273 6:0.2110122 7:0.16107786 8:0.080290693 9:0.032759384 10:0.033757879 11:0.051089394 12:0.059713272 
4 1:0.9144449 2:0.42900301 3:0.20628497 4:0.15863068 5:0.19779666 6:0.14692635 7:0.080818489 8:0.082756323 9:0.069245798 10:0.027415619 11:0.014355509 12:0.015009592 
4 1:0.00012094904 2:6.3828592e-08 3:0.5348995 4:0.20764298 5:0.11404333 6:0.062085945 7:0.036747998 8:0.023067544 9:0.010535551 10:0.0062094403 11:0.00271905 12:0.0019428025 
4 1:0.0054168307 2:8.7970999e-05 3:0.49953919 4:0.14625907 5:0.085029259 6:0.06079012 7:0.047338596 8:0.039038574 9:0.033870196 10:0.030541598 11:0.028573668 12:0.027645264 
4 1:9.9806568e-05 2:3.6014888e-08 3:0.43781765 4:0.30024878 5:0.11113846 6:0.078768605 7:0.038908834 8:0.014781945 9:0.012209641 10:0.0040511463 11:0.0015493819 12:0.00051745866 
4 1:3.694945 2:2.822038 3:0.017559264 4:0.036573517 5:0.068283138 6:0.106021 7:0.13823715 8:0.15485864 9:0.15105874 10:0.13069351 11:0.10504291 12:0.087470199 
4 1:2.9630337 2:6.3261503 3:0.25977912 4:0.24417 5:0.15720242 6:0.061869437 7:0.047622342 8:0.040375353 9:0.05568335 10:0.06469864 11:0.039708556 12:0.027367076 
4 1:0.0010084096 2:7.6319688e-06 3:0.6694298 4:0.15642786 5:0.064149152 6:0.036121397 7:0.024032705 8:0.013760122 9:0.010669332 10:0.0091166453 11:0.008151435 12:0.0077568995 
4 1:0.0044748439 2:0.00012716514 3:0.72530714 4:0.17432206 5:0.040652168 6:0.026393776 7:0.015319184 8:0.0064424749 9:0.0038773308 10:0.0027311028 11:0.0024829625 12:0.002355246 
4 1:0.00062652039 2:1.7111184e-06 3:0.5228916 4:0.18621999 5:0.12175573 6:0.071598349 7:0.039618455 8:0.015863354 9:0.012526851 10:0.010465331 11:0.0095281033 12:0.0090822681 
4 1:0.00034213387 2:1.6678784e-07 3:0.37348598 4:0.23672832 5:0.099186328 6:0.068851882 7:0.053839335 8:0.043009613 9:0.03548848 10:0.031363278 11:0.028883813 12:0.027785117 
4 1:0.00011880933 2:5.3550683e-08 3:0.44919528 4:0.23802404 5:0.17025635 6:0.060147084 7:0.043009627 8:0.01535105 9:0.0085169238 10:0.0073234625 11:0.0043057674 12:0.003698673 
4 1:0.00090440094 2:6.3136451e-06 3:0.69556205 4:0.1122079 5:0.069384034 6:0.045080746 7:0.023935206 8:0.015084931 9:0.011671332 10:0.0095837321 11:0.0087077659 12:0.0083662257 
4 1:0.0043207405 2:5.7164892e-05 3:0.4882912 4:0.13356724 5:0.092834178 6:0.064696092 7:0.05053651 8:0.04137825 9:0.035690598 10:0.032273168 11:0.030135625 12:0.029147273 
4 1:0.00039517197 2:6.4543979e-07 3:0.53361732 4:0.19111767 5:0.077329529 6:0.070748783 7:0.039872692 8:0.028898328 9:0.020189865 10:0.014372382 11:0.012103994 12:0.011188771 
4 1:0.00012321403 2:6.4149309e-08 3:0.55544543 4:0.23317305 5:0.0996568 6:0.063238317 7:0.024573073 8:0.013398587 9:0.0058349775 10:0.0032502266 11:0.0010486533 12:0.00036945977 
4 1:0.00010030052 2:4.5737794e-08 3:0.52822135 4:0.19121855 5:0.15947044 6:0.066402206 7:0.018518406 8:0.0202507 9:0.010899264 10:0.0026153247 11:0.001830094 12:0.00056912161 
4 1:0.00010578983 2:3.7879154e-08 3:0.52382899 4:0.20169187 5:0.14056086 6:0.068961096 7:0.035523395 8:0.015895706 9:0.008039451 10:0.0031390839 11:0.0014362032 12:0.00089922228 
4 1:0.00010524529 2:4.6099338e-08 3:0.50489287 4:0.24535183 5:0.11743317 6:0.069877097 7:0.035296149 8:0.013019145 9:0.0084260002 10:0.0043857982 11:0.00084800218 12:0.00044851404 
4 1:0.0013663174 2:1.4715033e-06 3:0.31902788 4:0.18691742 5:0.11737167 6:0.085140924 7:0.066698237 8:0.054876035 9:0.047197866 10:0.042584051 11:0.03978427 12:0.038488491 
4 1:0.0034433181 2:1.3310764e-05 3:0.36822607 4:0.16836138 5:0.11092743 6:0.0808705 7:0.062143966 8:0.050772536 9:0.044142795 10:0.039700957 11:0.037137167 12:0.035930843 
4 1:8.4896699e-05 2:2.7603922e-08 3:0.44610921 4:0.27334411 5:0.11760685 6:0.08516172 7:0.047754521 8:0.015712663 9:0.0089774585 10:0.0030234091 11:0.0018793467 12:0.00041617476 
4 1:0.0050831332 2:1.8547941e-05 3:0.31052879 4:0.17976016 5:0.11925282 6:0.087807032 7:0.068590306 8:0.056756805 9:0.049145153 10:0.044402629 11:0.041556405 12:0.040201193 
4 1:0.00011369252 2:4.8769357e-08 3:0.48348109 4:0.24181395 5:0.12804354 6:0.070008121 7:0.0440022 8:0.018162472 9:0.010760987 10:0.0022799155 11:0.0010010707 12:0.0004193265 
4 1:0.025080237 2:0.0027917787 3:0.59835103 4:0.19466774 5:0.11234672 6:0.04224013 7:0.041466991 8:0.0076511902 9:0.0025022396 10:0.00040815056 11:0.00024671628 12:0.00011374736 
4 1:0.0001183495 2:5.3207709e-08 3:0.34575536 4:0.33148861 5:0.18142345 6:0.079903326 7:0.031107021 8:0.018269 9:0.0065811168 10:0.0025941721 11:0.0015974809 12:0.0012770461 
4 1:0.0032488055 2:1.0111281e-05 3:0.34847663 4:0.17210893 5:0.1150669 6:0.082418071 7:0.064465798 8:0.052798787 9:0.045634588 10:0.041265898 11:0.038582149 12:0.03732681 
4 1:16.965398 2:186.71872 3:0.2831187 4:0.14198529 5:0.12947062 6:0.10588145 7:0.081862563 8:0.047212861 9:0.063796826 10:0.044526023 11:0.057934824 12:0.041953997 
4 1:0.011154004 2:0.00062533122 3:0.56755802 4:0.18273506 5:0.081889996 6:0.042574619 7:0.032296689 8:0.023737989 9:0.019451651 10:0.017332467 11:0.016115087 12:0.015536493 
4 1:0.0035466388 2:9.2274701e-06 3:0.31229309 4:0.18182836 5:0.11912884 6:0.087417549 7:0.067700934 8:0.056116245 9:0.0487445 10:0.04391719 11:0.041110845 12:0.039763948 
4 1:7.2640863e-05 2:1.7776589e-08 3:0.46784798 4:0.23331816 5:0.13601616 6:0.090956577 7:0.038734279 8:0.017660975 9:0.0096661871 10:0.004050106 11:0.0010290557 12:0.00069041001 
4 1:0.00010520357 2:5.8697075e-08 3:0.58023595 4:0.19115844 5:0.12775344 6:0.037834893 7:0.032106598 8:0.019306288 9:0.0063006192 10:0.0028856014 11:0.0019432018 12:0.0004615629 
4 1:0.0011127679 2:1.6132536e-06 3:0.36882448 4:0.17838082 5:0.1117577 6:0.07849676 7:0.061385802 8:0.049579448 9:0.042354203 10:0.037978324 11:0.035375777 12:0.034168041 
4 1:1.1356795 2:0.090244112 3:0.081236046 4:0.097672195 5:0.11654517 6:0.12954233 7:0.13197988 8:0.1235008 9:0.10629602 10:0.085780802 11:0.06769828 12:0.057002317 
4 1:0.00011242552 2:7.8190339e-08 3:0.5416757 4:0.26003665 5:0.091225464 6:0.05394907 7:0.023168865 8:0.019172598 9:0.005599952 10:0.0036807302 11:0.00102059 12:0.00045419778 
4 1:0.00040156607 2:1.9178901e-07 3:0.35223318 4:0.21270841 5:0.1261328 6:0.078059192 7:0.058379023 8:0.046056659 9:0.036287703 10:0.031598474 11:0.029066779 12:0.02808569 
4 1:0.0010559535 2:3.4419587e-06 3:0.5368048 4:0.1913348 5:0.078494866 6:0.062408887 7:0.034276002 8:0.026322012 9:0.020025042 10:0.017807796 11:0.016174667 12:0.015578139 
4 1:0.00075219771 2:5.4148486e-07 3:0.33486047 4:0.19826529 5:0.11390342 6:0.084073357 7:0.063415294 8:0.050982449 9:0.043280045 10:0.038713742 11:0.0360192 12:0.034761096 
4 1:0.0010570817 2:8.9412342e-07 3:0.31912462 4:0.18592589 5:0.1176441 6:0.086079495 7:0.066612696 8:0.055448847 9:0.047222777 10:0.042275309 11:0.039549857 12:0.038217179 
4 1:0.001257236 2:2.2510214e-05 3:0.75818314 4:0.12050937 5:0.051335379 6:0.023297306 7:0.015022777 8:0.008089725 9:0.0068674886 10:0.0059249026 11:0.0053668303 12:0.0051508312 
4 1:0.0010470905 2:1.0113382e-05 3:0.77882272 4:0.1475717 5:0.048200991 6:0.014276019 7:0.0047827434 8:0.0029899006 9:0.0015032398 10:0.00078205961 11:0.00060108176 12:0.00045185612 
4 1:0.11861859 2:0.0024681775 3:0.14095197 4:0.12643897 5:0.15443103 6:0.14785439 7:0.11314121 8:0.071633124 9:0.041578924 10:0.043520065 11:0.066135955 12:0.089558183 
4 1:0.0012588617 2:8.5535625e-06 3:0.60613636 4:0.29285836 5:0.045326962 6:0.025626924 7:0.012504048 8:0.0071757421 9:0.0033922453 10:0.0025749966 11:0.0022603273 12:0.0020382398 
4 1:0.00086854404 2:3.7789113e-06 3:0.60168354 4:0.17206004 5:0.070962856 6:0.047011126 7:0.030178661 8:0.02062113 9:0.016214497 10:0.01449112 11:0.013314203 12:0.012828064 
4 1:44.964676 2:1284.9352 3:0.27523437 4:0.13830329 5:0.13558221 6:0.10487255 7:0.07976628 8:0.054129518 9:0.064990123 10:0.04333275 11:0.061902884 12:0.03979193 
4 1:0.00081742021 2:7.2859079e-07 3:0.34781455 4:0.17280076 5:0.11302463 6:0.085947472 7:0.063899738 8:0.053200428 9:0.045594034 10:0.040853144 11:0.038179262 12:0.03685521 
4 1:0.00052446338 2:6.0878803e-07 3:0.45442118 4:0.19849703 5:0.089448549 6:0.060409656 7:0.050890205 8:0.037439647 9:0.030588786 10:0.027314504 11:0.025341915 12:0.024433598 
4 1:0.00010656827 2:4.0578228e-08 3:0.48943726 4:0.23798424 5:0.11291871 6:0.048494208 7:0.055499539 8:0.028145265 9:0.011991533 10:0.0074882299 11:0.0043170053 12:0.0035784258 
4 1:0.0020320759 2:3.2558605e-06 3:0.32189796 4:0.18079543 5:0.11785721 6:0.085237607 7:0.06705977 8:0.055070629 9:0.047903019 10:0.04303693 11:0.040267416 12:0.03893912 
4 1:0.070006875 2:0.0025253924 3:0.2282867 4:0.18899242 5:0.1549167 6:0.13158242 7:0.10456884 8:0.074575991 9:0.051151829 10:0.033279106 11:0.019199616 12:0.012848936 
4 1:16.089751 2:387.12358 3:0.43220329 4:0.16970083 5:0.064078394 6:0.060814815 7:0.085055143 8:0.037535901 9:0.028721827 10:0.043487739 11:0.053116856 12:0.024025356 
4 1:0.0012176904 2:1.4188182e-06 3:0.33998576 4:0.19802221 5:0.1129786 6:0.080416172 7:0.06226641 8:0.050149798 9:0.043621648 10:0.039084036 11:0.03646572 12:0.035257405 
4 1:0.0012354137 2:1.3019378e-06 3:0.32706453 4:0.18279702 5:0.11731073 6:0.085720983 7:0.065599847 8:0.054033845 9:0.046753332 10:0.041893113 11:0.03913058 12:0.037816424 
4 1:35.460759 2:515.83115 3:0.067813851 4:0.11386046 5:0.18709355 6:0.21126969 7:0.1607824 8:0.079598211 9:0.032007081 10:0.033302398 11:0.05111163 12:0.060097812 
4 1:0.070277822 2:0.0052908074 3:0.33854655 4:0.11548421 5:0.16218677 6:0.1095464 7:0.039397799 8:0.05052338 9:0.069605529 10:0.03962471 11:0.023094008 12:0.048926559 
4 1:9.9609667e-05 2:2.1678779e-08 3:0.30419805 4:0.31860592 5:0.17183362 6:0.12480835 7:0.043432985 8:0.018561605 9:0.0079203788 10:0.0050211908 11:0.0033309973 12:0.0022000095 
4 1:0.0011161363 2:1.1980739e-06 3:0.34055514 4:0.17853633 5:0.1166836 6:0.083154639 7:0.064463537 8:0.052856586 9:0.04572159 10:0.040971985 11:0.038273297 12:0.036944898 
4 1:0.0088711899 2:5.9072416e-05 3:0.31532606 4:0.18105768 5:0.1178477 6:0.086474814 7:0.067768345 8:0.055978296 9:0.048668365 10:0.043954897 11:0.041136462 12:0.039808183 
4 1:0.0012860954 2:5.99617e-06 3:0.56555848 4:0.12377394 5:0.16770877 6:0.051670395 7:0.042224385 8:0.014043721 9:0.010284494 10:0.008832582 11:0.0079893945 12:0.0075402585 
4 1:106.23044 2:10948.861 3:0.32301936 4:0.12718747 5:0.1183767 6:0.15546373 7:0.043203768 8:0.044097351 9:0.068737544 10:0.047769728 11:0.041346767 12:0.028421234 
4 1:0.01001968 2:0.00016054424 3:0.3797469 4:0.21894287 5:0.11895335 6:0.1036135 7:0.048067672 8:0.035888753 9:0.026798373 10:0.023726329 11:0.021968769 12:0.02123785 
4 1:0.0057016113 2:2.4129291e-05 3:0.31581282 4:0.17918611 5:0.11801426 6:0.08669425 7:0.067861931 8:0.056291613 9:0.048814033 10:0.044110638 11:0.041288841 12:0.039940075 
4 1:0.00023098889 2:1.8430351e-07 3:0.52323856 4:0.19464637 5:0.10120843 6:0.073436893 7:0.034620805 8:0.022615057 9:0.016362149 10:0.012584163 11:0.010697068 12:0.010093496 
4 1:0.0030230279 2:3.0326598e-05 3:0.53116232 4:0.15795684 5:0.083681882 6:0.058073963 7:0.040193991 8:0.031803441 9:0.027169182 10:0.024287034 11:0.022666391 12:0.021915358 
4 1:0.00079677807 2:6.3799083e-06 3:0.73470561 4:0.13567481 5:0.045500338 6:0.032938371 7:0.014989512 8:0.010503161 9:0.007807975 10:0.0064184379 11:0.0057416207 12:0.0054505173 
4 1:0.0022314732 2:3.516633e-05 3:0.69971994 4:0.13990636 5:0.068653109 6:0.027000464 7:0.018606395 8:0.013495466 9:0.0096276089 10:0.008041953 11:0.0074681697 12:0.0071273409 
4 1:0.0032323176 2:1.0531644e-05 3:0.34588391 4:0.18286166 5:0.11622989 6:0.081714527 7:0.062185234 8:0.05139116 9:0.044324925 10:0.040030131 11:0.037401796 12:0.036177878 
4 1:0.00015465758 2:4.4378417e-08 3:0.41032611 4:0.20858472 5:0.1320009 6:0.082462962 7:0.053099692 8:0.030001276 9:0.025358548 10:0.020725599 11:0.018793037 12:0.01776704 
4 1:150.3488 2:9924.9378 3:0.11600519 4:0.18462026 5:0.12342519 6:0.20847903 7:0.055217412 8:0.066989759 9:0.053323728 10:0.015294755 11:0.082368638 12:0.092371562 
4 1:0.00013441286 2:3.3230426e-08 3:0.38042778 4:0.24465273 5:0.13840584 6:0.070185186 7:0.051814753 8:0.032595464 9:0.023662455 10:0.021598155 11:0.018319252 12:0.017473422 
4 1:0.00064171468 2:4.0295016e-07 3:0.3503909 4:0.18202436 5:0.12009008 6:0.07971092 7:0.062117596 8:0.05149713 9:0.042927703 10:0.038609041 11:0.036064717 12:0.034835487 
4 1:5.7984395 2:9.2366513 3:0.13735896 4:0.13670737 5:0.16847908 6:0.16273969 7:0.11875966 8:0.060975931 9:0.024331605 10:0.028438579 11:0.062694691 12:0.094444296 
4 1:0.00029687057 2:7.3907391e-07 3:0.70481675 4:0.12141445 5:0.08110272 6:0.042393482 7:0.02615007 8:0.0098786952 9:0.0060026976 10:0.0036194897 11:0.0023377795 12:0.0021761619 
4 1:0.00033634355 2:4.3258525e-07 3:0.55702833 4:0.17467528 5:0.079683128 6:0.058126678 7:0.035833211 8:0.02475898 9:0.020179572 10:0.017511851 11:0.016013739 12:0.015424136 
4 1:0.0021805796 2:3.7387106e-06 3:0.32113979 4:0.17799106 5:0.1205942 6:0.086125008 7:0.066964759 8:0.055162316 9:0.047752563 10:0.043064318 11:0.040294981 12:0.038973694 
4 1:1.8898619 2:5.3062241 3:0.32584889 4:0.069278135 5:0.21628893 6:0.14164092 7:0.016934249 8:0.045519632 9:0.084482318 10:0.033994112 11:0.0083441899 12:0.054105507 
4 1:0.00011216085 2:5.0079166e-08 3:0.48291063 4:0.24900206 5:0.10133195 6:0.079171807 7:0.035230323 8:0.024591104 9:0.0086016872 10:0.007946931 11:0.0059496696 12:0.0050085976 
4 1:0.00036768473 2:1.3951227e-07 3:0.33693058 4:0.20369506 5:0.1221234 6:0.085448897 7:0.060277796 8:0.050018009 9:0.039916424 10:0.035584634 11:0.032809656 12:0.031624028 
4 1:0.00022609648 2:1.010143e-07 3:0.40288068 4:0.21971941 5:0.10067072 6:0.082624679 7:0.04695979 8:0.039355542 9:0.033737267 10:0.026311616 11:0.02400086 12:0.022621036 
4 1:9.7133627e-05 2:3.7310374e-08 3:0.51131995 4:0.26856202 5:0.081120993 6:0.077640711 7:0.033202973 8:0.014692893 9:0.0080492862 10:0.0037033709 11:0.0010916898 12:0.0005897701 
4 1:0.0017495003 2:1.6239169e-05 3:0.65809086 4:0.14837696 5:0.06224389 6:0.03976679 7:0.023370047 8:0.01727679 9:0.014364547 10:0.012839324 11:0.011775368 12:0.011332262 
4 1:0.012525115 2:0.00066233459 3:0.56326892 4:0.28779904 5:0.096734357 6:0.034526262 7:0.010738439 8:0.0045060332 9:0.0014665592 10:0.00054340527 11:0.000245699 12:0.00016330271 
4 1:0.00066947909 2:5.5445826e-07 3:0.36405557 4:0.18632926 5:0.11337257 6:0.076994539 7:0.062171395 8:0.048051547 9:0.042000257 10:0.037362775 11:0.034606136 12:0.033391619 
4 1:0.0014817473 2:2.6953957e-06 3:0.38083771 4:0.18896299 5:0.10342595 6:0.075585011 7:0.057699543 8:0.047213447 9:0.040763119 10:0.036589126 11:0.034222613 12:0.033057929 
4 1:0.00094070245 2:1.4193237e-06 3:0.41822586 4:0.18167139 5:0.10085382 6:0.07650402 7:0.054259276 8:0.043780809 9:0.035942515 10:0.031629438 11:0.028408282 12:0.027332913 
4 1:3.1996243 2:4.572069 3:0.23757548 4:0.13976387 5:0.076306165 6:0.17193086 7:0.11328612 8:0.052643185 9:0.077131088 10:0.052072745 11:0.039692677 12:0.03736964 
4 1:0.0035907427 2:1.9095961e-05 3:0.40530393 4:0.15996844 5:0.10331207 6:0.075422387 7:0.058580507 8:0.048119633 9:0.041424685 10:0.037360949 11:0.034984322 12:0.033841097 
4 1:0.0010473823 2:2.1473838e-06 3:0.44913996 4:0.18430772 5:0.094043434 6:0.06318785 7:0.04965443 8:0.039350926 9:0.033548839 10:0.030142804 11:0.028129167 12:0.027145995 
4 1:0.0074689061 2:0.0003712024 3:0.64018513 4:0.16733947 5:0.065478171 6:0.041806225 7:0.023792071 8:0.017282378 9:0.012875688 10:0.010933447 11:0.010097761 12:0.0097264578 
4 1:98.73947 2:10920.41 3:0.34243452 4:0.10659096 5:0.11026845 6:0.19955329 7:0.055427899 8:0.033956127 9:0.071892177 10:0.029946067 11:0.027889406 12:0.020135591 
4 1:0.00079207419 2:3.750961e-06 3:0.5589677 4:0.2678616 5:0.05811822 6:0.031976585 7:0.023908359 8:0.016334059 9:0.013099726 10:0.010634216 11:0.0095172954 12:0.0091286914 
4 1:0.0001053088 2:4.6756773e-08 3:0.50403317 4:0.26728259 5:0.092959942 6:0.077233972 7:0.02823614 8:0.015831925 9:0.008768641 10:0.0040205287 11:0.0010417492 12:0.00056347501 
4 1:0.21927362 2:0.36096502 3:0.77619519 4:0.14906931 5:0.048369783 6:0.017154027 7:0.0054847029 8:0.00170946 9:0.00066843389 10:0.00047050838 11:0.00043627861 12:0.00042136664 
4 1:0.00053121989 2:1.0602524e-06 3:0.56166977 4:0.15872835 5:0.089619722 6:0.061167918 7:0.033648291 8:0.026472902 9:0.019587377 10:0.017270658 11:0.015867134 12:0.015215891 
